Model's state_dict:
conv1.weight 	 torch.Size([20, 1, 5, 5])
tensor([[[[ 0.0958, -0.1058, -0.0921,  0.0149, -0.2403],
          [ 0.1538,  0.0111,  0.1271,  0.0390, -0.0262],
          [ 0.1018,  0.0989,  0.1750,  0.0142,  0.0410],
          [-0.0193,  0.0619,  0.0553,  0.2482,  0.1558],
          [-0.1195, -0.1654, -0.0908, -0.1065, -0.0105]]],


        [[[ 0.0857,  0.2664,  0.1793, -0.2611,  0.0213],
          [ 0.1631,  0.3404,  0.1631, -0.2700, -0.2852],
          [ 0.0550,  0.3406, -0.0387, -0.0318, -0.1998],
          [ 0.3106,  0.0260,  0.1280, -0.0817, -0.1659],
          [ 0.1999, -0.0099,  0.0655, -0.0828, -0.0342]]],


        [[[-0.2430, -0.1338,  0.1168,  0.0462,  0.3215],
          [ 0.0967, -0.0199, -0.0511,  0.2773,  0.1772],
          [-0.1423,  0.1730,  0.2381,  0.3161, -0.0601],
          [ 0.0132,  0.0734,  0.1147, -0.0874, -0.1387],
          [ 0.1705,  0.0077,  0.1244,  0.0097,  0.0401]]],


        [[[ 0.0256,  0.0521,  0.0973, -0.1606,  0.1550],
          [-0.1546, -0.1682,  0.0176, -0.0023,  0.1797],
          [-0.1271, -0.1830,  0.1626,  0.0063,  0.1646],
          [ 0.0532, -0.1454,  0.0763,  0.0893, -0.0977],
          [-0.0970,  0.0837,  0.0758, -0.0422, -0.0322]]],


        [[[ 0.2575,  0.0559,  0.1953,  0.1159, -0.1583],
          [-0.0881,  0.3586,  0.1729,  0.2013,  0.0344],
          [ 0.1710,  0.3780,  0.3763, -0.0876,  0.0142],
          [ 0.2353,  0.3293,  0.2684, -0.1067, -0.1517],
          [-0.0882,  0.1284,  0.3028, -0.0845,  0.1193]]],


        [[[-0.1557, -0.2330, -0.0353,  0.2260,  0.3056],
          [-0.1401,  0.0709,  0.2850,  0.3126,  0.2489],
          [ 0.1831,  0.1979,  0.1665,  0.0056, -0.0805],
          [-0.0445,  0.0197, -0.0684,  0.1537,  0.1046],
          [-0.0263,  0.0798,  0.0750,  0.1509,  0.1420]]],


        [[[-0.0907,  0.1591, -0.0566, -0.0275, -0.1956],
          [-0.1538, -0.1566, -0.1271,  0.1112, -0.0730],
          [-0.1579,  0.0556,  0.0365,  0.1038, -0.1071],
          [ 0.0671, -0.0608, -0.0446, -0.1615, -0.0682],
          [-0.0097,  0.1406,  0.0942,  0.1209,  0.2899]]],


        [[[ 0.2527,  0.1797, -0.0006, -0.1639,  0.1435],
          [ 0.0373,  0.0192, -0.1968, -0.0699, -0.1417],
          [ 0.2560, -0.1538, -0.1817, -0.0320, -0.1130],
          [ 0.1344, -0.0404, -0.0887,  0.0179,  0.1604],
          [-0.0894,  0.1563,  0.1857,  0.2405, -0.1255]]],


        [[[ 0.0486, -0.1769,  0.1537, -0.0706,  0.1251],
          [ 0.0124, -0.0296,  0.0328,  0.1456,  0.2029],
          [ 0.0679,  0.1047, -0.0968,  0.2778,  0.3216],
          [ 0.2123,  0.1940, -0.1220, -0.0409,  0.2698],
          [-0.1803,  0.1396, -0.2112, -0.1796,  0.1229]]],


        [[[-0.0821,  0.0400,  0.2563,  0.2726,  0.3131],
          [ 0.0234, -0.0892,  0.2834,  0.0478,  0.0230],
          [ 0.0661, -0.1488,  0.1192,  0.1434, -0.1167],
          [-0.2084, -0.0853,  0.0174, -0.0361, -0.0974],
          [-0.0479, -0.2591, -0.2100, -0.1633,  0.1662]]],


        [[[ 0.2640,  0.0173,  0.0647,  0.1155,  0.0124],
          [ 0.0155,  0.2804,  0.2690,  0.0735, -0.0050],
          [ 0.2757,  0.3199,  0.0117,  0.2998,  0.0911],
          [-0.1258,  0.1576, -0.0929,  0.2517, -0.1166],
          [ 0.0212,  0.0656,  0.0753,  0.2078, -0.0756]]],


        [[[-0.0404, -0.1317,  0.0059, -0.1231, -0.0185],
          [ 0.0154,  0.1416,  0.2403,  0.0810, -0.0615],
          [-0.0616, -0.1274,  0.2289,  0.0115,  0.0855],
          [ 0.0114, -0.1331,  0.1207,  0.1458,  0.0625],
          [-0.1295, -0.1083, -0.0134, -0.1090, -0.0871]]],


        [[[-0.0368, -0.0731,  0.0544,  0.0219,  0.0874],
          [-0.1026, -0.2235,  0.1383,  0.0909,  0.2952],
          [-0.0689, -0.0972, -0.2148, -0.0039,  0.2606],
          [-0.2317, -0.1230,  0.0908,  0.1750,  0.1773],
          [-0.0820, -0.0503, -0.0289,  0.0034,  0.1793]]],


        [[[-0.0682, -0.1179,  0.0364, -0.1527, -0.0533],
          [ 0.0900,  0.0574,  0.1474, -0.1574, -0.0176],
          [-0.0788, -0.1318, -0.1384,  0.0151, -0.0133],
          [-0.1170, -0.1572, -0.1859,  0.1639, -0.0682],
          [-0.0658, -0.0930, -0.1189, -0.2035, -0.1408]]],


        [[[ 0.2766,  0.2437,  0.1410,  0.0730,  0.2155],
          [ 0.2663,  0.3860,  0.2645,  0.2321,  0.0887],
          [-0.1814, -0.1945,  0.1261, -0.0307,  0.1208],
          [-0.1279, -0.2897, -0.2199, -0.0421, -0.0576],
          [-0.3019, -0.0310, -0.0996, -0.1525,  0.0483]]],


        [[[ 0.0370, -0.0765,  0.1954,  0.0865, -0.0376],
          [-0.0234, -0.1464,  0.1943, -0.0752, -0.2083],
          [ 0.2057,  0.1796,  0.1533,  0.0013, -0.0743],
          [ 0.1214,  0.3018,  0.1959,  0.0651,  0.3101],
          [ 0.0264,  0.2324,  0.1782,  0.3235,  0.2391]]],


        [[[-0.1263,  0.1077, -0.0231, -0.1691, -0.0446],
          [-0.1977, -0.1336, -0.1701,  0.1264, -0.0452],
          [-0.0094,  0.1117,  0.0870, -0.1221,  0.0879],
          [ 0.1493, -0.0933,  0.2376, -0.0686, -0.0353],
          [-0.1105,  0.2605,  0.1197,  0.2470,  0.0794]]],


        [[[ 0.1498, -0.0502, -0.1723,  0.0067, -0.0338],
          [ 0.0100, -0.0687,  0.0356,  0.1056,  0.1317],
          [-0.1322,  0.1566,  0.0985,  0.2189,  0.2235],
          [-0.1124,  0.2508, -0.1655,  0.1167,  0.0310],
          [ 0.1388, -0.1030,  0.0802, -0.1694, -0.2128]]],


        [[[ 0.1087,  0.1994,  0.3255,  0.0780,  0.2446],
          [ 0.1412, -0.0520, -0.0846,  0.1484, -0.1120],
          [ 0.0511, -0.1687,  0.1464,  0.0383, -0.0592],
          [ 0.0329, -0.1576, -0.0603,  0.0048, -0.1063],
          [-0.0954, -0.0951,  0.2080,  0.2368,  0.2555]]],


        [[[ 0.1293, -0.2125,  0.0634,  0.1042, -0.1220],
          [ 0.0357, -0.1301,  0.0556,  0.1545,  0.2495],
          [-0.1344, -0.1341,  0.2683,  0.1876,  0.1675],
          [ 0.0788, -0.0008,  0.1912, -0.1454,  0.0417],
          [ 0.1201,  0.1769, -0.0908, -0.1578,  0.0546]]]], device='cuda:0')

conv1.bias 	 torch.Size([20])
tensor([-0.1454, -0.1490, -0.1581, -0.0836,  0.0335, -0.0756, -0.0553, -0.1588,
         0.1720, -0.0027, -0.0638,  0.0595, -0.1290,  0.1728,  0.1571, -0.1334,
        -0.1164, -0.0902, -0.0866,  0.0541], device='cuda:0')

conv2.weight 	 torch.Size([50, 20, 5, 5])
tensor([[[[-0.0430, -0.0323,  0.0159, -0.0109, -0.0083],
          [-0.0336,  0.0326,  0.0139, -0.0088, -0.0232],
          [ 0.0081,  0.0252,  0.0425,  0.0323, -0.0001],
          [-0.0271,  0.0344,  0.0099, -0.0188,  0.0415],
          [ 0.0374, -0.0281, -0.0215, -0.0114, -0.0261]],

         [[ 0.0169, -0.0318,  0.0314, -0.0433,  0.0170],
          [-0.0075, -0.0172,  0.0373, -0.0476, -0.0295],
          [-0.0014,  0.0311, -0.0105, -0.0315, -0.0220],
          [-0.0269, -0.0247, -0.0194, -0.0279,  0.0299],
          [-0.0019, -0.0424, -0.0450,  0.0052,  0.0086]],

         [[ 0.0267, -0.0110, -0.0377, -0.0313, -0.0194],
          [-0.0123,  0.0033, -0.0168,  0.0076, -0.0250],
          [ 0.0301,  0.0099, -0.0205,  0.0337,  0.0109],
          [-0.0346, -0.0260,  0.0227,  0.0297,  0.0421],
          [-0.0132,  0.0225,  0.0298,  0.0240, -0.0120]],

         ...,

         [[-0.0032, -0.0329,  0.0026, -0.0053,  0.0182],
          [ 0.0451, -0.0214, -0.0013,  0.0438, -0.0394],
          [-0.0055,  0.0525,  0.0382,  0.0211, -0.0170],
          [-0.0050, -0.0404, -0.0399, -0.0285,  0.0469],
          [ 0.0336,  0.0182, -0.0007,  0.0447, -0.0165]],

         [[ 0.0395,  0.0100, -0.0222, -0.0041,  0.0049],
          [-0.0351,  0.0310, -0.0065,  0.0308,  0.0394],
          [-0.0032,  0.0339,  0.0227,  0.0437, -0.0258],
          [-0.0098, -0.0062,  0.0621, -0.0223, -0.0235],
          [ 0.0042,  0.0405,  0.0353, -0.0368, -0.0314]],

         [[ 0.0414,  0.0004, -0.0387, -0.0058,  0.0192],
          [-0.0014, -0.0303, -0.0305, -0.0187, -0.0047],
          [ 0.0261,  0.0427, -0.0120, -0.0011, -0.0252],
          [ 0.0352,  0.0579,  0.0496,  0.0362,  0.0033],
          [-0.0057,  0.0147, -0.0266,  0.0114, -0.0380]]],


        [[[-0.0509, -0.0048, -0.0093, -0.0180,  0.0158],
          [-0.0046,  0.0041, -0.0284, -0.0426,  0.0029],
          [-0.0128,  0.0008,  0.0488,  0.0145,  0.0195],
          [-0.0053, -0.0213,  0.0307, -0.0107,  0.0141],
          [-0.0296,  0.0395, -0.0227,  0.0515,  0.0395]],

         [[ 0.0257,  0.0275,  0.0104, -0.0069,  0.0004],
          [-0.0207, -0.0384,  0.0284, -0.0164,  0.0131],
          [ 0.0038,  0.0164, -0.0428, -0.0508,  0.0195],
          [ 0.0228,  0.0173, -0.0543,  0.0060, -0.0419],
          [-0.0012, -0.0152, -0.0406, -0.0312,  0.0124]],

         [[ 0.0443,  0.0526, -0.0164,  0.0020, -0.0365],
          [-0.0355, -0.0152,  0.0393, -0.0178, -0.0184],
          [ 0.0409, -0.0063,  0.0224,  0.0144,  0.0260],
          [ 0.0072, -0.0403, -0.0439, -0.0224,  0.0371],
          [ 0.0208,  0.0173, -0.0206, -0.0306,  0.0313]],

         ...,

         [[ 0.0224, -0.0092,  0.0279, -0.0173, -0.0115],
          [-0.0081,  0.0166,  0.0206, -0.0089, -0.0259],
          [ 0.0021,  0.0225, -0.0386, -0.0179, -0.0452],
          [ 0.0048,  0.0029,  0.0424,  0.0468, -0.0373],
          [-0.0199,  0.0038,  0.0126, -0.0081, -0.0306]],

         [[-0.0153, -0.0053,  0.0318, -0.0121,  0.0249],
          [-0.0303,  0.0060, -0.0308, -0.0371,  0.0081],
          [-0.0244,  0.0322,  0.0428, -0.0414, -0.0134],
          [-0.0023, -0.0126, -0.0166, -0.0102,  0.0213],
          [ 0.0167,  0.0335,  0.0122,  0.0431,  0.0222]],

         [[-0.0103,  0.0030, -0.0324,  0.0051, -0.0132],
          [-0.0217, -0.0293, -0.0134, -0.0381, -0.0159],
          [ 0.0035, -0.0164,  0.0321,  0.0227,  0.0077],
          [-0.0144,  0.0183, -0.0131,  0.0429,  0.0426],
          [-0.0081,  0.0479,  0.0635,  0.0039, -0.0195]]],


        [[[-0.0009, -0.0040, -0.0570, -0.0195, -0.0170],
          [ 0.0224, -0.0223,  0.0046,  0.0253, -0.0204],
          [-0.0007, -0.0268, -0.0334, -0.0262, -0.0006],
          [ 0.0013, -0.0179,  0.0148,  0.0496,  0.0254],
          [ 0.0069,  0.0054, -0.0307, -0.0106, -0.0232]],

         [[ 0.0208, -0.0496, -0.0265,  0.0839,  0.0728],
          [-0.0512,  0.0077,  0.0152,  0.1047,  0.0125],
          [-0.0170,  0.0004,  0.0960,  0.1177, -0.0164],
          [-0.0407,  0.0091,  0.0741,  0.0659, -0.0544],
          [-0.0036,  0.0174,  0.0083,  0.0368, -0.0172]],

         [[-0.0550, -0.0458,  0.0087,  0.0037,  0.0179],
          [ 0.0205, -0.0105,  0.0397,  0.0752,  0.0146],
          [ 0.0086,  0.0204,  0.0428, -0.0503, -0.0186],
          [ 0.0352,  0.0097, -0.0388, -0.0014,  0.0254],
          [ 0.0322, -0.0043, -0.0079, -0.0088, -0.0309]],

         ...,

         [[-0.0146, -0.0267, -0.0463,  0.0494, -0.0112],
          [-0.0606, -0.0215, -0.0307, -0.0005, -0.0436],
          [-0.0276, -0.0206,  0.0229,  0.0113,  0.0408],
          [-0.0046,  0.0234, -0.0508, -0.0360,  0.0276],
          [-0.0033, -0.0046,  0.0102,  0.0299,  0.0212]],

         [[-0.0341, -0.0161,  0.0262,  0.0212, -0.0203],
          [-0.0260,  0.0305,  0.0448, -0.0055, -0.0150],
          [-0.0590,  0.0097,  0.0324, -0.0246, -0.0447],
          [-0.0605,  0.0325,  0.0498,  0.0490,  0.0302],
          [-0.0208,  0.0100,  0.0199, -0.0135, -0.0321]],

         [[ 0.0281, -0.0263,  0.0103,  0.0081, -0.0106],
          [-0.0317, -0.0148,  0.0523,  0.0378, -0.0225],
          [ 0.0259, -0.0222,  0.0187, -0.0446, -0.0019],
          [ 0.0293, -0.0324,  0.0123, -0.0518, -0.0092],
          [-0.0321, -0.0079, -0.0394,  0.0107, -0.0442]]],


        ...,


        [[[ 0.0323,  0.0426, -0.0367, -0.0254,  0.0388],
          [ 0.0021,  0.0215, -0.0563, -0.0319,  0.0131],
          [ 0.0217, -0.0468,  0.0004, -0.0272, -0.0201],
          [-0.0306, -0.0480, -0.0425,  0.0023,  0.0114],
          [ 0.0228,  0.0250,  0.0112,  0.0339,  0.0086]],

         [[ 0.0169,  0.0438, -0.0351, -0.0262, -0.0326],
          [ 0.0025, -0.0023, -0.0306, -0.0162,  0.0090],
          [ 0.0330,  0.0007,  0.0277,  0.0019,  0.0587],
          [ 0.0286,  0.0157, -0.0161,  0.0054,  0.0161],
          [ 0.0169,  0.0186,  0.0138,  0.0040,  0.0160]],

         [[ 0.0344, -0.0309, -0.0428,  0.0092, -0.0339],
          [-0.0225, -0.0007,  0.0037, -0.0185,  0.0518],
          [-0.0190,  0.0164,  0.0045,  0.0009, -0.0037],
          [-0.0468,  0.0131,  0.0221,  0.0575,  0.0172],
          [ 0.0397,  0.0397,  0.0216,  0.0197,  0.0330]],

         ...,

         [[-0.0071,  0.0094,  0.0168,  0.0097,  0.0227],
          [ 0.0221, -0.0588, -0.0050,  0.0170, -0.0141],
          [ 0.0372, -0.0446,  0.0502,  0.0070, -0.0344],
          [-0.0071,  0.0035,  0.0487, -0.0319,  0.0351],
          [-0.0484,  0.0063,  0.0373, -0.0035,  0.0252]],

         [[-0.0315, -0.0161,  0.0068,  0.0118,  0.0245],
          [-0.0367, -0.0092, -0.0082, -0.0076,  0.0013],
          [-0.0148,  0.0057, -0.0105, -0.0211,  0.0217],
          [ 0.0259, -0.0406, -0.0186,  0.0226, -0.0220],
          [-0.0431,  0.0224, -0.0430,  0.0175, -0.0002]],

         [[ 0.0496, -0.0167, -0.0329,  0.0325,  0.0216],
          [ 0.0422, -0.0232,  0.0135,  0.0488,  0.0531],
          [-0.0354,  0.0241, -0.0279,  0.0117,  0.0043],
          [ 0.0110,  0.0346, -0.0188,  0.0437, -0.0034],
          [ 0.0332,  0.0052,  0.0405, -0.0443,  0.0364]]],


        [[[ 0.0075, -0.0306,  0.0354,  0.0225, -0.0058],
          [-0.0360,  0.0117,  0.0278, -0.0399,  0.0066],
          [ 0.0466,  0.0255,  0.0151,  0.0413, -0.0122],
          [-0.0152,  0.0227, -0.0297,  0.0170,  0.0072],
          [-0.0204,  0.0235,  0.0293, -0.0418,  0.0352]],

         [[ 0.0142,  0.0136,  0.0136,  0.0310,  0.0061],
          [-0.0080,  0.0295,  0.0352, -0.0366, -0.0428],
          [ 0.0217,  0.0084,  0.0281, -0.0137,  0.0388],
          [ 0.0044,  0.0267,  0.0078, -0.0288,  0.0183],
          [-0.0346,  0.0432, -0.0273,  0.0245, -0.0140]],

         [[-0.0038, -0.0109,  0.0257,  0.0400, -0.0020],
          [-0.0175, -0.0304,  0.0222, -0.0058, -0.0345],
          [-0.0293, -0.0188, -0.0285,  0.0347, -0.0288],
          [ 0.0075, -0.0078, -0.0436,  0.0179, -0.0032],
          [ 0.0216,  0.0089, -0.0281, -0.0303,  0.0453]],

         ...,

         [[-0.0234, -0.0226,  0.0212,  0.0039, -0.0321],
          [ 0.0204,  0.0331,  0.0092,  0.0142, -0.0341],
          [-0.0224, -0.0306, -0.0058, -0.0403,  0.0466],
          [-0.0059, -0.0354,  0.0361, -0.0176, -0.0337],
          [-0.0313, -0.0246, -0.0273,  0.0193, -0.0427]],

         [[-0.0118,  0.0032, -0.0116,  0.0483,  0.0495],
          [ 0.0065, -0.0173,  0.0489, -0.0425, -0.0162],
          [ 0.0290,  0.0413, -0.0356, -0.0174,  0.0123],
          [-0.0380,  0.0381,  0.0243,  0.0237, -0.0150],
          [-0.0272,  0.0322, -0.0117,  0.0073,  0.0185]],

         [[-0.0222,  0.0019, -0.0287, -0.0064, -0.0088],
          [-0.0415,  0.0263, -0.0426, -0.0332, -0.0007],
          [-0.0153, -0.0351, -0.0393,  0.0363, -0.0020],
          [-0.0339,  0.0065, -0.0329,  0.0081, -0.0045],
          [ 0.0043,  0.0425,  0.0295,  0.0132, -0.0318]]],


        [[[ 0.0166, -0.0163,  0.0393,  0.0384, -0.0330],
          [ 0.0273,  0.0422, -0.0216,  0.0107, -0.0013],
          [-0.0287, -0.0104, -0.0159, -0.0369, -0.0097],
          [ 0.0078,  0.0409, -0.0290,  0.0083,  0.0361],
          [ 0.0028, -0.0067,  0.0314, -0.0335,  0.0152]],

         [[-0.0041,  0.0084,  0.0108,  0.0384, -0.0219],
          [-0.0285,  0.0362, -0.0216, -0.0252, -0.0347],
          [ 0.0078,  0.0160,  0.0205, -0.0425, -0.0360],
          [ 0.0365, -0.0241, -0.0232, -0.0352,  0.0210],
          [-0.0278, -0.0214, -0.0493, -0.0218,  0.0132]],

         [[-0.0254,  0.0147,  0.0765,  0.0246, -0.0388],
          [ 0.0263,  0.0435,  0.0215, -0.0384,  0.0388],
          [ 0.0052, -0.0442, -0.0553, -0.0196, -0.0243],
          [ 0.0063,  0.0069, -0.0590, -0.0557, -0.0512],
          [-0.0467, -0.0371, -0.0492,  0.0081, -0.0003]],

         ...,

         [[-0.0116, -0.0044,  0.0100,  0.0444,  0.0053],
          [ 0.0362, -0.0048, -0.0034, -0.0076,  0.0292],
          [-0.0410, -0.0035,  0.0015, -0.0295,  0.0021],
          [-0.0461, -0.0061, -0.0133, -0.0412,  0.0039],
          [ 0.0234, -0.0150,  0.0178,  0.0365, -0.0061]],

         [[ 0.0276,  0.0338, -0.0344, -0.0308, -0.0371],
          [-0.0013, -0.0080,  0.0482,  0.0058, -0.0230],
          [ 0.0297,  0.0454, -0.0144, -0.0307, -0.0176],
          [ 0.0321,  0.0171, -0.0266,  0.0078, -0.0253],
          [ 0.0239,  0.0148,  0.0133, -0.0227,  0.0286]],

         [[ 0.0364,  0.0624,  0.0558, -0.0132,  0.0317],
          [-0.0204,  0.0574, -0.0258, -0.0252, -0.0344],
          [ 0.0025,  0.0164,  0.0168, -0.0212, -0.0089],
          [-0.0385, -0.0129,  0.0091, -0.0364,  0.0055],
          [ 0.0336,  0.0142,  0.0041,  0.0055,  0.0381]]]], device='cuda:0')

conv2.bias 	 torch.Size([50])
tensor([-0.0200, -0.0185,  0.0403,  0.0115, -0.0334, -0.0280,  0.0207, -0.0175,
         0.0150,  0.0330, -0.0338, -0.0352, -0.0191, -0.0048,  0.0069, -0.0175,
         0.0320, -0.0303, -0.0272, -0.0057,  0.0267,  0.0205,  0.0045,  0.0095,
        -0.0229, -0.0051, -0.0091,  0.0429,  0.0258, -0.0035,  0.0136, -0.0214,
         0.0067, -0.0327, -0.0156,  0.0419,  0.0058, -0.0099, -0.0246, -0.0047,
         0.0207,  0.0394,  0.0232,  0.0192, -0.0326,  0.0438,  0.0119, -0.0171,
        -0.0056, -0.0389], device='cuda:0')

fc1.weight 	 torch.Size([500, 800])
tensor([[ 0.0280, -0.0303, -0.0186,  ...,  0.0209, -0.0247,  0.0140],
        [-0.0180, -0.0037, -0.0096,  ...,  0.0199, -0.0178,  0.0063],
        [ 0.0116, -0.0020, -0.0130,  ...,  0.0175,  0.0166,  0.0216],
        ...,
        [-0.0127,  0.0123,  0.0081,  ...,  0.0138, -0.0212,  0.0234],
        [-0.0016,  0.0234, -0.0062,  ..., -0.0228,  0.0113,  0.0259],
        [-0.0109,  0.0298, -0.0235,  ..., -0.0112,  0.0343, -0.0357]],
       device='cuda:0')

fc1.bias 	 torch.Size([500])
tensor([-2.0199e-02,  1.7413e-03,  3.3230e-02,  1.2967e-02,  2.0660e-02,
         5.9535e-03,  3.2091e-02,  1.3348e-02,  2.3239e-02,  1.3525e-02,
         2.2436e-02, -2.6700e-02, -1.7536e-02,  4.8502e-03, -2.6294e-02,
        -7.9809e-03, -3.3933e-03, -1.0428e-02,  2.7620e-02,  7.9595e-03,
         3.3305e-02,  6.2198e-03, -2.2954e-02,  2.9338e-02,  9.3826e-03,
        -2.5499e-02,  1.3961e-02,  3.3801e-02,  3.2374e-02,  2.2670e-02,
        -2.0536e-03, -2.7052e-02, -1.6913e-02,  6.4180e-03, -1.1439e-02,
         8.0559e-03, -1.9220e-02,  5.4903e-03,  1.8221e-02, -8.2045e-03,
         2.7923e-02, -2.1348e-02,  1.9436e-02,  3.3500e-02,  6.3427e-03,
         9.5131e-03, -2.2271e-02,  2.6093e-02,  1.3929e-02, -2.3175e-02,
         2.3000e-02,  2.7277e-02, -3.0637e-02,  1.3472e-02, -1.1024e-02,
         1.3109e-02, -1.5031e-02, -2.9066e-02, -3.0344e-02,  3.2025e-02,
        -5.8377e-03, -1.3059e-02,  1.9261e-02, -1.4226e-02, -1.3512e-02,
         9.5064e-03, -1.1469e-02, -1.4166e-02,  1.6143e-02, -1.6211e-02,
        -3.1136e-03,  2.5423e-02,  1.4721e-02, -3.1238e-02, -3.2033e-03,
         3.5657e-02,  2.3742e-02, -1.9846e-02, -3.4547e-02,  3.4580e-02,
        -4.7416e-03, -1.5960e-02,  2.0877e-02, -3.3354e-02, -2.5972e-02,
        -8.4409e-03, -9.1669e-03,  3.5416e-02,  2.8554e-02, -3.5167e-02,
        -1.2047e-02,  1.1215e-02, -3.2534e-02,  1.9919e-02,  2.5009e-02,
        -2.5972e-02,  8.0439e-04, -1.7018e-02,  1.2959e-02,  1.0668e-02,
         2.6229e-02, -1.2934e-02, -1.0209e-02,  2.0570e-02, -1.3556e-02,
        -3.2953e-03, -1.0597e-02,  5.1990e-03, -2.9905e-02, -2.2626e-02,
         3.4691e-02,  2.1887e-02, -3.2693e-03,  1.7415e-02,  3.0601e-02,
         3.2104e-02, -1.2475e-03,  2.0713e-02,  2.6066e-02,  2.2278e-02,
         1.8907e-02,  4.1131e-03,  3.3157e-02, -8.2838e-03,  1.9317e-02,
         2.3158e-02, -1.1744e-03,  3.6462e-05, -5.8710e-03, -3.3554e-02,
         1.8226e-02, -3.2071e-02, -1.8250e-02,  2.4834e-02,  2.4777e-02,
        -2.8871e-03, -1.3786e-02, -6.6550e-03, -2.0204e-02, -2.0209e-02,
        -2.2759e-02, -7.2069e-03, -2.6369e-02, -2.9512e-02, -1.7937e-02,
         3.3790e-02,  3.5334e-02, -1.4816e-02,  3.5856e-02, -2.4214e-02,
        -5.2364e-03, -1.7065e-02, -3.1840e-02, -2.8496e-02,  3.1840e-02,
         4.8637e-03,  1.9993e-03,  6.1373e-03, -2.3520e-02, -3.3059e-03,
        -3.4153e-02, -1.9062e-02, -3.2066e-02, -1.2891e-02,  2.8194e-02,
         1.8003e-04,  2.5238e-02,  2.2528e-02, -7.1283e-04,  1.5532e-02,
        -1.0263e-02, -1.4902e-02,  3.0085e-02,  3.1029e-02,  3.0489e-02,
         3.1093e-02,  3.3279e-02,  1.0369e-02, -1.1703e-02, -3.0911e-03,
        -1.5714e-02,  2.7632e-02, -2.1025e-02,  3.9513e-03, -3.1270e-02,
         5.6448e-04,  1.0940e-02,  2.3496e-02, -1.9926e-02, -1.6821e-02,
        -1.6640e-02, -2.2533e-02,  1.3468e-02, -1.1074e-02, -1.5930e-02,
        -2.6252e-02, -2.5796e-02, -2.8833e-02,  2.7457e-02,  2.2880e-02,
         2.8303e-02, -9.5305e-04,  3.1125e-02, -2.6125e-02,  3.2337e-02,
        -2.6198e-02, -1.0862e-02,  1.3533e-02, -2.0807e-02,  1.6626e-02,
        -1.1937e-02, -2.9990e-02,  2.4206e-02, -2.7544e-02, -5.6323e-03,
        -1.8743e-02,  3.5416e-02, -4.2368e-03,  4.6566e-03, -2.3163e-02,
         1.0702e-02, -3.2275e-02,  3.4744e-02,  1.8801e-02,  4.2401e-03,
         1.6368e-02, -1.0380e-02,  3.2660e-02, -1.1249e-02, -1.7363e-02,
        -3.6060e-02, -2.4111e-02,  3.0941e-02,  1.4728e-02,  1.0781e-02,
        -3.2253e-02,  1.1011e-02,  2.3056e-02,  2.3110e-02, -2.4432e-02,
        -3.3014e-02,  7.7738e-03,  1.8673e-02,  1.7991e-02,  2.8133e-02,
        -2.2412e-02, -3.4429e-02,  2.9972e-02,  2.0175e-02, -1.0022e-02,
         2.1901e-02,  3.1619e-02, -1.2737e-02, -5.9304e-04, -2.6565e-02,
        -2.6680e-02, -1.5976e-02, -2.7771e-02, -3.3338e-03, -1.5908e-02,
        -1.5419e-02,  2.1816e-02, -2.2633e-02,  2.6040e-02, -2.8709e-02,
        -3.1350e-03,  5.6937e-03,  5.0950e-03, -2.2791e-02, -1.5281e-02,
        -2.3398e-02, -1.3959e-02,  2.9710e-02,  1.9356e-02,  1.4344e-02,
         1.0255e-02,  8.5653e-04, -3.4010e-02, -1.2421e-02,  3.2355e-02,
         1.1471e-02, -7.0513e-03,  3.2003e-02, -2.7165e-02,  1.6108e-02,
        -2.6803e-02, -2.4549e-02, -1.9478e-02,  2.7180e-03,  2.1479e-02,
         1.6528e-03,  2.4611e-02,  3.1194e-02,  1.8319e-02,  2.4905e-03,
        -2.1544e-02,  2.2453e-02, -2.4426e-02, -1.2103e-02, -1.5075e-03,
         6.1841e-03,  1.1900e-02,  6.6077e-03,  3.4562e-03,  2.3908e-02,
         3.1335e-02,  3.3707e-02,  2.7538e-03,  3.6313e-02, -7.4877e-03,
         1.3640e-02, -3.1542e-02, -2.1654e-02, -2.5115e-02,  2.9718e-02,
        -2.9208e-02,  3.1912e-02, -5.6401e-03,  5.3457e-03, -5.0493e-03,
        -2.1551e-02, -1.3827e-02,  1.9333e-02, -7.4313e-03,  2.2208e-02,
         2.5161e-02, -3.1383e-02, -2.3082e-02, -3.1280e-02, -9.9980e-03,
         6.0861e-03,  2.7164e-02, -9.8402e-03, -1.6745e-02, -1.2188e-02,
         2.9811e-02, -5.7093e-04,  1.3273e-02, -2.9973e-02, -3.4793e-02,
        -2.9439e-02,  2.6340e-02, -1.5677e-02, -3.1390e-03, -3.0199e-03,
        -5.9074e-03,  2.9311e-02, -9.7285e-03, -2.7395e-02, -2.8154e-02,
        -2.6913e-02,  8.4378e-03,  1.6151e-02,  3.0397e-02, -9.3665e-03,
         1.3441e-02, -3.0521e-02,  1.5943e-02, -6.8668e-03, -5.6652e-04,
         3.4475e-02, -2.3876e-02, -2.6465e-02, -8.5919e-03,  5.5562e-03,
         3.7602e-02,  1.3340e-02, -2.1476e-02, -2.9153e-02, -1.9227e-02,
         1.1461e-02, -7.0044e-03, -4.6297e-03,  2.4588e-02, -9.6899e-04,
         1.1364e-02,  1.4337e-02,  1.8965e-02,  1.0928e-02, -2.6196e-02,
        -1.7373e-02,  1.8302e-02, -3.1029e-02, -3.4212e-02, -2.0348e-02,
        -1.6542e-02, -2.8798e-03, -2.3497e-02,  8.9006e-03, -1.2179e-02,
         3.6761e-02, -1.5761e-02,  1.0262e-02, -2.3200e-02,  3.6138e-02,
        -1.4196e-02, -4.9061e-03, -3.3482e-02,  1.5620e-02,  1.3747e-02,
         3.2440e-02,  3.4051e-02, -3.5181e-02,  1.7939e-02, -8.5674e-03,
         8.1818e-03, -2.5945e-02,  8.2584e-03,  3.0032e-03, -2.7083e-02,
        -1.7031e-02,  2.9625e-02,  2.7130e-02, -2.6821e-02, -3.1913e-02,
         9.8514e-03,  1.4551e-02,  1.3699e-02, -2.8440e-02, -1.2703e-04,
        -3.5367e-02, -9.0153e-03, -1.5228e-02, -2.4582e-02,  2.5513e-02,
         2.7964e-02, -1.9176e-02,  1.3761e-02,  6.6945e-03, -2.1666e-02,
        -1.9062e-02, -3.2113e-02,  1.8305e-02, -7.7708e-03, -2.6584e-02,
        -1.3153e-02, -1.1821e-02, -2.1582e-03, -2.8758e-02,  1.8146e-02,
         1.5348e-02, -1.0552e-02,  3.3041e-02,  1.2046e-02,  3.0365e-02,
        -7.1269e-03,  3.5819e-02,  4.2997e-03, -1.9766e-02,  1.4776e-02,
         1.9474e-02,  2.5329e-02, -1.1694e-02,  8.6676e-03,  3.7183e-04,
        -2.9197e-02, -1.9462e-02, -1.5571e-02,  7.5430e-03, -2.4016e-02,
        -1.8602e-02,  1.4756e-02, -1.1995e-02,  3.4316e-02,  8.8513e-03,
         2.1455e-02,  1.5683e-02, -1.6867e-02,  8.4736e-03, -1.0094e-02,
        -3.4527e-03, -3.1666e-02,  5.5616e-04, -3.0184e-02,  1.9803e-02,
        -9.5061e-03,  3.6716e-02,  1.3268e-02,  1.4444e-02,  3.0983e-02,
        -2.4544e-02,  1.9536e-02, -2.7471e-02,  1.8369e-02,  1.7281e-02,
        -2.6350e-02,  1.6773e-02, -3.3040e-02, -2.1116e-02, -2.6946e-02,
        -4.7410e-03, -1.4573e-02,  2.4642e-03, -2.0541e-02,  3.4211e-02,
        -3.0795e-03, -1.8480e-02, -1.8703e-02, -7.3405e-03, -2.5389e-02],
       device='cuda:0')

fc2.weight 	 torch.Size([10, 500])
tensor([[ 0.0334,  0.0296,  0.0408,  ..., -0.0579,  0.0055, -0.0279],
        [ 0.0452,  0.0322, -0.0149,  ...,  0.0499,  0.0008,  0.0431],
        [-0.0201,  0.0437,  0.0214,  ...,  0.0620, -0.0747, -0.0539],
        ...,
        [ 0.0277,  0.0582,  0.0034,  ...,  0.0147, -0.0055,  0.0450],
        [-0.0342, -0.0236, -0.0144,  ...,  0.0254,  0.0357, -0.0344],
        [-0.0411,  0.0335,  0.0120,  ..., -0.0369, -0.0335, -0.0035]],
       device='cuda:0')

fc2.bias 	 torch.Size([10])
tensor([ 0.0171,  0.0211, -0.0060, -0.0159,  0.0167,  0.0054,  0.0093,  0.0428,
         0.0280,  0.0123], device='cuda:0')

