Model's state_dict:
conv1.weight 	 torch.Size([20, 1, 5, 5])
tensor([[[[ 0.1061, -0.0900, -0.0593,  0.0579, -0.2139],
          [ 0.1483, -0.0022,  0.1284,  0.0451, -0.0156],
          [ 0.0945,  0.0711,  0.1428, -0.0134,  0.0302],
          [-0.0047,  0.0597,  0.0418,  0.2243,  0.1230],
          [-0.0913, -0.1377, -0.0605, -0.0955, -0.0332]]],


        [[[ 0.0695,  0.2273,  0.1637, -0.2367,  0.0525],
          [ 0.1317,  0.2972,  0.1608, -0.2365, -0.2526],
          [ 0.0064,  0.2834, -0.0303,  0.0167, -0.1602],
          [ 0.2852, -0.0065,  0.1446, -0.0445, -0.1426],
          [ 0.1880, -0.0352,  0.0738, -0.0663, -0.0254]]],


        [[[-0.2229, -0.1160,  0.1290,  0.0279,  0.2882],
          [ 0.1251, -0.0098, -0.0699,  0.2344,  0.1514],
          [-0.1355,  0.1620,  0.2034,  0.2782, -0.0598],
          [-0.0059,  0.0435,  0.0904, -0.0989, -0.1260],
          [ 0.1412, -0.0165,  0.1204,  0.0208,  0.0602]]],


        [[[ 0.0278,  0.0543,  0.0952, -0.1701,  0.1418],
          [-0.1512, -0.1629,  0.0163, -0.0096,  0.1650],
          [-0.1233, -0.1806,  0.1592, -0.0012,  0.1543],
          [ 0.0567, -0.1477,  0.0637,  0.0805, -0.1016],
          [-0.0981,  0.0764,  0.0619, -0.0525, -0.0353]]],


        [[[ 0.2475,  0.0482,  0.1904,  0.1121, -0.1563],
          [-0.0883,  0.3409,  0.1521,  0.2020,  0.0495],
          [ 0.1784,  0.3462,  0.3532, -0.0751,  0.0410],
          [ 0.2431,  0.3020,  0.2504, -0.0984, -0.1290],
          [-0.0852,  0.1049,  0.2825, -0.0798,  0.1360]]],


        [[[-0.1341, -0.2113, -0.0252,  0.2005,  0.2750],
          [-0.1230,  0.0660,  0.2543,  0.2639,  0.2292],
          [ 0.1743,  0.1793,  0.1408, -0.0238, -0.0880],
          [-0.0650,  0.0089, -0.0714,  0.1460,  0.1092],
          [-0.0422,  0.0801,  0.0838,  0.1535,  0.1500]]],


        [[[-0.0883,  0.1663, -0.0476, -0.0197, -0.1938],
          [-0.1492, -0.1458, -0.1134,  0.1242, -0.0708],
          [-0.1596,  0.0606,  0.0465,  0.1156, -0.1043],
          [ 0.0546, -0.0656, -0.0410, -0.1558, -0.0723],
          [-0.0267,  0.1268,  0.0829,  0.1041,  0.2649]]],


        [[[ 0.2376,  0.1632, -0.0008, -0.1566,  0.1460],
          [ 0.0131,  0.0128, -0.1816, -0.0547, -0.1348],
          [ 0.2391, -0.1527, -0.1654, -0.0197, -0.1125],
          [ 0.1209, -0.0513, -0.0910,  0.0104,  0.1499],
          [-0.0993,  0.1366,  0.1632,  0.2208, -0.1274]]],


        [[[ 0.0518, -0.1625,  0.1605, -0.0680,  0.1351],
          [ 0.0200, -0.0123,  0.0315,  0.1211,  0.1841],
          [ 0.0679,  0.1040, -0.1068,  0.2579,  0.2977],
          [ 0.2019,  0.1861, -0.1130, -0.0310,  0.2557],
          [-0.1696,  0.1589, -0.1856, -0.1626,  0.1194]]],


        [[[-0.0947,  0.0254,  0.2330,  0.2478,  0.2849],
          [ 0.0154, -0.0935,  0.2660,  0.0254, -0.0058],
          [ 0.0718, -0.1361,  0.1266,  0.1358, -0.1299],
          [-0.1902, -0.0613,  0.0393, -0.0246, -0.0975],
          [-0.0350, -0.2387, -0.1886, -0.1537,  0.1634]]],


        [[[ 0.2467,  0.0057,  0.0665,  0.1217,  0.0206],
          [-0.0053,  0.2482,  0.2453,  0.0669,  0.0027],
          [ 0.2688,  0.2959, -0.0060,  0.2865,  0.0926],
          [-0.1110,  0.1601, -0.0942,  0.2444, -0.1094],
          [ 0.0397,  0.0719,  0.0746,  0.2017, -0.0732]]],


        [[[-0.0655, -0.1550, -0.0012, -0.1054, -0.0016],
          [-0.0093,  0.1069,  0.2095,  0.0765, -0.0574],
          [-0.0714, -0.1419,  0.2026, -0.0069,  0.0707],
          [ 0.0188, -0.1219,  0.1204,  0.1337,  0.0410],
          [-0.1176, -0.0943, -0.0050, -0.1096, -0.0978]]],


        [[[-0.0294, -0.0614,  0.0576, -0.0057,  0.0512],
          [-0.0920, -0.2067,  0.1583,  0.0766,  0.2609],
          [-0.0545, -0.0773, -0.1988, -0.0244,  0.2196],
          [-0.2176, -0.0985,  0.1110,  0.1581,  0.1419],
          [-0.0677, -0.0325, -0.0260, -0.0225,  0.1479]]],


        [[[-0.0664, -0.1155,  0.0391, -0.1502, -0.0494],
          [ 0.0929,  0.0619,  0.1543, -0.1516, -0.0143],
          [-0.0731, -0.1255, -0.1299,  0.0265, -0.0051],
          [-0.1118, -0.1520, -0.1803,  0.1729, -0.0587],
          [-0.0598, -0.0875, -0.1140, -0.1973, -0.1313]]],


        [[[ 0.2351,  0.1967,  0.0891,  0.0438,  0.2050],
          [ 0.2306,  0.3326,  0.1968,  0.1852,  0.0524],
          [-0.1481, -0.1776,  0.1260, -0.0333,  0.1033],
          [-0.0688, -0.2354, -0.1750, -0.0067, -0.0527],
          [-0.2646,  0.0039, -0.0759, -0.1271,  0.0582]]],


        [[[ 0.0396, -0.0668,  0.2020,  0.0986, -0.0199],
          [-0.0258, -0.1431,  0.1971, -0.0496, -0.1763],
          [ 0.1931,  0.1647,  0.1487,  0.0160, -0.0552],
          [ 0.1098,  0.2771,  0.1736,  0.0391,  0.2956],
          [ 0.0375,  0.2333,  0.1621,  0.2978,  0.2159]]],


        [[[-0.1232,  0.1178, -0.0109, -0.1602, -0.0390],
          [-0.1934, -0.1207, -0.1540,  0.1354, -0.0417],
          [-0.0194,  0.1088,  0.0911, -0.1216,  0.0849],
          [ 0.1262, -0.1154,  0.2194, -0.0827, -0.0461],
          [-0.1257,  0.2381,  0.0985,  0.2269,  0.0625]]],


        [[[ 0.1315, -0.0525, -0.1597,  0.0254, -0.0253],
          [ 0.0054, -0.0696,  0.0330,  0.0953,  0.1142],
          [-0.1305,  0.1452,  0.0778,  0.1984,  0.2038],
          [-0.1223,  0.2335, -0.1708,  0.1265,  0.0384],
          [ 0.1184, -0.1062,  0.0963, -0.1368, -0.1898]]],


        [[[ 0.1057,  0.1790,  0.2949,  0.0560,  0.2295],
          [ 0.1422, -0.0592, -0.0984,  0.1426, -0.1081],
          [ 0.0618, -0.1646,  0.1511,  0.0475, -0.0459],
          [ 0.0471, -0.1482, -0.0506,  0.0047, -0.1089],
          [-0.0879, -0.0930,  0.2024,  0.2156,  0.2328]]],


        [[[ 0.1325, -0.2046,  0.0751,  0.1051, -0.1201],
          [ 0.0526, -0.1131,  0.0644,  0.1353,  0.2345],
          [-0.1155, -0.1302,  0.2541,  0.1675,  0.1618],
          [ 0.0852, -0.0196,  0.1790, -0.1346,  0.0528],
          [ 0.1136,  0.1671, -0.0797, -0.1331,  0.0694]]]], device='cuda:0')

conv1.bias 	 torch.Size([20])
tensor([-0.1451, -0.1518, -0.1590, -0.0888,  0.0200, -0.0847, -0.0618, -0.1660,
         0.1570, -0.0172, -0.0792,  0.0554, -0.1344,  0.1623,  0.1367, -0.1485,
        -0.1288, -0.1038, -0.0920,  0.0466], device='cuda:0')

conv2.weight 	 torch.Size([50, 20, 5, 5])
tensor([[[[-0.0446, -0.0331,  0.0172, -0.0138, -0.0129],
          [-0.0337,  0.0270,  0.0090, -0.0133, -0.0263],
          [ 0.0104,  0.0230,  0.0357,  0.0256, -0.0022],
          [-0.0315,  0.0322,  0.0078, -0.0206,  0.0427],
          [ 0.0326, -0.0315, -0.0219, -0.0113, -0.0237]],

         [[ 0.0168, -0.0330,  0.0396, -0.0332,  0.0160],
          [-0.0041, -0.0181,  0.0389, -0.0414, -0.0304],
          [ 0.0005,  0.0339, -0.0080, -0.0292, -0.0253],
          [-0.0245, -0.0222, -0.0137, -0.0251,  0.0269],
          [-0.0008, -0.0383, -0.0388,  0.0091,  0.0093]],

         [[ 0.0269, -0.0092, -0.0373, -0.0329, -0.0162],
          [-0.0099,  0.0077, -0.0144,  0.0082, -0.0230],
          [ 0.0335,  0.0128, -0.0191,  0.0344,  0.0117],
          [-0.0321, -0.0228,  0.0269,  0.0283,  0.0442],
          [-0.0090,  0.0270,  0.0283,  0.0233, -0.0095]],

         ...,

         [[-0.0033, -0.0318,  0.0020, -0.0088,  0.0175],
          [ 0.0449, -0.0205, -0.0013,  0.0416, -0.0401],
          [-0.0031,  0.0511,  0.0347,  0.0177, -0.0163],
          [-0.0041, -0.0387, -0.0383, -0.0302,  0.0483],
          [ 0.0339,  0.0176, -0.0040,  0.0448, -0.0136]],

         [[ 0.0364,  0.0063, -0.0244, -0.0102, -0.0034],
          [-0.0376,  0.0278, -0.0079,  0.0287,  0.0367],
          [-0.0029,  0.0344,  0.0211,  0.0419, -0.0261],
          [-0.0056, -0.0055,  0.0573, -0.0248, -0.0213],
          [ 0.0026,  0.0405,  0.0366, -0.0351, -0.0291]],

         [[ 0.0420,  0.0045, -0.0381, -0.0106,  0.0188],
          [-0.0014, -0.0284, -0.0299, -0.0228, -0.0051],
          [ 0.0267,  0.0394, -0.0164, -0.0027, -0.0261],
          [ 0.0366,  0.0575,  0.0506,  0.0332,  0.0032],
          [-0.0040,  0.0159, -0.0295,  0.0114, -0.0361]]],


        [[[-0.0491, -0.0039, -0.0114, -0.0221,  0.0135],
          [-0.0028,  0.0048, -0.0277, -0.0452,  0.0001],
          [-0.0120, -0.0025,  0.0428,  0.0102,  0.0194],
          [-0.0075, -0.0234,  0.0262, -0.0160,  0.0115],
          [-0.0321,  0.0355, -0.0259,  0.0490,  0.0381]],

         [[ 0.0260,  0.0306,  0.0128, -0.0043,  0.0007],
          [-0.0191, -0.0333,  0.0334, -0.0118,  0.0136],
          [ 0.0070,  0.0201, -0.0373, -0.0453,  0.0233],
          [ 0.0242,  0.0193, -0.0509,  0.0060, -0.0398],
          [ 0.0002, -0.0129, -0.0372, -0.0339,  0.0114]],

         [[ 0.0472,  0.0523, -0.0187, -0.0017, -0.0389],
          [-0.0301, -0.0138,  0.0380, -0.0168, -0.0128],
          [ 0.0438, -0.0023,  0.0266,  0.0193,  0.0317],
          [ 0.0099, -0.0388, -0.0399, -0.0200,  0.0384],
          [ 0.0235,  0.0181, -0.0249, -0.0314,  0.0325]],

         ...,

         [[ 0.0248, -0.0126,  0.0233, -0.0209, -0.0128],
          [-0.0037,  0.0183,  0.0201, -0.0094, -0.0230],
          [ 0.0039,  0.0215, -0.0390, -0.0170, -0.0442],
          [ 0.0081,  0.0037,  0.0383,  0.0435, -0.0364],
          [-0.0198,  0.0006,  0.0091, -0.0082, -0.0302]],

         [[-0.0149, -0.0039,  0.0356, -0.0098,  0.0263],
          [-0.0275,  0.0064, -0.0310, -0.0401,  0.0063],
          [-0.0197,  0.0370,  0.0424, -0.0436, -0.0112],
          [-0.0031, -0.0144, -0.0193, -0.0107,  0.0218],
          [ 0.0143,  0.0332,  0.0101,  0.0404,  0.0212]],

         [[-0.0059,  0.0033, -0.0355,  0.0027, -0.0153],
          [-0.0156, -0.0259, -0.0153, -0.0391, -0.0107],
          [ 0.0056, -0.0156,  0.0345,  0.0253,  0.0105],
          [-0.0099,  0.0183, -0.0163,  0.0409,  0.0450],
          [-0.0071,  0.0470,  0.0585,  0.0031, -0.0187]]],


        [[[ 0.0020,  0.0011, -0.0530, -0.0152, -0.0170],
          [ 0.0228, -0.0145,  0.0149,  0.0322, -0.0174],
          [-0.0008, -0.0200, -0.0260, -0.0230, -0.0024],
          [ 0.0035, -0.0140,  0.0139,  0.0418,  0.0218],
          [ 0.0084,  0.0072, -0.0309, -0.0168, -0.0275]],

         [[ 0.0206, -0.0455, -0.0253,  0.0715,  0.0653],
          [-0.0524,  0.0124,  0.0134,  0.0804,  0.0033],
          [-0.0191,  0.0013,  0.0854,  0.0982, -0.0183],
          [-0.0414,  0.0046,  0.0630,  0.0596, -0.0548],
          [-0.0104,  0.0109,  0.0045,  0.0390, -0.0236]],

         [[-0.0518, -0.0402,  0.0112, -0.0034,  0.0199],
          [ 0.0232, -0.0056,  0.0271,  0.0667,  0.0231],
          [ 0.0134,  0.0237,  0.0370, -0.0442, -0.0144],
          [ 0.0377,  0.0155, -0.0346,  0.0050,  0.0256],
          [ 0.0324,  0.0005, -0.0003, -0.0072, -0.0270]],

         ...,

         [[-0.0104, -0.0191, -0.0435,  0.0463, -0.0131],
          [-0.0555, -0.0116, -0.0303,  0.0019, -0.0386],
          [-0.0222, -0.0113,  0.0305,  0.0169,  0.0366],
          [-0.0002,  0.0280, -0.0464, -0.0369,  0.0231],
          [ 0.0005,  0.0033,  0.0144,  0.0260,  0.0220]],

         [[-0.0288, -0.0108,  0.0272,  0.0308, -0.0120],
          [-0.0205,  0.0367,  0.0452, -0.0053, -0.0172],
          [-0.0565,  0.0123,  0.0302, -0.0260, -0.0409],
          [-0.0591,  0.0368,  0.0492,  0.0474,  0.0312],
          [-0.0185,  0.0122,  0.0213, -0.0154, -0.0302]],

         [[ 0.0307, -0.0212,  0.0151,  0.0016, -0.0126],
          [-0.0262, -0.0071,  0.0466,  0.0362, -0.0159],
          [ 0.0310, -0.0145,  0.0185, -0.0420, -0.0040],
          [ 0.0331, -0.0286,  0.0127, -0.0504, -0.0140],
          [-0.0313, -0.0026, -0.0376,  0.0068, -0.0431]]],


        ...,


        [[[ 0.0307,  0.0436, -0.0337, -0.0236,  0.0397],
          [ 0.0007,  0.0225, -0.0523, -0.0258,  0.0178],
          [ 0.0222, -0.0451,  0.0042, -0.0239, -0.0198],
          [-0.0280, -0.0451, -0.0390,  0.0027,  0.0091],
          [ 0.0253,  0.0288,  0.0135,  0.0338,  0.0061]],

         [[ 0.0088,  0.0338, -0.0325, -0.0180, -0.0335],
          [-0.0071, -0.0125, -0.0280, -0.0102,  0.0032],
          [ 0.0219, -0.0065,  0.0323,  0.0001,  0.0539],
          [ 0.0231,  0.0133, -0.0148, -0.0001,  0.0168],
          [ 0.0137,  0.0134,  0.0099,  0.0039,  0.0198]],

         [[ 0.0315, -0.0315, -0.0402,  0.0100, -0.0414],
          [-0.0309, -0.0011,  0.0085, -0.0257,  0.0428],
          [-0.0239,  0.0228,  0.0037, -0.0099, -0.0044],
          [-0.0478,  0.0137,  0.0146,  0.0568,  0.0233],
          [ 0.0366,  0.0377,  0.0261,  0.0252,  0.0326]],

         ...,

         [[-0.0081,  0.0103,  0.0206,  0.0079,  0.0183],
          [ 0.0174, -0.0547, -0.0007,  0.0135, -0.0181],
          [ 0.0378, -0.0386,  0.0473,  0.0028, -0.0331],
          [-0.0062,  0.0028,  0.0471, -0.0291,  0.0342],
          [-0.0472,  0.0093,  0.0427, -0.0014,  0.0203]],

         [[-0.0299, -0.0084,  0.0120,  0.0124,  0.0258],
          [-0.0355, -0.0057, -0.0081, -0.0068,  0.0026],
          [-0.0188,  0.0069, -0.0070, -0.0164,  0.0208],
          [ 0.0245, -0.0346, -0.0146,  0.0183, -0.0260],
          [-0.0427,  0.0253, -0.0423,  0.0170,  0.0023]],

         [[ 0.0472, -0.0164, -0.0303,  0.0339,  0.0159],
          [ 0.0370, -0.0205,  0.0208,  0.0464,  0.0465],
          [-0.0350,  0.0316, -0.0305,  0.0063,  0.0056],
          [ 0.0116,  0.0344, -0.0227,  0.0469,  0.0002],
          [ 0.0320,  0.0066,  0.0452, -0.0412,  0.0330]]],


        [[[ 0.0067, -0.0320,  0.0342,  0.0234, -0.0053],
          [-0.0368,  0.0103,  0.0264, -0.0406,  0.0068],
          [ 0.0451,  0.0251,  0.0149,  0.0402, -0.0129],
          [-0.0157,  0.0221, -0.0296,  0.0177,  0.0069],
          [-0.0199,  0.0229,  0.0294, -0.0415,  0.0354]],

         [[ 0.0122,  0.0142,  0.0172,  0.0305,  0.0057],
          [-0.0092,  0.0321,  0.0380, -0.0396, -0.0412],
          [ 0.0215,  0.0103,  0.0302, -0.0156,  0.0399],
          [ 0.0026,  0.0264,  0.0082, -0.0286,  0.0183],
          [-0.0370,  0.0427, -0.0278,  0.0232, -0.0137]],

         [[-0.0027, -0.0080,  0.0240,  0.0365, -0.0023],
          [-0.0142, -0.0291,  0.0191, -0.0060, -0.0365],
          [-0.0283, -0.0184, -0.0292,  0.0355, -0.0321],
          [ 0.0079, -0.0068, -0.0427,  0.0185, -0.0044],
          [ 0.0211,  0.0085, -0.0281, -0.0301,  0.0434]],

         ...,

         [[-0.0226, -0.0217,  0.0195,  0.0027, -0.0318],
          [ 0.0217,  0.0322,  0.0075,  0.0147, -0.0359],
          [-0.0221, -0.0304, -0.0060, -0.0413,  0.0447],
          [-0.0057, -0.0351,  0.0374, -0.0174, -0.0339],
          [-0.0314, -0.0258, -0.0272,  0.0192, -0.0432]],

         [[-0.0135,  0.0011, -0.0145,  0.0474,  0.0463],
          [ 0.0063, -0.0160,  0.0473, -0.0427, -0.0174],
          [ 0.0300,  0.0412, -0.0362, -0.0178,  0.0109],
          [-0.0384,  0.0373,  0.0248,  0.0238, -0.0165],
          [-0.0274,  0.0316, -0.0113,  0.0082,  0.0183]],

         [[-0.0209,  0.0033, -0.0288, -0.0077, -0.0095],
          [-0.0391,  0.0261, -0.0444, -0.0322, -0.0028],
          [-0.0148, -0.0342, -0.0401,  0.0368, -0.0039],
          [-0.0337,  0.0074, -0.0319,  0.0088, -0.0060],
          [ 0.0036,  0.0415,  0.0294,  0.0136, -0.0333]]],


        [[[ 0.0184, -0.0136,  0.0388,  0.0368, -0.0335],
          [ 0.0248,  0.0411, -0.0231,  0.0085, -0.0020],
          [-0.0296, -0.0112, -0.0150, -0.0351, -0.0083],
          [ 0.0041,  0.0380, -0.0312,  0.0075,  0.0356],
          [-0.0030, -0.0111,  0.0305, -0.0318,  0.0160]],

         [[-0.0004,  0.0135,  0.0078,  0.0334, -0.0217],
          [-0.0281,  0.0352, -0.0231, -0.0224, -0.0299],
          [ 0.0062,  0.0108,  0.0275, -0.0330, -0.0328],
          [ 0.0320, -0.0271, -0.0142, -0.0305,  0.0214],
          [-0.0323, -0.0242, -0.0446, -0.0229,  0.0123]],

         [[-0.0263,  0.0074,  0.0692,  0.0231, -0.0375],
          [ 0.0209,  0.0354,  0.0198, -0.0372,  0.0403],
          [ 0.0023, -0.0398, -0.0497, -0.0163, -0.0215],
          [ 0.0071,  0.0136, -0.0539, -0.0515, -0.0466],
          [-0.0481, -0.0328, -0.0487,  0.0108,  0.0049]],

         ...,

         [[-0.0131, -0.0126,  0.0023,  0.0417,  0.0059],
          [ 0.0298, -0.0117, -0.0054, -0.0076,  0.0309],
          [-0.0417,  0.0008,  0.0044, -0.0265,  0.0063],
          [-0.0465, -0.0039, -0.0133, -0.0395,  0.0071],
          [ 0.0202, -0.0140,  0.0192,  0.0381, -0.0017]],

         [[ 0.0257,  0.0312, -0.0333, -0.0304, -0.0327],
          [-0.0014, -0.0069,  0.0452,  0.0046, -0.0224],
          [ 0.0253,  0.0438, -0.0170, -0.0302, -0.0178],
          [ 0.0318,  0.0197, -0.0236,  0.0094, -0.0226],
          [ 0.0246,  0.0133,  0.0141, -0.0205,  0.0299]],

         [[ 0.0377,  0.0549,  0.0477, -0.0163,  0.0327],
          [-0.0247,  0.0522, -0.0243, -0.0240, -0.0309],
          [ 0.0019,  0.0220,  0.0224, -0.0175, -0.0036],
          [-0.0421, -0.0098,  0.0117, -0.0331,  0.0092],
          [ 0.0309,  0.0167,  0.0067,  0.0080,  0.0421]]]], device='cuda:0')

conv2.bias 	 torch.Size([50])
tensor([-0.0188, -0.0169,  0.0404,  0.0131, -0.0339, -0.0276,  0.0202, -0.0168,
         0.0166,  0.0310, -0.0328, -0.0356, -0.0166, -0.0052,  0.0062, -0.0168,
         0.0342, -0.0298, -0.0264, -0.0062,  0.0280,  0.0200,  0.0042,  0.0112,
        -0.0226, -0.0041, -0.0080,  0.0423,  0.0258, -0.0030,  0.0139, -0.0188,
         0.0074, -0.0301, -0.0150,  0.0408,  0.0055, -0.0080, -0.0251, -0.0052,
         0.0215,  0.0398,  0.0220,  0.0176, -0.0327,  0.0431,  0.0163, -0.0182,
        -0.0075, -0.0387], device='cuda:0')

fc1.weight 	 torch.Size([500, 800])
tensor([[ 0.0282, -0.0286, -0.0173,  ...,  0.0225, -0.0244,  0.0164],
        [-0.0191, -0.0040, -0.0108,  ...,  0.0212, -0.0179,  0.0050],
        [ 0.0099, -0.0035, -0.0136,  ...,  0.0166,  0.0159,  0.0234],
        ...,
        [-0.0113,  0.0115,  0.0074,  ...,  0.0119, -0.0183,  0.0230],
        [-0.0010,  0.0234, -0.0054,  ..., -0.0217,  0.0127,  0.0272],
        [-0.0113,  0.0305, -0.0223,  ..., -0.0126,  0.0349, -0.0339]],
       device='cuda:0')

fc1.bias 	 torch.Size([500])
tensor([-2.0134e-02,  1.8558e-03,  3.3376e-02,  1.3279e-02,  2.0660e-02,
         5.6606e-03,  3.1855e-02,  1.3748e-02,  2.3106e-02,  1.3468e-02,
         2.1785e-02, -2.6623e-02, -1.7750e-02,  5.0584e-03, -2.6151e-02,
        -8.0812e-03, -3.5307e-03, -1.0648e-02,  2.7625e-02,  7.7443e-03,
         3.2860e-02,  6.0231e-03, -2.3218e-02,  2.9637e-02,  9.1786e-03,
        -2.5569e-02,  1.3994e-02,  3.3812e-02,  3.2053e-02,  2.2122e-02,
        -2.0420e-03, -2.6868e-02, -1.6787e-02,  6.4573e-03, -1.1080e-02,
         8.6631e-03, -1.9390e-02,  5.3555e-03,  1.8168e-02, -8.5017e-03,
         2.7795e-02, -2.1340e-02,  1.9552e-02,  3.3434e-02,  5.9406e-03,
         1.0052e-02, -2.2055e-02,  2.6031e-02,  1.3848e-02, -2.3093e-02,
         2.3021e-02,  2.7326e-02, -3.0709e-02,  1.3531e-02, -1.1009e-02,
         1.3191e-02, -1.5358e-02, -2.8971e-02, -3.0669e-02,  3.1748e-02,
        -5.8270e-03, -1.3460e-02,  1.9087e-02, -1.4248e-02, -1.3901e-02,
         9.5087e-03, -1.1426e-02, -1.4044e-02,  1.6019e-02, -1.5935e-02,
        -3.4721e-03,  2.5146e-02,  1.4255e-02, -3.1118e-02, -3.6872e-03,
         3.5822e-02,  2.3780e-02, -1.9672e-02, -3.4761e-02,  3.4445e-02,
        -4.6844e-03, -1.5391e-02,  2.0673e-02, -3.3063e-02, -2.5746e-02,
        -8.4496e-03, -9.1924e-03,  3.5358e-02,  2.8577e-02, -3.5052e-02,
        -1.2004e-02,  1.1215e-02, -3.2793e-02,  2.0330e-02,  2.5181e-02,
        -2.5910e-02,  7.9415e-04, -1.7199e-02,  1.3234e-02,  1.0708e-02,
         2.6331e-02, -1.2928e-02, -1.0269e-02,  2.0469e-02, -1.3387e-02,
        -3.0054e-03, -1.0721e-02,  5.1782e-03, -2.9884e-02, -2.2588e-02,
         3.3935e-02,  2.1980e-02, -3.3128e-03,  1.6936e-02,  3.0416e-02,
         3.2048e-02, -1.3684e-03,  2.0649e-02,  2.6377e-02,  2.2307e-02,
         1.7963e-02,  3.9226e-03,  3.3214e-02, -8.5284e-03,  1.9531e-02,
         2.3109e-02, -1.6320e-03,  3.7996e-05, -5.8423e-03, -3.3785e-02,
         1.8065e-02, -3.2235e-02, -1.8287e-02,  2.4636e-02,  2.4340e-02,
        -3.0506e-03, -1.3575e-02, -6.7354e-03, -2.0154e-02, -2.0258e-02,
        -2.3097e-02, -7.1349e-03, -2.6853e-02, -2.9697e-02, -1.8059e-02,
         3.3978e-02,  3.5720e-02, -1.4986e-02,  3.6051e-02, -2.4734e-02,
        -5.2997e-03, -1.6865e-02, -3.1882e-02, -2.8543e-02,  3.1888e-02,
         5.0331e-03,  1.5608e-03,  6.4075e-03, -2.3901e-02, -3.6558e-03,
        -3.4137e-02, -1.9037e-02, -3.2283e-02, -1.2859e-02,  2.8145e-02,
         1.7083e-04,  2.5396e-02,  2.2060e-02, -5.6992e-04,  1.5576e-02,
        -1.0398e-02, -1.5368e-02,  3.0204e-02,  3.1153e-02,  3.0704e-02,
         3.1142e-02,  3.3384e-02,  1.0778e-02, -1.1710e-02, -2.8390e-03,
        -1.6566e-02,  2.7890e-02, -2.1137e-02,  3.8616e-03, -3.0898e-02,
         5.9738e-04,  1.0941e-02,  2.2831e-02, -2.0064e-02, -1.6842e-02,
        -1.6675e-02, -2.2404e-02,  1.3428e-02, -1.1053e-02, -1.5574e-02,
        -2.6242e-02, -2.5539e-02, -2.8915e-02,  2.7394e-02,  2.2924e-02,
         2.8192e-02, -1.4450e-03,  3.1155e-02, -2.6073e-02,  3.2002e-02,
        -2.6066e-02, -1.1247e-02,  1.2975e-02, -2.1037e-02,  1.6563e-02,
        -1.2118e-02, -2.9933e-02,  2.4378e-02, -2.7913e-02, -5.4676e-03,
        -1.8440e-02,  3.5439e-02, -4.4676e-03,  4.5690e-03, -2.3131e-02,
         1.0661e-02, -3.2307e-02,  3.4555e-02,  1.8714e-02,  4.2793e-03,
         1.6325e-02, -1.0455e-02,  3.2784e-02, -1.1893e-02, -1.7533e-02,
        -3.5922e-02, -2.4432e-02,  3.1071e-02,  1.4544e-02,  1.0530e-02,
        -3.2285e-02,  1.0953e-02,  2.2994e-02,  2.3279e-02, -2.4671e-02,
        -3.2962e-02,  8.2444e-03,  1.8788e-02,  1.8079e-02,  2.8004e-02,
        -2.2830e-02, -3.4597e-02,  2.9922e-02,  2.0182e-02, -9.9157e-03,
         2.0903e-02,  3.1523e-02, -1.2817e-02, -5.4924e-04, -2.6516e-02,
        -2.6988e-02, -1.5929e-02, -2.7771e-02, -3.5412e-03, -1.5982e-02,
        -1.5495e-02,  2.1830e-02, -2.2670e-02,  2.6007e-02, -2.8631e-02,
        -3.1548e-03,  5.8812e-03,  5.2899e-03, -2.2963e-02, -1.5215e-02,
        -2.3406e-02, -1.3862e-02,  2.9331e-02,  1.9427e-02,  1.4291e-02,
         9.8418e-03,  9.4504e-04, -3.3774e-02, -1.2391e-02,  3.2355e-02,
         1.1235e-02, -7.0923e-03,  3.2286e-02, -2.7172e-02,  1.5581e-02,
        -2.7190e-02, -2.4308e-02, -1.9424e-02,  2.3608e-03,  2.1549e-02,
         1.7983e-03,  2.4410e-02,  3.1298e-02,  1.8520e-02,  2.5545e-03,
        -2.1339e-02,  2.2257e-02, -2.4505e-02, -1.1772e-02, -1.5345e-03,
         5.7576e-03,  1.1943e-02,  6.7933e-03,  3.3450e-03,  2.4169e-02,
         3.1384e-02,  3.3970e-02,  2.8008e-03,  3.5822e-02, -7.4206e-03,
         1.3567e-02, -3.1567e-02, -2.1679e-02, -2.4853e-02,  3.0036e-02,
        -2.8516e-02,  3.1961e-02, -5.7155e-03,  4.8254e-03, -4.8395e-03,
        -2.1697e-02, -1.4134e-02,  1.9632e-02, -7.3017e-03,  2.2236e-02,
         2.5504e-02, -3.1224e-02, -2.3465e-02, -3.1153e-02, -9.6522e-03,
         6.0986e-03,  2.7087e-02, -1.0099e-02, -1.6662e-02, -1.2532e-02,
         2.9557e-02, -9.5165e-04,  1.3370e-02, -3.0122e-02, -3.4826e-02,
        -2.9313e-02,  2.6335e-02, -1.5691e-02, -2.7318e-03, -2.9455e-03,
        -5.6163e-03,  2.9229e-02, -1.0235e-02, -2.7546e-02, -2.8302e-02,
        -2.6815e-02,  8.4436e-03,  1.6197e-02,  3.0465e-02, -9.4669e-03,
         1.3811e-02, -3.0682e-02,  1.6224e-02, -6.7237e-03,  1.3195e-04,
         3.4463e-02, -2.3727e-02, -2.6389e-02, -8.8309e-03,  5.5966e-03,
         3.7349e-02,  1.3471e-02, -2.1421e-02, -2.9091e-02, -1.8922e-02,
         1.1426e-02, -7.0798e-03, -5.2545e-03,  2.4494e-02, -7.3381e-04,
         1.1569e-02,  1.4963e-02,  1.9132e-02,  1.0942e-02, -2.6305e-02,
        -1.8109e-02,  1.8546e-02, -3.1459e-02, -3.4210e-02, -2.0336e-02,
        -1.6538e-02, -3.0661e-03, -2.3363e-02,  8.5042e-03, -1.2305e-02,
         3.6336e-02, -1.5780e-02,  1.0105e-02, -2.3194e-02,  3.5912e-02,
        -1.4670e-02, -4.3093e-03, -3.3672e-02,  1.5497e-02,  1.3699e-02,
         3.2599e-02,  3.4051e-02, -3.4737e-02,  1.7757e-02, -8.2791e-03,
         8.1427e-03, -2.5778e-02,  8.2065e-03,  3.0515e-03, -2.7131e-02,
        -1.6873e-02,  2.9672e-02,  2.7276e-02, -2.6768e-02, -3.1749e-02,
         1.0126e-02,  1.4600e-02,  1.3613e-02, -2.8468e-02, -1.1904e-06,
        -3.5316e-02, -8.8094e-03, -1.5209e-02, -2.5384e-02,  2.5434e-02,
         2.7919e-02, -1.9334e-02,  1.3939e-02,  7.0255e-03, -2.1949e-02,
        -1.8923e-02, -3.2058e-02,  1.8331e-02, -7.3712e-03, -2.6769e-02,
        -1.3153e-02, -1.1874e-02, -2.1897e-03, -2.8858e-02,  1.8064e-02,
         1.5184e-02, -1.0679e-02,  3.3230e-02,  1.2166e-02,  3.0136e-02,
        -7.0357e-03,  3.4984e-02,  5.0046e-03, -1.9712e-02,  1.4736e-02,
         1.9520e-02,  2.5329e-02, -1.1573e-02,  8.6931e-03,  3.0528e-04,
        -2.9335e-02, -1.9335e-02, -1.5721e-02,  8.2509e-03, -2.4142e-02,
        -1.8949e-02,  1.4642e-02, -1.2107e-02,  3.4406e-02,  8.3100e-03,
         2.1294e-02,  1.5054e-02, -1.7020e-02,  8.3168e-03, -1.0362e-02,
        -3.1970e-03, -3.1949e-02,  5.4115e-04, -3.0173e-02,  1.9656e-02,
        -9.5086e-03,  3.6423e-02,  1.3307e-02,  1.4408e-02,  3.0887e-02,
        -2.4334e-02,  1.9787e-02, -2.7695e-02,  1.8665e-02,  1.7298e-02,
        -2.7139e-02,  1.6720e-02, -3.3076e-02, -2.1234e-02, -2.6735e-02,
        -5.0664e-03, -1.4722e-02,  2.4826e-03, -2.0040e-02,  3.4639e-02,
        -3.3690e-03, -1.8534e-02, -1.8560e-02, -7.2684e-03, -2.5136e-02],
       device='cuda:0')

fc2.weight 	 torch.Size([10, 500])
tensor([[ 0.0439,  0.0268,  0.0382,  ..., -0.0409,  0.0058, -0.0164],
        [ 0.0383,  0.0309, -0.0221,  ...,  0.0324,  0.0158,  0.0349],
        [-0.0096,  0.0331,  0.0201,  ...,  0.0504, -0.0674, -0.0320],
        ...,
        [ 0.0230,  0.0618,  0.0092,  ...,  0.0047, -0.0078,  0.0380],
        [-0.0385, -0.0310, -0.0155,  ...,  0.0168,  0.0270, -0.0255],
        [-0.0362,  0.0366,  0.0145,  ..., -0.0254, -0.0379, -0.0134]],
       device='cuda:0')

fc2.bias 	 torch.Size([10])
tensor([ 0.0141,  0.0239, -0.0063, -0.0138,  0.0180,  0.0035,  0.0092,  0.0436,
         0.0245,  0.0141], device='cuda:0')

