Model's state_dict:
conv1.weight 	 torch.Size([20, 1, 5, 5])
tensor([[[[ 1.0177e-01, -9.6203e-02, -7.0695e-02,  4.2990e-02, -2.2311e-01],
          [ 1.4961e-01,  2.1430e-03,  1.2864e-01,  4.3745e-02, -1.7799e-02],
          [ 9.7680e-02,  8.0989e-02,  1.5349e-01, -3.2255e-03,  3.5921e-02],
          [-7.8052e-03,  6.1851e-02,  4.6021e-02,  2.3192e-01,  1.3445e-01],
          [-9.9123e-02, -1.4556e-01, -7.0799e-02, -1.0026e-01, -2.6690e-02]]],


        [[[ 7.4267e-02,  2.4066e-01,  1.6853e-01, -2.4483e-01,  4.2084e-02],
          [ 1.4032e-01,  3.1020e-01,  1.6054e-01, -2.4762e-01, -2.6320e-01],
          [ 2.0427e-02,  2.9930e-01, -3.5507e-02, -1.0282e-03, -1.7487e-01],
          [ 2.9134e-01,  2.0496e-03,  1.3675e-01, -5.8627e-02, -1.5151e-01],
          [ 1.9051e-01, -2.7887e-02,  7.0415e-02, -7.2176e-02, -2.8234e-02]]],


        [[[-2.3130e-01, -1.2293e-01,  1.2529e-01,  3.4385e-02,  2.9834e-01],
          [ 1.1440e-01, -1.4119e-02, -6.4351e-02,  2.4763e-01,  1.5875e-01],
          [-1.3921e-01,  1.6387e-01,  2.1249e-01,  2.8951e-01, -5.9844e-02],
          [-1.2002e-03,  5.0708e-02,  9.6481e-02, -9.5061e-02, -1.3008e-01],
          [ 1.4879e-01, -1.0403e-02,  1.2120e-01,  1.7775e-02,  5.3626e-02]]],


        [[[ 2.6443e-02,  5.2799e-02,  9.5804e-02, -1.6734e-01,  1.4646e-01],
          [-1.5271e-01, -1.6508e-01,  1.7216e-02, -5.9765e-03,  1.7090e-01],
          [-1.2477e-01, -1.8107e-01,  1.6142e-01,  2.3573e-03,  1.5874e-01],
          [ 5.5645e-02, -1.4630e-01,  6.8779e-02,  8.4982e-02, -9.9067e-02],
          [-9.7861e-02,  7.8809e-02,  6.7399e-02, -4.7525e-02, -3.3328e-02]]],


        [[[ 2.5096e-01,  5.2587e-02,  1.9342e-01,  1.1339e-01, -1.5632e-01],
          [-8.7064e-02,  3.4915e-01,  1.6028e-01,  2.0290e-01,  4.6960e-02],
          [ 1.7649e-01,  3.5812e-01,  3.6194e-01, -7.8585e-02,  3.3511e-02],
          [ 2.3821e-01,  3.1057e-01,  2.5591e-01, -1.0109e-01, -1.3633e-01],
          [-8.8920e-02,  1.1141e-01,  2.8899e-01, -8.0926e-02,  1.3134e-01]]],


        [[[-1.4166e-01, -2.1813e-01, -2.6986e-02,  2.0971e-01,  2.8451e-01],
          [-1.2867e-01,  6.6755e-02,  2.6380e-01,  2.8047e-01,  2.3587e-01],
          [ 1.7689e-01,  1.8406e-01,  1.4812e-01, -1.4010e-02, -8.5472e-02],
          [-5.9405e-02,  1.1146e-02, -7.0986e-02,  1.4860e-01,  1.0756e-01],
          [-3.8664e-02,  7.8887e-02,  8.0588e-02,  1.5233e-01,  1.4703e-01]]],


        [[[-8.8188e-02,  1.6429e-01, -5.0950e-02, -2.2927e-02, -1.9473e-01],
          [-1.5004e-01, -1.4903e-01, -1.1818e-01,  1.1979e-01, -7.1425e-02],
          [-1.5827e-01,  5.9966e-02,  4.4052e-02,  1.1280e-01, -1.0437e-01],
          [ 5.9729e-02, -6.2784e-02, -4.0839e-02, -1.5661e-01, -7.0091e-02],
          [-1.9830e-02,  1.3316e-01,  8.8381e-02,  1.1148e-01,  2.7469e-01]]],


        [[[ 2.4388e-01,  1.6892e-01, -4.8231e-04, -1.5872e-01,  1.4539e-01],
          [ 2.1916e-02,  1.5095e-02, -1.8583e-01, -5.9328e-02, -1.3713e-01],
          [ 2.4529e-01, -1.5223e-01, -1.6948e-01, -2.3464e-02, -1.1310e-01],
          [ 1.2661e-01, -4.6112e-02, -8.8726e-02,  1.3191e-02,  1.5358e-01],
          [-9.4570e-02,  1.4529e-01,  1.7245e-01,  2.2806e-01, -1.2570e-01]]],


        [[[ 4.9687e-02, -1.6745e-01,  1.5854e-01, -6.8135e-02,  1.3237e-01],
          [ 1.6834e-02, -1.7943e-02,  3.3280e-02,  1.3085e-01,  1.9100e-01],
          [ 6.7298e-02,  1.0428e-01, -1.0173e-01,  2.6644e-01,  3.0591e-01],
          [ 2.0455e-01,  1.8779e-01, -1.1617e-01, -3.4303e-02,  2.5923e-01],
          [-1.7477e-01,  1.5083e-01, -1.9565e-01, -1.7025e-01,  1.1943e-01]]],


        [[[-8.8325e-02,  3.3623e-02,  2.4409e-01,  2.5940e-01,  2.9786e-01],
          [ 2.1475e-02, -8.7902e-02,  2.7490e-01,  3.4988e-02,  6.1278e-03],
          [ 7.2628e-02, -1.3790e-01,  1.2549e-01,  1.3865e-01, -1.2443e-01],
          [-1.9509e-01, -6.8026e-02,  3.2927e-02, -2.7513e-02, -9.6666e-02],
          [-3.8491e-02, -2.4425e-01, -1.9444e-01, -1.5586e-01,  1.6496e-01]]],


        [[[ 2.5353e-01,  1.0686e-02,  6.7527e-02,  1.2059e-01,  1.7781e-02],
          [ 2.8125e-03,  2.6058e-01,  2.5483e-01,  7.0328e-02, -3.0518e-05],
          [ 2.7202e-01,  3.0421e-01, -5.0425e-04,  2.9058e-01,  9.1484e-02],
          [-1.1723e-01,  1.5756e-01, -9.5305e-02,  2.4557e-01, -1.1246e-01],
          [ 3.1127e-02,  6.7493e-02,  7.2868e-02,  2.0236e-01, -7.4910e-02]]],


        [[[-5.8429e-02, -1.4856e-01,  4.7506e-05, -1.1107e-01, -6.3944e-03],
          [-1.1644e-03,  1.1812e-01,  2.1911e-01,  7.8739e-02, -5.7423e-02],
          [-6.7466e-02, -1.3642e-01,  2.1059e-01, -9.5373e-04,  7.6516e-02],
          [ 1.7359e-02, -1.2469e-01,  1.2012e-01,  1.3757e-01,  4.8319e-02],
          [-1.2138e-01, -9.8900e-02, -7.8477e-03, -1.0920e-01, -9.3885e-02]]],


        [[[-3.1974e-02, -6.6034e-02,  5.6466e-02,  4.0476e-03,  6.3747e-02],
          [-9.5658e-02, -2.1297e-01,  1.5207e-01,  8.2697e-02,  2.7268e-01],
          [-5.8873e-02, -8.4268e-02, -2.0366e-01, -1.6620e-02,  2.3339e-01],
          [-2.2126e-01, -1.0632e-01,  1.0454e-01,  1.6375e-01,  1.5367e-01],
          [-7.1791e-02, -3.8317e-02, -2.6965e-02, -1.3223e-02,  1.6045e-01]]],


        [[[-6.7160e-02, -1.1625e-01,  3.8053e-02, -1.5093e-01, -5.0253e-02],
          [ 9.0898e-02,  5.9723e-02,  1.5131e-01, -1.5404e-01, -1.5569e-02],
          [-7.5227e-02, -1.2737e-01, -1.3266e-01,  2.2527e-02, -7.9215e-03],
          [-1.1332e-01, -1.5326e-01, -1.8178e-01,  1.7006e-01, -6.1607e-02],
          [-6.1842e-02, -8.9112e-02, -1.1528e-01, -1.9892e-01, -1.3364e-01]]],


        [[[ 2.5186e-01,  2.1956e-01,  1.1083e-01,  5.6249e-02,  2.1202e-01],
          [ 2.4335e-01,  3.5458e-01,  2.1804e-01,  1.9872e-01,  6.5300e-02],
          [-1.5896e-01, -1.8056e-01,  1.2177e-01, -3.6508e-02,  1.0880e-01],
          [-8.8850e-02, -2.5078e-01, -1.9303e-01, -2.1731e-02, -5.5288e-02],
          [-2.7816e-01, -5.7859e-03, -8.7542e-02, -1.3838e-01,  5.4590e-02]]],


        [[[ 3.7456e-02, -7.0750e-02,  1.9891e-01,  9.3905e-02, -2.5989e-02],
          [-2.5662e-02, -1.4491e-01,  1.9543e-01, -5.7930e-02, -1.8669e-01],
          [ 1.9821e-01,  1.7069e-01,  1.5124e-01,  1.3482e-02, -6.0435e-02],
          [ 1.1449e-01,  2.8590e-01,  1.8226e-01,  4.9813e-02,  3.0215e-01],
          [ 3.2804e-02,  2.3256e-01,  1.6733e-01,  3.0652e-01,  2.2370e-01]]],


        [[[-1.2427e-01,  1.1372e-01, -1.5524e-02, -1.6298e-01, -4.0678e-02],
          [-1.9432e-01, -1.2515e-01, -1.5950e-01,  1.3245e-01, -4.2764e-02],
          [-1.4889e-02,  1.1108e-01,  9.0209e-02, -1.2192e-01,  8.5770e-02],
          [ 1.3499e-01, -1.0725e-01,  2.2560e-01, -7.8059e-02, -4.2403e-02],
          [-1.1961e-01,  2.4598e-01,  1.0576e-01,  2.3326e-01,  6.8122e-02]]],


        [[[ 1.3697e-01, -5.2445e-02, -1.6418e-01,  1.9120e-02, -2.8924e-02],
          [ 6.9508e-03, -6.8587e-02,  3.5455e-02,  9.9794e-02,  1.2079e-01],
          [-1.3042e-01,  1.4999e-01,  8.6312e-02,  2.0631e-01,  2.1137e-01],
          [-1.1802e-01,  2.3976e-01, -1.6908e-01,  1.2219e-01,  3.5245e-02],
          [ 1.2473e-01, -1.0616e-01,  8.9548e-02, -1.4937e-01, -1.9813e-01]]],


        [[[ 1.0733e-01,  1.8626e-01,  3.0560e-01,  6.3584e-02,  2.3444e-01],
          [ 1.4139e-01, -5.7960e-02, -9.5074e-02,  1.4328e-01, -1.1053e-01],
          [ 5.5379e-02, -1.6874e-01,  1.4721e-01,  4.2701e-02, -5.1415e-02],
          [ 3.9701e-02, -1.5306e-01, -5.5437e-02,  3.2660e-03, -1.0874e-01],
          [-9.2402e-02, -9.4550e-02,  2.0398e-01,  2.2299e-01,  2.4139e-01]]],


        [[[ 1.2972e-01, -2.0831e-01,  7.1019e-02,  1.0407e-01, -1.2123e-01],
          [ 4.6762e-02, -1.1826e-01,  6.1718e-02,  1.4155e-01,  2.3991e-01],
          [-1.2170e-01, -1.3173e-01,  2.5803e-01,  1.7410e-01,  1.6429e-01],
          [ 8.2457e-02, -1.5108e-02,  1.8155e-01, -1.3788e-01,  4.9439e-02],
          [ 1.1488e-01,  1.6886e-01, -8.3688e-02, -1.4039e-01,  6.4765e-02]]]],
       device='cuda:0')

conv1.bias 	 torch.Size([20])
tensor([-0.1451, -0.1528, -0.1590, -0.0869,  0.0248, -0.0818, -0.0592, -0.1636,
         0.1621, -0.0139, -0.0736,  0.0569, -0.1326,  0.1647,  0.1438, -0.1429,
        -0.1248, -0.0982, -0.0895,  0.0489], device='cuda:0')

conv2.weight 	 torch.Size([50, 20, 5, 5])
tensor([[[[-0.0439, -0.0327,  0.0170, -0.0125, -0.0110],
          [-0.0337,  0.0289,  0.0107, -0.0117, -0.0252],
          [ 0.0098,  0.0240,  0.0383,  0.0280, -0.0015],
          [-0.0304,  0.0329,  0.0087, -0.0199,  0.0422],
          [ 0.0343, -0.0304, -0.0218, -0.0113, -0.0245]],

         [[ 0.0164, -0.0326,  0.0374, -0.0367,  0.0159],
          [-0.0055, -0.0174,  0.0389, -0.0434, -0.0304],
          [-0.0003,  0.0338, -0.0081, -0.0300, -0.0244],
          [-0.0252, -0.0224, -0.0156, -0.0263,  0.0283],
          [-0.0005, -0.0392, -0.0415,  0.0079,  0.0099]],

         [[ 0.0270, -0.0098, -0.0375, -0.0319, -0.0167],
          [-0.0104,  0.0068, -0.0149,  0.0082, -0.0241],
          [ 0.0330,  0.0123, -0.0194,  0.0337,  0.0115],
          [-0.0322, -0.0237,  0.0255,  0.0292,  0.0443],
          [-0.0101,  0.0250,  0.0289,  0.0241, -0.0105]],

         ...,

         [[-0.0031, -0.0320,  0.0024, -0.0072,  0.0182],
          [ 0.0451, -0.0204, -0.0010,  0.0423, -0.0401],
          [-0.0033,  0.0521,  0.0358,  0.0188, -0.0159],
          [-0.0040, -0.0391, -0.0386, -0.0290,  0.0482],
          [ 0.0339,  0.0176, -0.0027,  0.0450, -0.0150]],

         [[ 0.0375,  0.0079, -0.0238, -0.0088, -0.0007],
          [-0.0363,  0.0294, -0.0072,  0.0301,  0.0385],
          [-0.0030,  0.0345,  0.0223,  0.0429, -0.0259],
          [-0.0069, -0.0054,  0.0596, -0.0236, -0.0223],
          [ 0.0030,  0.0404,  0.0365, -0.0351, -0.0295]],

         [[ 0.0418,  0.0036, -0.0380, -0.0087,  0.0195],
          [-0.0011, -0.0284, -0.0298, -0.0214, -0.0053],
          [ 0.0272,  0.0410, -0.0150, -0.0024, -0.0254],
          [ 0.0367,  0.0580,  0.0505,  0.0349,  0.0037],
          [-0.0044,  0.0152, -0.0282,  0.0118, -0.0372]]],


        [[[-0.0497, -0.0043, -0.0108, -0.0207,  0.0145],
          [-0.0035,  0.0043, -0.0277, -0.0443,  0.0009],
          [-0.0121, -0.0011,  0.0451,  0.0119,  0.0196],
          [-0.0070, -0.0226,  0.0280, -0.0139,  0.0125],
          [-0.0313,  0.0366, -0.0251,  0.0499,  0.0384]],

         [[ 0.0256,  0.0297,  0.0115, -0.0058, -0.0002],
          [-0.0195, -0.0348,  0.0307, -0.0141,  0.0129],
          [ 0.0060,  0.0192, -0.0401, -0.0471,  0.0217],
          [ 0.0237,  0.0181, -0.0530,  0.0062, -0.0406],
          [-0.0006, -0.0143, -0.0390, -0.0332,  0.0116]],

         [[ 0.0464,  0.0522, -0.0180, -0.0010, -0.0387],
          [-0.0317, -0.0146,  0.0380, -0.0172, -0.0153],
          [ 0.0432, -0.0038,  0.0254,  0.0175,  0.0293],
          [ 0.0091, -0.0395, -0.0408, -0.0207,  0.0376],
          [ 0.0222,  0.0177, -0.0234, -0.0313,  0.0318]],

         ...,

         [[ 0.0242, -0.0118,  0.0247, -0.0198, -0.0123],
          [-0.0052,  0.0175,  0.0200, -0.0095, -0.0243],
          [ 0.0037,  0.0217, -0.0385, -0.0174, -0.0448],
          [ 0.0070,  0.0039,  0.0401,  0.0446, -0.0367],
          [-0.0200,  0.0017,  0.0104, -0.0082, -0.0305]],

         [[-0.0152, -0.0048,  0.0344, -0.0108,  0.0253],
          [-0.0283,  0.0062, -0.0308, -0.0394,  0.0067],
          [-0.0216,  0.0354,  0.0429, -0.0429, -0.0122],
          [-0.0029, -0.0137, -0.0180, -0.0102,  0.0216],
          [ 0.0147,  0.0334,  0.0111,  0.0416,  0.0215]],

         [[-0.0072,  0.0027, -0.0347,  0.0031, -0.0148],
          [-0.0173, -0.0271, -0.0150, -0.0390, -0.0127],
          [ 0.0055, -0.0161,  0.0341,  0.0243,  0.0092],
          [-0.0111,  0.0186, -0.0148,  0.0415,  0.0442],
          [-0.0078,  0.0472,  0.0602,  0.0031, -0.0193]]],


        [[[ 0.0011, -0.0005, -0.0547, -0.0174, -0.0176],
          [ 0.0223, -0.0171,  0.0115,  0.0295, -0.0190],
          [-0.0014, -0.0227, -0.0285, -0.0242, -0.0021],
          [ 0.0028, -0.0154,  0.0143,  0.0440,  0.0227],
          [ 0.0079,  0.0067, -0.0308, -0.0153, -0.0268]],

         [[ 0.0206, -0.0466, -0.0251,  0.0752,  0.0668],
          [-0.0512,  0.0109,  0.0149,  0.0890,  0.0056],
          [-0.0174,  0.0012,  0.0902,  0.1060, -0.0183],
          [-0.0405,  0.0060,  0.0676,  0.0622, -0.0556],
          [-0.0080,  0.0128,  0.0059,  0.0387, -0.0217]],

         [[-0.0526, -0.0425,  0.0098, -0.0016,  0.0194],
          [ 0.0223, -0.0074,  0.0318,  0.0695,  0.0203],
          [ 0.0114,  0.0233,  0.0399, -0.0465, -0.0160],
          [ 0.0365,  0.0142, -0.0357,  0.0027,  0.0252],
          [ 0.0316, -0.0016, -0.0027, -0.0079, -0.0287]],

         ...,

         [[-0.0117, -0.0225, -0.0450,  0.0472, -0.0124],
          [-0.0578, -0.0150, -0.0297,  0.0005, -0.0406],
          [-0.0246, -0.0140,  0.0286,  0.0145,  0.0377],
          [-0.0018,  0.0266, -0.0485, -0.0369,  0.0243],
          [-0.0012,  0.0001,  0.0124,  0.0269,  0.0207]],

         [[-0.0313, -0.0126,  0.0270,  0.0266, -0.0155],
          [-0.0224,  0.0350,  0.0451, -0.0063, -0.0164],
          [-0.0578,  0.0116,  0.0309, -0.0257, -0.0425],
          [-0.0605,  0.0351,  0.0493,  0.0479,  0.0301],
          [-0.0200,  0.0110,  0.0208, -0.0152, -0.0309]],

         [[ 0.0302, -0.0235,  0.0128,  0.0033, -0.0119],
          [-0.0281, -0.0095,  0.0487,  0.0366, -0.0182],
          [ 0.0292, -0.0166,  0.0193, -0.0434, -0.0037],
          [ 0.0317, -0.0294,  0.0119, -0.0513, -0.0128],
          [-0.0322, -0.0046, -0.0388,  0.0074, -0.0443]]],


        ...,


        [[[ 0.0314,  0.0430, -0.0351, -0.0245,  0.0396],
          [ 0.0015,  0.0224, -0.0537, -0.0279,  0.0164],
          [ 0.0220, -0.0454,  0.0033, -0.0248, -0.0197],
          [-0.0290, -0.0462, -0.0401,  0.0028,  0.0103],
          [ 0.0243,  0.0273,  0.0125,  0.0336,  0.0067]],

         [[ 0.0119,  0.0370, -0.0338, -0.0213, -0.0326],
          [-0.0040, -0.0094, -0.0289, -0.0122,  0.0061],
          [ 0.0253, -0.0045,  0.0312,  0.0013,  0.0563],
          [ 0.0248,  0.0139, -0.0149,  0.0022,  0.0173],
          [ 0.0149,  0.0148,  0.0112,  0.0043,  0.0194]],

         [[ 0.0320, -0.0317, -0.0415,  0.0104, -0.0381],
          [-0.0288, -0.0013,  0.0073, -0.0221,  0.0469],
          [-0.0223,  0.0214,  0.0047, -0.0055, -0.0032],
          [-0.0473,  0.0137,  0.0173,  0.0575,  0.0218],
          [ 0.0374,  0.0382,  0.0246,  0.0237,  0.0331]],

         ...,

         [[-0.0081,  0.0095,  0.0191,  0.0089,  0.0202],
          [ 0.0188, -0.0562, -0.0019,  0.0152, -0.0162],
          [ 0.0379, -0.0400,  0.0488,  0.0044, -0.0334],
          [-0.0064,  0.0031,  0.0478, -0.0298,  0.0348],
          [-0.0478,  0.0079,  0.0407, -0.0021,  0.0220]],

         [[-0.0303, -0.0110,  0.0101,  0.0123,  0.0262],
          [-0.0358, -0.0070, -0.0083, -0.0070,  0.0027],
          [-0.0176,  0.0065, -0.0081, -0.0174,  0.0218],
          [ 0.0248, -0.0364, -0.0153,  0.0203, -0.0243],
          [-0.0430,  0.0244, -0.0425,  0.0175,  0.0017]],

         [[ 0.0475, -0.0169, -0.0314,  0.0340,  0.0181],
          [ 0.0385, -0.0215,  0.0189,  0.0478,  0.0495],
          [-0.0348,  0.0300, -0.0293,  0.0083,  0.0055],
          [ 0.0115,  0.0345, -0.0214,  0.0462, -0.0006],
          [ 0.0323,  0.0058,  0.0436, -0.0420,  0.0342]]],


        [[[ 0.0068, -0.0316,  0.0346,  0.0232, -0.0054],
          [-0.0366,  0.0105,  0.0267, -0.0406,  0.0067],
          [ 0.0456,  0.0252,  0.0150,  0.0405, -0.0126],
          [-0.0155,  0.0223, -0.0296,  0.0176,  0.0071],
          [-0.0200,  0.0231,  0.0294, -0.0415,  0.0355]],

         [[ 0.0128,  0.0140,  0.0157,  0.0305,  0.0057],
          [-0.0084,  0.0313,  0.0367, -0.0389, -0.0417],
          [ 0.0221,  0.0097,  0.0294, -0.0152,  0.0396],
          [ 0.0035,  0.0266,  0.0080, -0.0285,  0.0186],
          [-0.0359,  0.0431, -0.0277,  0.0238, -0.0138]],

         [[-0.0028, -0.0090,  0.0245,  0.0375, -0.0022],
          [-0.0153, -0.0298,  0.0199, -0.0060, -0.0358],
          [-0.0288, -0.0187, -0.0291,  0.0356, -0.0306],
          [ 0.0078, -0.0071, -0.0426,  0.0189, -0.0037],
          [ 0.0214,  0.0087, -0.0277, -0.0300,  0.0439]],

         ...,

         [[-0.0228, -0.0221,  0.0202,  0.0030, -0.0319],
          [ 0.0212,  0.0321,  0.0077,  0.0144, -0.0352],
          [-0.0223, -0.0305, -0.0059, -0.0408,  0.0456],
          [-0.0059, -0.0351,  0.0373, -0.0171, -0.0338],
          [-0.0314, -0.0254, -0.0270,  0.0193, -0.0430]],

         [[-0.0129,  0.0019, -0.0134,  0.0479,  0.0476],
          [ 0.0062, -0.0164,  0.0479, -0.0425, -0.0170],
          [ 0.0296,  0.0410, -0.0362, -0.0178,  0.0112],
          [-0.0382,  0.0374,  0.0247,  0.0238, -0.0158],
          [-0.0270,  0.0317, -0.0114,  0.0078,  0.0186]],

         [[-0.0211,  0.0028, -0.0287, -0.0074, -0.0095],
          [-0.0399,  0.0258, -0.0441, -0.0326, -0.0018],
          [-0.0150, -0.0345, -0.0399,  0.0368, -0.0029],
          [-0.0338,  0.0072, -0.0319,  0.0090, -0.0053],
          [ 0.0039,  0.0419,  0.0297,  0.0135, -0.0329]]],


        [[[ 0.0177, -0.0144,  0.0391,  0.0375, -0.0331],
          [ 0.0253,  0.0414, -0.0226,  0.0091, -0.0017],
          [-0.0295, -0.0111, -0.0154, -0.0358, -0.0089],
          [ 0.0050,  0.0384, -0.0307,  0.0077,  0.0359],
          [-0.0007, -0.0098,  0.0306, -0.0323,  0.0158]],

         [[-0.0023,  0.0122,  0.0086,  0.0346, -0.0218],
          [-0.0281,  0.0357, -0.0229, -0.0237, -0.0317],
          [ 0.0068,  0.0117,  0.0248, -0.0362, -0.0339],
          [ 0.0334, -0.0268, -0.0173, -0.0319,  0.0207],
          [-0.0307, -0.0233, -0.0455, -0.0224,  0.0122]],

         [[-0.0253,  0.0104,  0.0719,  0.0237, -0.0379],
          [ 0.0234,  0.0379,  0.0201, -0.0376,  0.0398],
          [ 0.0029, -0.0418, -0.0515, -0.0174, -0.0230],
          [ 0.0062,  0.0111, -0.0555, -0.0533, -0.0485],
          [-0.0476, -0.0333, -0.0485,  0.0099,  0.0031]],

         ...,

         [[-0.0120, -0.0096,  0.0048,  0.0426,  0.0057],
          [ 0.0318, -0.0101, -0.0050, -0.0074,  0.0303],
          [-0.0419, -0.0008,  0.0032, -0.0278,  0.0044],
          [-0.0469, -0.0048, -0.0135, -0.0402,  0.0059],
          [ 0.0212, -0.0138,  0.0190,  0.0376, -0.0032]],

         [[ 0.0258,  0.0313, -0.0336, -0.0303, -0.0341],
          [-0.0015, -0.0069,  0.0464,  0.0051, -0.0227],
          [ 0.0266,  0.0441, -0.0163, -0.0304, -0.0175],
          [ 0.0320,  0.0189, -0.0246,  0.0086, -0.0237],
          [ 0.0243,  0.0133,  0.0133, -0.0216,  0.0293]],

         [[ 0.0380,  0.0574,  0.0500, -0.0155,  0.0324],
          [-0.0233,  0.0532, -0.0251, -0.0243, -0.0322],
          [ 0.0016,  0.0201,  0.0204, -0.0189, -0.0058],
          [-0.0415, -0.0110,  0.0109, -0.0343,  0.0078],
          [ 0.0319,  0.0164,  0.0062,  0.0073,  0.0407]]]], device='cuda:0')

conv2.bias 	 torch.Size([50])
tensor([-0.0190, -0.0176,  0.0400,  0.0124, -0.0337, -0.0279,  0.0203, -0.0170,
         0.0152,  0.0315, -0.0332, -0.0354, -0.0177, -0.0047,  0.0068, -0.0171,
         0.0333, -0.0301, -0.0268, -0.0063,  0.0281,  0.0199,  0.0042,  0.0107,
        -0.0228, -0.0045, -0.0081,  0.0422,  0.0257, -0.0030,  0.0133, -0.0190,
         0.0068, -0.0310, -0.0153,  0.0409,  0.0058, -0.0084, -0.0250, -0.0052,
         0.0210,  0.0394,  0.0221,  0.0181, -0.0327,  0.0434,  0.0156, -0.0177,
        -0.0069, -0.0389], device='cuda:0')

fc1.weight 	 torch.Size([500, 800])
tensor([[ 0.0284, -0.0293, -0.0179,  ...,  0.0223, -0.0248,  0.0155],
        [-0.0185, -0.0037, -0.0106,  ...,  0.0211, -0.0175,  0.0055],
        [ 0.0103, -0.0029, -0.0134,  ...,  0.0167,  0.0159,  0.0227],
        ...,
        [-0.0116,  0.0116,  0.0076,  ...,  0.0121, -0.0190,  0.0231],
        [-0.0011,  0.0233, -0.0056,  ..., -0.0220,  0.0123,  0.0269],
        [-0.0112,  0.0302, -0.0228,  ..., -0.0122,  0.0346, -0.0344]],
       device='cuda:0')

fc1.bias 	 torch.Size([500])
tensor([-2.0273e-02,  1.9118e-03,  3.3299e-02,  1.3119e-02,  2.0660e-02,
         5.7571e-03,  3.1862e-02,  1.3549e-02,  2.3137e-02,  1.3350e-02,
         2.2144e-02, -2.6671e-02, -1.7767e-02,  4.9950e-03, -2.6278e-02,
        -8.0400e-03, -3.3971e-03, -1.0613e-02,  2.7681e-02,  7.8021e-03,
         3.3145e-02,  6.0703e-03, -2.3109e-02,  2.9508e-02,  9.2540e-03,
        -2.5508e-02,  1.3936e-02,  3.3813e-02,  3.2084e-02,  2.2225e-02,
        -2.0475e-03, -2.6901e-02, -1.6786e-02,  6.4641e-03, -1.1112e-02,
         8.3813e-03, -1.9213e-02,  5.3953e-03,  1.8182e-02, -8.5452e-03,
         2.7900e-02, -2.1245e-02,  1.9507e-02,  3.3437e-02,  6.0637e-03,
         9.9917e-03, -2.2154e-02,  2.6016e-02,  1.3838e-02, -2.3152e-02,
         2.2983e-02,  2.7247e-02, -3.0659e-02,  1.3555e-02, -1.1021e-02,
         1.3122e-02, -1.5299e-02, -2.8993e-02, -3.0415e-02,  3.1759e-02,
        -5.8305e-03, -1.3399e-02,  1.9130e-02, -1.4284e-02, -1.3810e-02,
         9.5098e-03, -1.1528e-02, -1.4129e-02,  1.6218e-02, -1.6005e-02,
        -3.3241e-03,  2.5282e-02,  1.4494e-02, -3.1108e-02, -3.5349e-03,
         3.5705e-02,  2.3758e-02, -1.9692e-02, -3.4631e-02,  3.4451e-02,
        -4.7175e-03, -1.5490e-02,  2.0910e-02, -3.3155e-02, -2.5847e-02,
        -8.4466e-03, -9.3499e-03,  3.5432e-02,  2.8658e-02, -3.5075e-02,
        -1.2024e-02,  1.1215e-02, -3.2605e-02,  2.0276e-02,  2.5129e-02,
        -2.5840e-02,  7.8166e-04, -1.7027e-02,  1.3298e-02,  1.0601e-02,
         2.6303e-02, -1.2951e-02, -1.0188e-02,  2.0517e-02, -1.3589e-02,
        -3.0592e-03, -1.0495e-02,  5.1485e-03, -2.9868e-02, -2.2614e-02,
         3.4202e-02,  2.1910e-02, -3.2341e-03,  1.7131e-02,  3.0440e-02,
         3.2051e-02, -1.3421e-03,  2.0683e-02,  2.6262e-02,  2.2460e-02,
         1.8401e-02,  3.9732e-03,  3.3194e-02, -8.3513e-03,  1.9435e-02,
         2.3121e-02, -1.5373e-03,  3.9139e-05, -5.6879e-03, -3.3681e-02,
         1.8146e-02, -3.2254e-02, -1.8340e-02,  2.4575e-02,  2.4451e-02,
        -3.0503e-03, -1.3665e-02, -6.6760e-03, -2.0080e-02, -2.0245e-02,
        -2.3108e-02, -7.1573e-03, -2.6796e-02, -2.9653e-02, -1.8038e-02,
         3.3988e-02,  3.5590e-02, -1.4896e-02,  3.6025e-02, -2.4527e-02,
        -5.2954e-03, -1.6895e-02, -3.1880e-02, -2.8541e-02,  3.1869e-02,
         5.0034e-03,  1.7564e-03,  6.1682e-03, -2.3958e-02, -3.4649e-03,
        -3.4086e-02, -1.9054e-02, -3.2295e-02, -1.2683e-02,  2.8183e-02,
         2.8223e-04,  2.5356e-02,  2.2428e-02, -5.4681e-04,  1.5529e-02,
        -1.0213e-02, -1.5235e-02,  3.0142e-02,  3.1061e-02,  3.0713e-02,
         3.1133e-02,  3.3340e-02,  1.0763e-02, -1.1718e-02, -2.8205e-03,
        -1.6209e-02,  2.7747e-02, -2.1046e-02,  3.8775e-03, -3.0909e-02,
         5.7513e-04,  1.0941e-02,  2.3112e-02, -2.0009e-02, -1.6862e-02,
        -1.6617e-02, -2.2410e-02,  1.3483e-02, -1.1086e-02, -1.5763e-02,
        -2.6297e-02, -2.5690e-02, -2.8776e-02,  2.7408e-02,  2.2916e-02,
         2.8235e-02, -1.3221e-03,  3.0993e-02, -2.6092e-02,  3.2088e-02,
        -2.6126e-02, -1.1156e-02,  1.2973e-02, -2.1000e-02,  1.6637e-02,
        -1.2045e-02, -2.9963e-02,  2.4291e-02, -2.7664e-02, -5.6274e-03,
        -1.8426e-02,  3.5483e-02, -4.4194e-03,  4.6146e-03, -2.3163e-02,
         1.0785e-02, -3.2296e-02,  3.4682e-02,  1.8660e-02,  4.2814e-03,
         1.6405e-02, -1.0370e-02,  3.2785e-02, -1.1690e-02, -1.7490e-02,
        -3.5870e-02, -2.4358e-02,  3.0968e-02,  1.4529e-02,  1.0646e-02,
        -3.2276e-02,  1.0952e-02,  2.3000e-02,  2.3193e-02, -2.4494e-02,
        -3.2975e-02,  7.9430e-03,  1.8770e-02,  1.7929e-02,  2.8014e-02,
        -2.2618e-02, -3.4306e-02,  2.9924e-02,  2.0178e-02, -9.9219e-03,
         2.1232e-02,  3.1557e-02, -1.2705e-02, -6.2180e-04, -2.6621e-02,
        -2.6917e-02, -1.5964e-02, -2.7771e-02, -3.5385e-03, -1.5898e-02,
        -1.5430e-02,  2.1839e-02, -2.2654e-02,  2.6088e-02, -2.8730e-02,
        -3.1507e-03,  5.8390e-03,  5.2396e-03, -2.2959e-02, -1.5230e-02,
        -2.3479e-02, -1.3896e-02,  2.9447e-02,  1.9378e-02,  1.4304e-02,
         9.9579e-03,  9.5151e-04, -3.3838e-02, -1.2342e-02,  3.2355e-02,
         1.1487e-02, -6.9662e-03,  3.2231e-02, -2.7190e-02,  1.5897e-02,
        -2.6966e-02, -2.4300e-02, -1.9555e-02,  2.5728e-03,  2.1562e-02,
         1.8084e-03,  2.4521e-02,  3.1268e-02,  1.8552e-02,  2.5219e-03,
        -2.1475e-02,  2.2264e-02, -2.4474e-02, -1.1904e-02, -1.5117e-03,
         5.9951e-03,  1.1933e-02,  6.8256e-03,  3.1565e-03,  2.4100e-02,
         3.1377e-02,  3.3848e-02,  2.7748e-03,  3.6029e-02, -7.4307e-03,
         1.3536e-02, -3.1541e-02, -2.1745e-02, -2.5003e-02,  2.9871e-02,
        -2.8722e-02,  3.1959e-02, -5.7110e-03,  4.9385e-03, -4.8855e-03,
        -2.1601e-02, -1.3989e-02,  1.9449e-02, -7.3656e-03,  2.2228e-02,
         2.5194e-02, -3.1345e-02, -2.3387e-02, -3.1229e-02, -9.7207e-03,
         6.0796e-03,  2.7274e-02, -9.7756e-03, -1.6679e-02, -1.2462e-02,
         2.9638e-02, -6.8865e-04,  1.3351e-02, -3.0191e-02, -3.4808e-02,
        -2.9426e-02,  2.6325e-02, -1.5646e-02, -2.8563e-03, -2.9742e-03,
        -5.6218e-03,  2.9349e-02, -9.9873e-03, -2.7518e-02, -2.8275e-02,
        -2.6760e-02,  8.4412e-03,  1.6172e-02,  3.0517e-02, -9.4478e-03,
         1.3620e-02, -3.0697e-02,  1.5960e-02, -6.7902e-03,  7.3439e-06,
         3.4482e-02, -2.3719e-02, -2.6361e-02, -8.8579e-03,  5.5918e-03,
         3.7326e-02,  1.3474e-02, -2.1446e-02, -2.9089e-02, -1.9049e-02,
         1.1460e-02, -7.0453e-03, -5.0283e-03,  2.4443e-02, -8.5703e-04,
         1.1482e-02,  1.4745e-02,  1.9137e-02,  1.0915e-02, -2.6339e-02,
        -1.7792e-02,  1.8430e-02, -3.1232e-02, -3.4210e-02, -2.0362e-02,
        -1.6539e-02, -2.9273e-03, -2.3521e-02,  8.6184e-03, -1.2225e-02,
         3.6469e-02, -1.5779e-02,  1.0056e-02, -2.3115e-02,  3.6035e-02,
        -1.4456e-02, -4.5071e-03, -3.3593e-02,  1.5527e-02,  1.3662e-02,
         3.2506e-02,  3.3892e-02, -3.4898e-02,  1.7761e-02, -8.3907e-03,
         8.2459e-03, -2.5934e-02,  8.1239e-03,  2.9356e-03, -2.7146e-02,
        -1.6933e-02,  2.9607e-02,  2.7206e-02, -2.6801e-02, -3.1799e-02,
         1.0028e-02,  1.4580e-02,  1.3638e-02, -2.8451e-02, -6.4079e-05,
        -3.5365e-02, -8.9485e-03, -1.5135e-02, -2.5243e-02,  2.5386e-02,
         2.7844e-02, -1.9312e-02,  1.3927e-02,  6.9825e-03, -2.1852e-02,
        -1.9004e-02, -3.2084e-02,  1.8319e-02, -7.6669e-03, -2.6578e-02,
        -1.3153e-02, -1.1903e-02, -2.3224e-03, -2.8801e-02,  1.8062e-02,
         1.5238e-02, -1.0605e-02,  3.3167e-02,  1.2142e-02,  3.0289e-02,
        -7.1098e-03,  3.5369e-02,  4.8299e-03, -1.9721e-02,  1.4773e-02,
         1.9508e-02,  2.5328e-02, -1.1604e-02,  8.8380e-03,  5.8047e-04,
        -2.9321e-02, -1.9356e-02, -1.5656e-02,  8.0568e-03, -2.4153e-02,
        -1.8882e-02,  1.4634e-02, -1.1982e-02,  3.4402e-02,  8.4489e-03,
         2.1393e-02,  1.5498e-02, -1.6969e-02,  8.5094e-03, -1.0434e-02,
        -3.2426e-03, -3.1961e-02,  5.3804e-04, -3.0152e-02,  1.9690e-02,
        -9.5314e-03,  3.6527e-02,  1.3260e-02,  1.4366e-02,  3.0926e-02,
        -2.4418e-02,  1.9532e-02, -2.7630e-02,  1.8539e-02,  1.7430e-02,
        -2.6984e-02,  1.6715e-02, -3.3053e-02, -2.1128e-02, -2.6724e-02,
        -5.0449e-03, -1.4652e-02,  2.3996e-03, -2.0230e-02,  3.4356e-02,
        -3.2309e-03, -1.8511e-02, -1.8648e-02, -7.3139e-03, -2.5254e-02],
       device='cuda:0')

fc2.weight 	 torch.Size([10, 500])
tensor([[ 0.0397,  0.0286,  0.0383,  ..., -0.0470,  0.0049, -0.0205],
        [ 0.0408,  0.0323, -0.0200,  ...,  0.0386,  0.0087,  0.0367],
        [-0.0113,  0.0365,  0.0214,  ...,  0.0551, -0.0703, -0.0388],
        ...,
        [ 0.0236,  0.0627,  0.0084,  ...,  0.0090, -0.0072,  0.0399],
        [-0.0395, -0.0303, -0.0164,  ...,  0.0211,  0.0300, -0.0287],
        [-0.0376,  0.0338,  0.0126,  ..., -0.0286, -0.0371, -0.0079]],
       device='cuda:0')

fc2.bias 	 torch.Size([10])
tensor([ 0.0148,  0.0226, -0.0056, -0.0146,  0.0177,  0.0033,  0.0097,  0.0428,
         0.0262,  0.0140], device='cuda:0')

