Model's state_dict:
fc1.weight 	 torch.Size([512, 784])
tensor([[ 0.0183, -0.0159, -0.0071,  ...,  0.0066, -0.0042,  0.0024],
        [-0.0277, -0.0228, -0.0312,  ..., -0.0032,  0.0009, -0.0170],
        [ 0.0289, -0.0087, -0.0333,  ..., -0.0133,  0.0064, -0.0328],
        ...,
        [-0.0116, -0.0073,  0.0130,  ...,  0.0097,  0.0072, -0.0105],
        [ 0.0273, -0.0291,  0.0148,  ..., -0.0133, -0.0068,  0.0005],
        [-0.0297, -0.0341,  0.0008,  ...,  0.0254,  0.0154, -0.0211]],
       device='cuda:0')

fc1.bias 	 torch.Size([512])
tensor([-0.0122, -0.0029, -0.0341, -0.0008, -0.0189,  0.0088,  0.0285, -0.0042,
        -0.0114,  0.0051, -0.0115,  0.0064, -0.0185, -0.0179,  0.0149,  0.0106,
        -0.0074, -0.0251,  0.0285, -0.0114,  0.0191, -0.0314, -0.0177,  0.0183,
        -0.0067,  0.0134, -0.0316,  0.0265,  0.0055, -0.0080,  0.0308, -0.0162,
         0.0260, -0.0017,  0.0239, -0.0004, -0.0041, -0.0199, -0.0297,  0.0238,
        -0.0113,  0.0091,  0.0144, -0.0324, -0.0001,  0.0102, -0.0018,  0.0052,
         0.0150,  0.0355, -0.0254, -0.0125,  0.0156,  0.0011, -0.0303,  0.0214,
         0.0350, -0.0304,  0.0034, -0.0270,  0.0008, -0.0106, -0.0184, -0.0277,
         0.0333, -0.0174, -0.0173, -0.0271, -0.0141, -0.0138, -0.0189,  0.0048,
        -0.0223, -0.0260,  0.0267, -0.0124, -0.0235, -0.0072,  0.0091,  0.0133,
        -0.0031, -0.0050,  0.0045,  0.0349,  0.0074,  0.0049,  0.0131, -0.0173,
        -0.0311, -0.0094, -0.0268, -0.0293, -0.0214, -0.0185, -0.0305, -0.0055,
         0.0071,  0.0281, -0.0083,  0.0251,  0.0186, -0.0254, -0.0208, -0.0007,
         0.0097, -0.0162,  0.0167,  0.0250, -0.0013, -0.0061, -0.0280, -0.0267,
         0.0301, -0.0008, -0.0245, -0.0139,  0.0223, -0.0235,  0.0311, -0.0114,
        -0.0070,  0.0309, -0.0040,  0.0311, -0.0011, -0.0303, -0.0243,  0.0268,
         0.0117,  0.0320,  0.0345,  0.0279,  0.0257, -0.0002, -0.0204,  0.0181,
        -0.0136,  0.0311, -0.0249,  0.0044, -0.0137, -0.0240,  0.0101, -0.0180,
        -0.0263,  0.0146,  0.0321,  0.0320,  0.0147,  0.0263,  0.0287, -0.0123,
         0.0119,  0.0063,  0.0208, -0.0294,  0.0078,  0.0270, -0.0113, -0.0214,
         0.0064, -0.0137,  0.0014,  0.0249,  0.0213, -0.0134, -0.0019,  0.0229,
        -0.0035,  0.0138, -0.0044, -0.0291, -0.0049, -0.0207,  0.0036, -0.0090,
        -0.0272,  0.0185,  0.0193,  0.0342, -0.0241, -0.0256, -0.0280, -0.0315,
        -0.0301,  0.0352,  0.0250,  0.0275,  0.0344,  0.0260, -0.0067,  0.0037,
        -0.0274, -0.0003,  0.0238, -0.0251, -0.0155, -0.0244, -0.0136, -0.0257,
        -0.0156, -0.0126, -0.0112, -0.0070, -0.0227, -0.0320,  0.0003,  0.0101,
        -0.0129, -0.0221, -0.0007,  0.0180,  0.0246, -0.0202,  0.0237, -0.0140,
         0.0174,  0.0360, -0.0020,  0.0032, -0.0051, -0.0279, -0.0138,  0.0252,
        -0.0061,  0.0323, -0.0088,  0.0240,  0.0033, -0.0183,  0.0309,  0.0150,
         0.0355, -0.0260, -0.0344,  0.0035, -0.0207, -0.0164,  0.0392,  0.0155,
         0.0150, -0.0047, -0.0137,  0.0303,  0.0106, -0.0100,  0.0356, -0.0299,
         0.0165, -0.0222,  0.0088, -0.0122, -0.0248,  0.0053,  0.0268, -0.0273,
        -0.0325,  0.0318,  0.0231, -0.0003, -0.0147,  0.0329, -0.0056,  0.0007,
        -0.0204,  0.0153,  0.0126,  0.0231,  0.0080,  0.0074, -0.0191,  0.0356,
         0.0045, -0.0304, -0.0029,  0.0293, -0.0154,  0.0250, -0.0008,  0.0049,
        -0.0160, -0.0092, -0.0084,  0.0184, -0.0165, -0.0165, -0.0048,  0.0343,
        -0.0270,  0.0076, -0.0295, -0.0013,  0.0306, -0.0118,  0.0149, -0.0098,
        -0.0195,  0.0225,  0.0137, -0.0190, -0.0062,  0.0058, -0.0347,  0.0269,
        -0.0290,  0.0084,  0.0268,  0.0199, -0.0061,  0.0077, -0.0085, -0.0152,
         0.0097,  0.0023,  0.0345, -0.0072, -0.0278, -0.0133,  0.0227, -0.0019,
         0.0225,  0.0116,  0.0360,  0.0108, -0.0247,  0.0163, -0.0061, -0.0077,
        -0.0014, -0.0189,  0.0176,  0.0244,  0.0292, -0.0176,  0.0119, -0.0153,
         0.0319,  0.0278,  0.0130,  0.0267, -0.0049, -0.0046, -0.0350, -0.0270,
        -0.0285,  0.0176,  0.0391,  0.0006,  0.0033, -0.0038,  0.0198,  0.0183,
        -0.0125,  0.0245, -0.0220,  0.0236, -0.0039, -0.0031, -0.0005, -0.0158,
         0.0148, -0.0189, -0.0251, -0.0115,  0.0044, -0.0281,  0.0059,  0.0268,
        -0.0019, -0.0261,  0.0323, -0.0079, -0.0238,  0.0308,  0.0371,  0.0149,
         0.0213,  0.0050, -0.0167,  0.0338, -0.0135, -0.0014,  0.0371, -0.0339,
         0.0167, -0.0211,  0.0020, -0.0203,  0.0227, -0.0202, -0.0114,  0.0268,
        -0.0037,  0.0124, -0.0297,  0.0189, -0.0053,  0.0218, -0.0306,  0.0129,
         0.0067,  0.0331, -0.0232,  0.0073, -0.0259,  0.0004, -0.0271, -0.0103,
         0.0192, -0.0179,  0.0120, -0.0309,  0.0342,  0.0096,  0.0177,  0.0023,
        -0.0295,  0.0324,  0.0155,  0.0106, -0.0089,  0.0297,  0.0178,  0.0228,
        -0.0137, -0.0236,  0.0185, -0.0225,  0.0069,  0.0370, -0.0234,  0.0166,
        -0.0300,  0.0070, -0.0261, -0.0228, -0.0152, -0.0065, -0.0131, -0.0157,
        -0.0282, -0.0041, -0.0310,  0.0303, -0.0323, -0.0090,  0.0164,  0.0331,
        -0.0258,  0.0270,  0.0201,  0.0040,  0.0005,  0.0137,  0.0288,  0.0316,
         0.0133, -0.0293,  0.0326,  0.0266, -0.0233, -0.0252, -0.0290,  0.0143,
        -0.0026,  0.0352,  0.0193,  0.0058, -0.0117, -0.0215, -0.0021,  0.0156,
         0.0359,  0.0165, -0.0288,  0.0015,  0.0384, -0.0116, -0.0063,  0.0172,
        -0.0186,  0.0296,  0.0251, -0.0011, -0.0321, -0.0125, -0.0131,  0.0148,
        -0.0261, -0.0157, -0.0155, -0.0210,  0.0181,  0.0038,  0.0326,  0.0219,
         0.0024, -0.0150,  0.0065,  0.0017,  0.0315,  0.0041,  0.0221,  0.0252,
         0.0077,  0.0103,  0.0079,  0.0220,  0.0201, -0.0243, -0.0172,  0.0020],
       device='cuda:0')

fc2.weight 	 torch.Size([512, 512])
tensor([[-0.0182,  0.0315,  0.0360,  ...,  0.0411,  0.0174,  0.0080],
        [ 0.0026, -0.0065, -0.0120,  ..., -0.0347,  0.0142,  0.0013],
        [ 0.0037, -0.0179,  0.0173,  ...,  0.0394, -0.0104,  0.0273],
        ...,
        [ 0.0221,  0.0278,  0.0458,  ..., -0.0009, -0.0314,  0.0159],
        [-0.0287, -0.0331, -0.0018,  ..., -0.0031, -0.0161,  0.0214],
        [-0.0188,  0.0231, -0.0103,  ...,  0.0038, -0.0256, -0.0064]],
       device='cuda:0')

fc2.bias 	 torch.Size([512])
tensor([-3.3592e-02,  3.0970e-02,  1.4884e-02, -1.4361e-02, -1.5696e-03,
         4.4078e-02, -2.0778e-02, -3.2691e-02,  1.0131e-02, -8.8955e-03,
        -4.1215e-03, -3.0071e-02,  4.7558e-02, -3.6011e-02,  4.0139e-02,
        -1.1030e-02, -2.4300e-02,  3.7328e-02,  4.6377e-02,  2.2582e-02,
         3.3005e-02,  1.4214e-02,  3.8751e-03,  3.2613e-02,  1.2519e-02,
        -2.7335e-02,  1.9095e-04,  2.3588e-02, -2.6444e-02, -3.7824e-02,
        -1.1205e-02, -4.0816e-02, -1.2090e-02,  4.0534e-03, -2.6629e-03,
        -4.1844e-02,  3.9789e-02, -1.1688e-02, -1.2557e-02,  1.2484e-02,
         2.4015e-02, -3.7066e-02, -3.1092e-02, -2.6011e-02,  3.1924e-02,
         4.5649e-02,  4.3146e-02, -1.5349e-02,  4.5150e-02,  1.2244e-02,
        -6.7786e-03,  3.2575e-02,  3.9110e-02,  2.1851e-02, -2.0541e-02,
        -3.7429e-02, -3.0365e-02, -2.7473e-02, -3.5882e-03, -2.1714e-02,
        -1.7307e-02, -3.4083e-02, -8.0858e-03, -1.5271e-02, -3.2392e-02,
         4.0122e-02,  4.2783e-02, -1.5451e-02,  2.2963e-03,  8.2337e-03,
        -1.0011e-03,  1.3313e-02,  2.6669e-02,  2.3204e-02,  3.5305e-02,
        -2.9136e-02,  1.4307e-02, -1.2441e-02,  1.3808e-02,  2.5436e-03,
         7.0148e-03, -4.0982e-02, -2.7900e-02, -2.1805e-02, -5.5057e-03,
        -6.6381e-03,  4.2217e-02,  1.9963e-02, -1.0426e-02, -1.7738e-02,
        -3.6182e-02,  1.6808e-03,  8.4151e-03, -1.8629e-02, -5.4867e-03,
        -1.8017e-02, -1.0182e-02,  2.7311e-02,  1.4755e-02,  1.9788e-02,
        -2.4357e-02,  3.2152e-02, -9.9701e-03,  3.8553e-02, -1.0790e-02,
         1.8283e-02,  3.5096e-02, -2.5524e-02, -4.3133e-02,  1.2236e-02,
         3.1961e-02, -2.1407e-02,  2.5409e-02,  1.7811e-02, -9.3284e-03,
        -1.1103e-02, -1.8525e-02, -2.7002e-02,  2.3829e-02, -3.7221e-02,
        -9.7975e-03, -3.6261e-02,  1.4365e-02,  1.1842e-02,  3.0264e-02,
        -2.2932e-02, -1.0414e-02,  1.6858e-02, -2.0243e-02, -3.8591e-02,
         2.1327e-02, -2.3002e-02, -7.7211e-04, -1.5961e-02, -2.1811e-02,
         6.8690e-03, -1.3430e-02, -3.1618e-02,  3.3393e-03, -1.8413e-02,
        -5.2446e-03, -4.3375e-03,  2.1248e-02,  2.2140e-02, -4.6689e-03,
         1.0217e-02,  3.1452e-02,  2.8316e-02, -3.2780e-02, -3.9815e-02,
        -3.2153e-02,  4.3082e-02,  1.1792e-02, -1.3100e-02, -2.4475e-02,
         4.3401e-02,  3.1631e-02, -1.0787e-02, -2.4087e-02,  4.1937e-04,
         2.3981e-02,  3.3226e-02, -5.7309e-03,  4.1671e-02,  4.4713e-02,
        -1.2702e-02,  3.4497e-02,  2.7825e-02,  1.3220e-02,  3.9915e-02,
        -3.5362e-02, -5.9328e-03, -1.1163e-02, -3.5508e-02,  1.0006e-02,
         3.1055e-02, -5.5452e-04, -2.2450e-02, -3.6210e-02, -2.2878e-02,
        -1.9569e-02,  3.6519e-02, -4.0162e-02, -2.0888e-02, -4.7571e-04,
         4.2358e-02,  1.0826e-03, -1.7310e-02,  3.7348e-02, -9.9660e-03,
         2.0817e-03, -2.3395e-02,  2.0720e-02,  3.3853e-02,  1.6202e-02,
        -7.4541e-03,  3.4966e-03, -9.0567e-03,  2.9478e-02,  1.0805e-02,
        -2.2931e-02,  1.7276e-02, -2.9217e-02,  1.0995e-02, -4.0790e-02,
        -3.7875e-02, -3.6517e-03,  4.2461e-02,  3.6819e-02, -3.3070e-02,
         1.1495e-02, -3.3229e-02, -1.9233e-02,  1.5386e-02,  4.9698e-02,
        -1.4421e-02,  9.3266e-03, -2.0803e-02,  4.5521e-02,  3.2695e-02,
        -2.9073e-02,  9.2325e-03,  2.0584e-03,  2.0131e-02, -1.9830e-02,
        -3.4718e-02,  1.1829e-02,  2.9399e-02, -2.4753e-02,  4.7780e-03,
         4.0564e-02,  1.8694e-02,  4.1612e-02,  2.4749e-02,  1.9358e-02,
        -1.0671e-02,  2.1237e-02, -2.2370e-02,  8.7340e-03,  3.1488e-02,
         3.9093e-02, -1.5401e-02, -2.0180e-02, -2.7973e-02,  3.8864e-02,
        -1.8171e-02, -1.9817e-02, -1.9306e-02,  2.6410e-02,  3.7520e-02,
         2.2010e-02, -3.0656e-02, -2.2685e-02,  4.6709e-02, -2.7669e-02,
        -2.3736e-02,  8.7278e-03, -1.8624e-02,  2.8040e-02,  7.9296e-04,
        -1.4081e-02, -2.9293e-02, -2.8569e-02, -3.7845e-02,  4.2243e-02,
         2.9816e-02, -1.4236e-02, -4.4064e-03, -1.3070e-02,  1.0482e-02,
        -2.1863e-02, -3.4958e-02,  5.0768e-03,  1.0162e-03, -1.2552e-02,
         1.0629e-02, -3.1423e-02,  3.1152e-02,  4.6317e-02, -5.4092e-03,
        -3.9883e-02,  2.6638e-02, -6.7594e-03, -1.0786e-02,  5.5654e-04,
        -3.0678e-02,  1.1838e-02,  3.7424e-02,  4.7687e-02,  2.2278e-02,
        -6.6136e-03,  2.1667e-02,  3.4403e-02, -3.0860e-02,  2.7041e-02,
         2.5376e-02, -1.7125e-02,  2.2781e-02, -1.7012e-02,  4.4019e-03,
        -2.6982e-02,  2.2871e-02, -3.9584e-02, -3.6549e-02, -3.7562e-02,
         3.6321e-02, -2.4694e-02, -2.7372e-02, -2.6827e-02, -1.6207e-02,
         1.0621e-02, -3.6678e-02, -6.5027e-03,  2.6460e-02, -4.2155e-02,
         2.7279e-02,  8.0418e-04, -2.5413e-02, -2.0434e-02,  2.4970e-02,
         2.2975e-02,  8.1824e-03,  2.8003e-02, -2.1599e-02,  3.4848e-02,
        -9.7662e-03,  2.5185e-02, -1.8463e-02,  2.7250e-02, -1.9940e-02,
        -8.8721e-03,  1.1767e-02,  2.7540e-02,  4.2666e-02, -3.4312e-02,
        -6.2295e-03,  3.8063e-02, -2.2451e-02,  2.9089e-02,  1.7692e-02,
         1.9618e-03,  2.4591e-02,  1.3765e-02, -2.1541e-02, -1.4715e-02,
         1.2415e-02,  9.2236e-03,  3.9525e-02,  3.5503e-02,  2.3385e-02,
         3.2448e-02,  2.9228e-02,  3.1804e-03, -3.3404e-02,  4.0278e-02,
         3.5990e-02,  1.4103e-02, -3.5071e-02,  3.5484e-02, -2.3353e-02,
        -3.0091e-02, -4.1541e-03,  1.8446e-03,  1.1728e-02, -2.7574e-03,
        -1.6172e-02, -3.5650e-02,  2.6256e-02, -2.6039e-02,  1.5685e-02,
         1.8977e-02, -5.2635e-03,  2.2217e-02, -1.8102e-02, -3.9402e-02,
        -1.9535e-02,  3.3007e-03,  2.2447e-02, -2.2733e-02,  2.1743e-02,
         2.3265e-02, -3.7242e-02,  4.5549e-02,  4.1074e-02,  2.6699e-02,
         1.1888e-02,  9.2436e-04, -1.1096e-02,  1.5665e-02, -6.9055e-03,
         2.0979e-02,  4.1277e-02,  4.8348e-02, -3.8228e-02, -1.5766e-02,
         2.7853e-02,  4.3208e-02, -2.7084e-02, -1.0682e-03, -4.0212e-02,
         1.3340e-02,  1.5506e-02,  1.4532e-02, -6.6592e-03,  2.1194e-02,
        -1.6892e-02,  3.0541e-02, -1.6352e-02,  1.7642e-02, -2.2946e-02,
        -3.0087e-02, -1.9848e-02, -3.2232e-02, -1.2433e-02, -1.4204e-02,
         1.5431e-02,  2.2061e-02, -4.1116e-03, -1.8042e-02, -2.0787e-02,
        -2.0083e-02,  1.6283e-02, -1.0573e-02,  1.7138e-02,  4.5412e-02,
         4.7442e-02, -1.8220e-02,  4.2316e-02,  2.1156e-03,  1.5290e-02,
        -3.6143e-02,  2.3971e-02,  1.0033e-02,  1.8767e-02, -3.7102e-04,
         1.7051e-02,  1.2559e-02,  4.1961e-02,  3.9276e-02,  3.6475e-02,
         4.3007e-02,  3.1322e-02, -1.1272e-02, -2.0258e-02,  2.6664e-02,
         2.5584e-02,  3.5780e-02,  3.1182e-02, -1.3079e-02,  1.2566e-03,
        -3.3588e-02,  2.8419e-02, -2.9148e-02,  4.5537e-02,  2.8490e-02,
        -2.0311e-02, -7.4346e-03,  2.5966e-02,  2.9821e-02,  8.9405e-03,
        -3.7587e-02, -2.1966e-02, -2.2769e-02, -2.4669e-02, -4.0443e-02,
         3.5186e-02, -1.1778e-02, -3.8737e-03,  8.5216e-03,  4.6041e-02,
        -2.7615e-02, -3.2015e-02,  1.5439e-02, -2.8225e-02,  8.2004e-04,
        -1.9867e-02,  1.7171e-03, -3.1293e-02,  4.2838e-02,  8.3971e-03,
        -1.5205e-02,  4.6115e-02,  1.4731e-02, -9.8551e-05, -1.1833e-02,
         4.1536e-02, -5.2827e-03,  1.7394e-02,  3.1342e-02,  9.8841e-03,
        -2.1768e-03, -4.1592e-02,  1.2373e-02,  9.3349e-03, -2.6374e-03,
        -1.3482e-02, -2.5584e-02, -2.9637e-02,  7.0596e-03, -2.8744e-02,
        -3.6520e-02, -1.8742e-02,  1.1835e-02, -7.8078e-03, -3.5091e-02,
         2.3791e-02,  1.4364e-02, -1.7673e-02, -2.7456e-02,  7.7511e-03,
         1.2644e-02,  1.9256e-02], device='cuda:0')

fc3.weight 	 torch.Size([10, 512])
tensor([[-0.0172, -0.0422, -0.0694,  ..., -0.0168, -0.0221,  0.0116],
        [-0.0819, -0.0097, -0.0735,  ...,  0.0084, -0.0176,  0.0123],
        [-0.0262,  0.0321,  0.0304,  ..., -0.0082, -0.0125,  0.0405],
        ...,
        [ 0.0631, -0.0415,  0.0462,  ..., -0.0028, -0.0295,  0.0348],
        [ 0.0885, -0.0343, -0.0580,  ..., -0.0127, -0.0131, -0.0148],
        [ 0.0202,  0.0458,  0.0781,  ..., -0.0305, -0.0137,  0.0398]],
       device='cuda:0')

fc3.bias 	 torch.Size([10])
tensor([-0.0184,  0.0603, -0.0203, -0.0111,  0.0206,  0.0626, -0.0252,  0.0406,
         0.0150,  0.0013], device='cuda:0')

