Model's state_dict:
fc1.weight 	 torch.Size([512, 784])
tensor([[ 0.0180, -0.0162, -0.0073,  ...,  0.0064, -0.0045,  0.0021],
        [-0.0274, -0.0224, -0.0309,  ..., -0.0029,  0.0013, -0.0167],
        [ 0.0293, -0.0084, -0.0329,  ..., -0.0130,  0.0067, -0.0324],
        ...,
        [-0.0116, -0.0074,  0.0129,  ...,  0.0096,  0.0072, -0.0106],
        [ 0.0276, -0.0288,  0.0152,  ..., -0.0129, -0.0064,  0.0008],
        [-0.0299, -0.0343,  0.0007,  ...,  0.0252,  0.0152, -0.0212]],
       device='cuda:0')

fc1.bias 	 torch.Size([512])
tensor([-1.1569e-02, -3.6040e-03, -3.5012e-02, -1.0753e-03, -1.9607e-02,
         9.0802e-03,  2.8723e-02, -5.0168e-03, -1.3097e-02,  4.6508e-03,
        -1.1240e-02,  7.1755e-03, -1.9395e-02, -1.8141e-02,  1.5523e-02,
         1.0512e-02, -7.4516e-03, -2.5762e-02,  2.7483e-02, -1.1745e-02,
         1.8876e-02, -3.2953e-02, -1.9438e-02,  1.7001e-02, -9.0571e-03,
         1.1970e-02, -3.2270e-02,  2.6454e-02,  6.2137e-03, -9.2419e-03,
         2.9578e-02, -1.6874e-02,  2.6805e-02, -2.8966e-03,  2.4418e-02,
        -4.0239e-05, -5.7226e-03, -1.9378e-02, -3.0237e-02,  2.4245e-02,
        -1.1370e-02,  9.8308e-03,  1.3024e-02, -3.4790e-02,  7.2050e-05,
         1.0274e-02, -3.1894e-03,  4.2276e-03,  1.5488e-02,  3.3553e-02,
        -2.5369e-02, -1.1868e-02,  1.4336e-02, -3.1431e-04, -2.9459e-02,
         2.1446e-02,  3.4695e-02, -2.9690e-02,  1.9749e-03, -2.7369e-02,
         1.1771e-03, -1.0834e-02, -1.8475e-02, -2.8967e-02,  3.1391e-02,
        -1.7650e-02, -2.0275e-02, -2.6393e-02, -1.3725e-02, -1.3564e-02,
        -1.9137e-02,  5.1573e-03, -2.2460e-02, -2.7562e-02,  2.5968e-02,
        -1.2449e-02, -2.4253e-02, -7.7482e-03,  9.0846e-03,  1.2277e-02,
        -2.3874e-03, -5.1055e-03,  5.4585e-03,  3.4157e-02,  6.7656e-03,
         4.5829e-03,  1.2663e-02, -1.7287e-02, -3.2214e-02, -9.7290e-03,
        -2.8980e-02, -2.9550e-02, -2.1018e-02, -1.8449e-02, -3.2779e-02,
        -7.7996e-03,  6.5825e-03,  2.7631e-02, -7.9677e-03,  2.3432e-02,
         1.9278e-02, -2.6165e-02, -2.1243e-02, -1.3147e-03,  9.0483e-03,
        -1.6235e-02,  1.7063e-02,  2.5217e-02, -2.1185e-03, -7.3054e-03,
        -2.9876e-02, -2.6874e-02,  3.0606e-02, -1.0324e-03, -2.6121e-02,
        -1.4245e-02,  2.1883e-02, -2.4076e-02,  2.9635e-02, -1.2521e-02,
        -7.3098e-03,  2.8331e-02, -4.0345e-03,  3.0947e-02, -1.6984e-03,
        -3.0926e-02, -2.5103e-02,  2.5641e-02,  9.4155e-03,  3.1280e-02,
         3.3924e-02,  2.8312e-02,  2.4058e-02,  2.3300e-04, -2.0131e-02,
         1.8168e-02, -1.3038e-02,  3.0411e-02, -2.5596e-02,  3.9176e-03,
        -1.4221e-02, -2.4935e-02,  1.0318e-02, -1.7633e-02, -2.7867e-02,
         1.2834e-02,  3.1590e-02,  3.0972e-02,  1.3934e-02,  2.5635e-02,
         2.8326e-02, -1.4861e-02,  1.1854e-02,  5.1067e-03,  2.1046e-02,
        -2.9603e-02,  6.2706e-03,  2.6704e-02, -1.1729e-02, -2.1577e-02,
         6.0576e-03, -1.3254e-02,  8.6225e-04,  2.5167e-02,  2.1334e-02,
        -1.3283e-02, -1.3911e-03,  2.1575e-02, -4.3097e-03,  1.2567e-02,
        -4.9340e-03, -2.8531e-02, -4.3512e-03, -2.0865e-02,  3.8148e-03,
        -8.7949e-03, -2.8192e-02,  1.8453e-02,  1.8912e-02,  3.3371e-02,
        -2.5640e-02, -2.7008e-02, -2.8407e-02, -3.1558e-02, -3.0055e-02,
         3.4060e-02,  2.4835e-02,  2.7693e-02,  3.4476e-02,  2.4154e-02,
        -7.1474e-03,  2.0088e-03, -3.0324e-02, -1.4899e-03,  2.3192e-02,
        -2.4377e-02, -1.6901e-02, -2.5737e-02, -1.5378e-02, -2.4884e-02,
        -1.4820e-02, -1.2756e-02, -1.1710e-02, -6.6515e-03, -2.3204e-02,
        -3.1575e-02, -8.3772e-04,  8.5128e-03, -1.4690e-02, -2.3101e-02,
        -1.8124e-03,  1.9077e-02,  2.3165e-02, -2.0805e-02,  2.2745e-02,
        -1.3968e-02,  1.7710e-02,  3.5281e-02, -2.8305e-03,  1.2519e-03,
        -4.6961e-03, -2.7542e-02, -1.3173e-02,  2.3460e-02, -6.8958e-03,
         3.2332e-02, -8.9967e-03,  2.4140e-02,  3.5346e-03, -1.9529e-02,
         3.1002e-02,  1.3533e-02,  3.5952e-02, -2.7860e-02, -3.4483e-02,
         4.1882e-03, -2.0255e-02, -1.5698e-02,  3.9378e-02,  1.4853e-02,
         1.4271e-02, -4.8440e-03, -1.3623e-02,  2.8281e-02,  1.1361e-02,
        -9.5820e-03,  3.5071e-02, -2.8524e-02,  1.6437e-02, -2.1608e-02,
         8.6330e-03, -1.1084e-02, -2.4955e-02,  4.3519e-03,  2.5056e-02,
        -2.6363e-02, -3.3079e-02,  3.2070e-02,  2.1942e-02, -1.7750e-03,
        -1.4737e-02,  3.1971e-02, -5.6086e-03, -1.7717e-04, -2.0340e-02,
         1.5510e-02,  1.2555e-02,  2.2383e-02,  8.1313e-03,  8.5006e-03,
        -1.8237e-02,  3.4332e-02,  4.2133e-03, -2.9791e-02, -2.9229e-03,
         2.8395e-02, -1.5841e-02,  2.5938e-02, -2.3794e-03,  5.4858e-03,
        -1.5903e-02, -9.4729e-03, -7.9163e-03,  1.8923e-02, -1.8697e-02,
        -1.8295e-02, -4.5533e-03,  3.4955e-02, -2.6840e-02,  7.1146e-03,
        -2.9392e-02, -2.4135e-03,  3.1124e-02, -1.2032e-02,  1.4541e-02,
        -9.2277e-03, -2.0933e-02,  2.0475e-02,  1.2961e-02, -2.0533e-02,
        -7.2991e-03,  5.6109e-03, -3.5221e-02,  2.5962e-02, -2.9530e-02,
         7.6628e-03,  2.5874e-02,  1.8022e-02, -5.8062e-03,  6.6669e-03,
        -8.9851e-03, -1.5192e-02,  9.9630e-03,  2.0274e-03,  3.4900e-02,
        -7.8921e-03, -2.8922e-02, -1.3222e-02,  2.2729e-02, -1.6799e-03,
         2.2050e-02,  1.0866e-02,  3.4108e-02,  9.9448e-03, -2.5063e-02,
         1.5721e-02, -5.7997e-03, -7.8898e-03, -5.4429e-04, -2.0503e-02,
         1.6800e-02,  2.3946e-02,  2.7978e-02, -1.7257e-02,  1.0631e-02,
        -1.6763e-02,  3.2331e-02,  2.8639e-02,  1.2481e-02,  2.6600e-02,
        -4.3143e-03, -4.8387e-03, -3.6447e-02, -2.7877e-02, -2.9211e-02,
         1.7395e-02,  3.8707e-02, -3.2422e-04,  1.4223e-03, -6.1992e-03,
         1.8156e-02,  1.6852e-02, -1.2958e-02,  2.5286e-02, -2.0936e-02,
         2.3819e-02, -4.7115e-03, -2.8857e-03, -1.3935e-03, -1.5451e-02,
         1.2508e-02, -1.9122e-02, -2.6471e-02, -1.1806e-02,  5.6008e-03,
        -2.8110e-02,  5.9976e-03,  2.6169e-02, -1.7437e-03, -2.5968e-02,
         3.2299e-02, -7.7237e-03, -2.7597e-02,  3.0746e-02,  3.5853e-02,
         1.4055e-02,  2.0200e-02,  4.8732e-03, -1.6412e-02,  3.2839e-02,
        -1.4426e-02, -1.7593e-03,  3.6476e-02, -3.5837e-02,  1.6878e-02,
        -2.3128e-02,  2.9187e-03, -2.0882e-02,  2.1041e-02, -2.0437e-02,
        -1.3957e-02,  2.6813e-02, -3.5312e-03,  1.3309e-02, -3.2009e-02,
         1.8648e-02, -5.5235e-03,  2.1281e-02, -3.0879e-02,  1.3070e-02,
         6.4483e-03,  3.3412e-02, -2.3715e-02,  6.1999e-03, -2.4820e-02,
         7.8736e-04, -2.7671e-02, -1.1008e-02,  1.8236e-02, -1.6940e-02,
         1.2105e-02, -3.0483e-02,  3.4832e-02,  8.4945e-03,  1.7122e-02,
         2.6704e-05, -2.9723e-02,  3.1233e-02,  1.4314e-02,  1.0421e-02,
        -9.6501e-03,  2.9103e-02,  1.8143e-02,  2.2514e-02, -1.5705e-02,
        -2.6282e-02,  1.7722e-02, -2.3109e-02,  5.6326e-03,  3.6836e-02,
        -2.2485e-02,  1.6535e-02, -3.1692e-02,  5.5442e-03, -2.4392e-02,
        -2.3624e-02, -1.5875e-02, -6.0970e-03, -1.2871e-02, -1.5616e-02,
        -2.8877e-02, -5.5957e-03, -3.1686e-02,  3.0288e-02, -3.2065e-02,
        -8.6488e-03,  1.6554e-02,  3.2543e-02, -2.5696e-02,  2.5312e-02,
         2.1443e-02,  4.5002e-03, -1.6688e-03,  1.3259e-02,  2.8766e-02,
         3.0772e-02,  1.1439e-02, -2.9186e-02,  3.3029e-02,  2.5621e-02,
        -2.4067e-02, -2.4841e-02, -2.9598e-02,  1.3793e-02, -4.1687e-03,
         3.5449e-02,  2.0542e-02,  5.7391e-03, -1.2049e-02, -2.1992e-02,
        -2.7286e-03,  1.4767e-02,  3.6366e-02,  1.4855e-02, -2.8539e-02,
         5.8540e-04,  3.9738e-02, -1.2442e-02, -6.7774e-03,  1.5848e-02,
        -1.8623e-02,  2.8950e-02,  2.2874e-02, -4.0224e-03, -3.2486e-02,
        -1.1391e-02, -1.2445e-02,  1.2080e-02, -2.5943e-02, -1.7527e-02,
        -1.5855e-02, -2.0928e-02,  1.7174e-02,  2.0670e-03,  3.2944e-02,
         2.2645e-02,  1.6430e-03, -1.6075e-02,  7.1815e-03,  1.1663e-03,
         3.0647e-02,  4.1590e-03,  2.2321e-02,  2.5190e-02,  7.4466e-03,
         1.0192e-02,  6.1997e-03,  2.1171e-02,  2.1032e-02, -2.4166e-02,
        -1.8015e-02,  2.3503e-03], device='cuda:0')

fc2.weight 	 torch.Size([512, 512])
tensor([[-0.0189,  0.0322,  0.0381,  ...,  0.0408,  0.0194,  0.0071],
        [ 0.0029, -0.0074, -0.0134,  ..., -0.0343,  0.0136,  0.0013],
        [ 0.0035, -0.0167,  0.0163,  ...,  0.0404, -0.0112,  0.0276],
        ...,
        [ 0.0219,  0.0281,  0.0461,  ..., -0.0009, -0.0314,  0.0159],
        [-0.0288, -0.0330, -0.0018,  ..., -0.0031, -0.0161,  0.0214],
        [-0.0184,  0.0228, -0.0102,  ...,  0.0041, -0.0254, -0.0063]],
       device='cuda:0')

fc2.bias 	 torch.Size([512])
tensor([-0.0308,  0.0313,  0.0154, -0.0131,  0.0017,  0.0469, -0.0194, -0.0323,
         0.0081, -0.0059, -0.0022, -0.0292,  0.0479, -0.0376,  0.0400, -0.0101,
        -0.0254,  0.0372,  0.0449,  0.0231,  0.0330,  0.0141,  0.0052,  0.0329,
         0.0131, -0.0276,  0.0005,  0.0259, -0.0230, -0.0388, -0.0106, -0.0424,
        -0.0119,  0.0052, -0.0031, -0.0420,  0.0431, -0.0092, -0.0118,  0.0126,
         0.0250, -0.0374, -0.0306, -0.0265,  0.0333,  0.0470,  0.0440, -0.0116,
         0.0451,  0.0126, -0.0043,  0.0344,  0.0403,  0.0233, -0.0191, -0.0368,
        -0.0316, -0.0261, -0.0068, -0.0232, -0.0168, -0.0332, -0.0068, -0.0140,
        -0.0314,  0.0409,  0.0437, -0.0149,  0.0046,  0.0070, -0.0032,  0.0135,
         0.0268,  0.0240,  0.0357, -0.0292,  0.0166, -0.0116,  0.0144,  0.0019,
         0.0075, -0.0420, -0.0262, -0.0209, -0.0039, -0.0053,  0.0404,  0.0185,
        -0.0106, -0.0152, -0.0371,  0.0028,  0.0093, -0.0195, -0.0030, -0.0165,
        -0.0078,  0.0279,  0.0148,  0.0199, -0.0246,  0.0337, -0.0086,  0.0386,
        -0.0076,  0.0178,  0.0362, -0.0246, -0.0433,  0.0119,  0.0329, -0.0213,
         0.0250,  0.0182, -0.0076, -0.0117, -0.0176, -0.0254,  0.0255, -0.0370,
        -0.0101, -0.0369,  0.0144,  0.0134,  0.0305, -0.0243, -0.0120,  0.0173,
        -0.0192, -0.0365,  0.0229, -0.0224,  0.0003, -0.0163, -0.0217,  0.0078,
        -0.0131, -0.0299,  0.0017, -0.0178, -0.0050, -0.0038,  0.0245,  0.0222,
        -0.0037,  0.0113,  0.0347,  0.0277, -0.0311, -0.0399, -0.0335,  0.0435,
         0.0108, -0.0123, -0.0248,  0.0441,  0.0297, -0.0106, -0.0238,  0.0031,
         0.0247,  0.0344, -0.0046,  0.0398,  0.0434, -0.0123,  0.0354,  0.0309,
         0.0112,  0.0397, -0.0354, -0.0041, -0.0106, -0.0363,  0.0101,  0.0314,
        -0.0004, -0.0221, -0.0359, -0.0240, -0.0220,  0.0387, -0.0396, -0.0200,
         0.0006,  0.0411,  0.0020, -0.0197,  0.0379, -0.0096,  0.0069, -0.0239,
         0.0191,  0.0337,  0.0180, -0.0073,  0.0038, -0.0099,  0.0294,  0.0119,
        -0.0227,  0.0174, -0.0284,  0.0086, -0.0387, -0.0369, -0.0038,  0.0431,
         0.0355, -0.0323,  0.0119, -0.0342, -0.0199,  0.0153,  0.0505, -0.0132,
         0.0085, -0.0207,  0.0452,  0.0342, -0.0290,  0.0104,  0.0021,  0.0182,
        -0.0190, -0.0347,  0.0126,  0.0299, -0.0231,  0.0046,  0.0411,  0.0183,
         0.0451,  0.0253,  0.0212, -0.0105,  0.0225, -0.0219,  0.0098,  0.0337,
         0.0401, -0.0127, -0.0185, -0.0275,  0.0397, -0.0155, -0.0175, -0.0187,
         0.0271,  0.0368,  0.0214, -0.0306, -0.0224,  0.0470, -0.0260, -0.0219,
         0.0085, -0.0181,  0.0288,  0.0043, -0.0139, -0.0278, -0.0287, -0.0385,
         0.0404,  0.0292, -0.0148, -0.0021, -0.0128,  0.0110, -0.0219, -0.0345,
         0.0048,  0.0018, -0.0130,  0.0093, -0.0289,  0.0319,  0.0461, -0.0077,
        -0.0395,  0.0265, -0.0078, -0.0092,  0.0025, -0.0309,  0.0118,  0.0386,
         0.0470,  0.0214, -0.0079,  0.0215,  0.0344, -0.0292,  0.0262,  0.0259,
        -0.0156,  0.0242, -0.0176,  0.0067, -0.0245,  0.0236, -0.0368, -0.0355,
        -0.0374,  0.0362, -0.0254, -0.0253, -0.0269, -0.0179,  0.0108, -0.0353,
        -0.0065,  0.0266, -0.0419,  0.0275,  0.0020, -0.0239, -0.0203,  0.0259,
         0.0241,  0.0076,  0.0297, -0.0205,  0.0333, -0.0094,  0.0241, -0.0183,
         0.0274, -0.0186, -0.0086,  0.0098,  0.0291,  0.0429, -0.0346, -0.0067,
         0.0407, -0.0201,  0.0301,  0.0185,  0.0009,  0.0251,  0.0128, -0.0203,
        -0.0126,  0.0142,  0.0087,  0.0394,  0.0354,  0.0251,  0.0333,  0.0329,
         0.0046, -0.0329,  0.0405,  0.0375,  0.0148, -0.0354,  0.0369, -0.0251,
        -0.0292, -0.0038,  0.0019,  0.0116, -0.0012, -0.0182, -0.0335,  0.0285,
        -0.0277,  0.0154,  0.0208, -0.0053,  0.0212, -0.0168, -0.0410, -0.0213,
         0.0067,  0.0226, -0.0230,  0.0213,  0.0228, -0.0381,  0.0467,  0.0412,
         0.0264,  0.0136,  0.0008, -0.0103,  0.0185, -0.0072,  0.0241,  0.0427,
         0.0473, -0.0384, -0.0155,  0.0282,  0.0451, -0.0278, -0.0008, -0.0409,
         0.0131,  0.0165,  0.0142, -0.0078,  0.0204, -0.0165,  0.0305, -0.0161,
         0.0180, -0.0200, -0.0289, -0.0191, -0.0303, -0.0099, -0.0138,  0.0153,
         0.0219, -0.0041, -0.0184, -0.0199, -0.0187,  0.0153, -0.0117,  0.0188,
         0.0476,  0.0457, -0.0176,  0.0424,  0.0013,  0.0168, -0.0362,  0.0240,
         0.0102,  0.0162, -0.0026,  0.0165,  0.0128,  0.0424,  0.0392,  0.0368,
         0.0416,  0.0327, -0.0091, -0.0218,  0.0288,  0.0262,  0.0368,  0.0305,
        -0.0134,  0.0008, -0.0327,  0.0306, -0.0296,  0.0449,  0.0314, -0.0183,
        -0.0072,  0.0243,  0.0308,  0.0102, -0.0369, -0.0221, -0.0176, -0.0263,
        -0.0415,  0.0351, -0.0105, -0.0043,  0.0081,  0.0459, -0.0257, -0.0327,
         0.0150, -0.0282,  0.0011, -0.0189,  0.0009, -0.0312,  0.0444,  0.0110,
        -0.0128,  0.0471,  0.0135, -0.0008, -0.0115,  0.0430, -0.0049,  0.0201,
         0.0326,  0.0109, -0.0012, -0.0413,  0.0104,  0.0095, -0.0026, -0.0125,
        -0.0233, -0.0287,  0.0076, -0.0275, -0.0371, -0.0207,  0.0119, -0.0078,
        -0.0332,  0.0236,  0.0153, -0.0166, -0.0281,  0.0076,  0.0127,  0.0195],
       device='cuda:0')

fc3.weight 	 torch.Size([10, 512])
tensor([[-0.0190, -0.0444, -0.0765,  ..., -0.0170, -0.0217,  0.0106],
        [-0.0909, -0.0093, -0.0749,  ...,  0.0087, -0.0175,  0.0140],
        [-0.0297,  0.0345,  0.0323,  ..., -0.0090, -0.0129,  0.0427],
        ...,
        [ 0.0716, -0.0405,  0.0540,  ..., -0.0014, -0.0292,  0.0332],
        [ 0.0952, -0.0401, -0.0730,  ..., -0.0124, -0.0132, -0.0145],
        [ 0.0106,  0.0458,  0.0853,  ..., -0.0301, -0.0139,  0.0395]],
       device='cuda:0')

fc3.bias 	 torch.Size([10])
tensor([-0.0181,  0.0627, -0.0291, -0.0157,  0.0260,  0.0569, -0.0262,  0.0325,
         0.0325,  0.0038], device='cuda:0')

