Model's state_dict:
fc1.weight 	 torch.Size([512, 784])
tensor([[ 0.0182, -0.0160, -0.0071,  ...,  0.0066, -0.0043,  0.0023],
        [-0.0275, -0.0226, -0.0311,  ..., -0.0031,  0.0011, -0.0168],
        [ 0.0284, -0.0092, -0.0338,  ..., -0.0139,  0.0059, -0.0333],
        ...,
        [-0.0118, -0.0075,  0.0128,  ...,  0.0095,  0.0070, -0.0107],
        [ 0.0270, -0.0294,  0.0146,  ..., -0.0135, -0.0070,  0.0002],
        [-0.0296, -0.0340,  0.0009,  ...,  0.0255,  0.0155, -0.0210]],
       device='cuda:0')

fc1.bias 	 torch.Size([512])
tensor([-1.2132e-02, -3.2338e-03, -3.2912e-02, -4.1995e-04, -1.8967e-02,
         8.8519e-03,  2.8717e-02, -4.0615e-03, -1.1269e-02,  5.4511e-03,
        -1.1692e-02,  6.8466e-03, -1.7379e-02, -1.7805e-02,  1.5917e-02,
         1.0729e-02, -7.7991e-03, -2.4484e-02,  2.8479e-02, -1.1523e-02,
         1.9151e-02, -3.0754e-02, -1.6750e-02,  1.9225e-02, -5.2463e-03,
         1.4942e-02, -3.1150e-02,  2.6964e-02,  4.9715e-03, -7.7085e-03,
         3.2155e-02, -1.5480e-02,  2.6594e-02, -1.0042e-03,  2.4773e-02,
        -8.5796e-04, -3.4166e-03, -2.0076e-02, -2.9038e-02,  2.3490e-02,
        -1.0920e-02,  8.9011e-03,  1.4911e-02, -3.0987e-02,  2.4781e-04,
         1.0525e-02, -1.3859e-03,  5.7254e-03,  1.4767e-02,  3.6695e-02,
        -2.5829e-02, -1.2247e-02,  1.5896e-02,  1.9885e-03, -2.9757e-02,
         2.1496e-02,  3.4554e-02, -3.0315e-02,  3.5822e-03, -2.6811e-02,
         1.4590e-03, -1.0440e-02, -1.7813e-02, -2.6722e-02,  3.4958e-02,
        -1.7838e-02, -1.5221e-02, -2.7177e-02, -1.4095e-02, -1.4013e-02,
        -1.8954e-02,  4.7566e-03, -2.2619e-02, -2.5612e-02,  2.7433e-02,
        -1.2018e-02, -2.2057e-02, -7.1128e-03,  8.2768e-03,  1.3241e-02,
        -3.4703e-03, -4.8006e-03,  4.6729e-03,  3.5652e-02,  8.4603e-03,
         4.4462e-03,  1.3988e-02, -1.6686e-02, -3.0544e-02, -8.4167e-03,
        -2.5308e-02, -2.9560e-02, -2.1957e-02, -1.8741e-02, -2.9788e-02,
        -4.0279e-03,  7.4287e-03,  2.8486e-02, -7.3053e-03,  2.6740e-02,
         1.8802e-02, -2.5307e-02, -2.0731e-02, -5.7724e-04,  9.6194e-03,
        -1.6144e-02,  1.6242e-02,  2.5216e-02, -1.1975e-03, -5.0632e-03,
        -2.6239e-02, -2.6621e-02,  3.0043e-02, -5.0214e-04, -2.4499e-02,
        -1.3410e-02,  2.2232e-02, -2.2577e-02,  3.1304e-02, -1.0104e-02,
        -6.6652e-03,  3.1750e-02, -4.0326e-03,  3.1182e-02, -9.5362e-05,
        -2.9546e-02, -2.3378e-02,  2.7528e-02,  1.2819e-02,  3.3029e-02,
         3.4353e-02,  2.8301e-02,  2.6447e-02,  2.0898e-04, -2.0465e-02,
         1.7925e-02, -1.3284e-02,  3.1350e-02, -2.4115e-02,  4.7524e-03,
        -1.3298e-02, -2.3693e-02,  1.1018e-02, -1.8388e-02, -2.5071e-02,
         1.4464e-02,  3.1658e-02,  3.2194e-02,  1.5559e-02,  2.7134e-02,
         2.8995e-02, -1.0756e-02,  1.2043e-02,  6.7118e-03,  1.9921e-02,
        -2.9047e-02,  8.4566e-03,  2.7390e-02, -1.0451e-02, -2.0790e-02,
         6.6623e-03, -1.4205e-02,  1.9000e-03,  2.4604e-02,  2.0986e-02,
        -1.3109e-02, -2.1521e-03,  2.3703e-02, -3.2290e-03,  1.4544e-02,
        -2.4388e-03, -2.8809e-02, -4.5566e-03, -2.0398e-02,  3.2011e-03,
        -8.8122e-03, -2.6977e-02,  1.8508e-02,  1.9785e-02,  3.3735e-02,
        -2.4207e-02, -2.5072e-02, -2.7058e-02, -3.2034e-02, -3.0508e-02,
         3.4820e-02,  2.5117e-02,  2.7778e-02,  3.4541e-02,  2.6733e-02,
        -7.4099e-03,  4.3046e-03, -2.6066e-02, -5.9231e-05,  2.3957e-02,
        -2.6115e-02, -1.3701e-02, -2.3950e-02, -1.2664e-02, -2.5619e-02,
        -1.5687e-02, -1.2986e-02, -1.1128e-02, -7.3541e-03, -2.2292e-02,
        -3.2083e-02,  8.9753e-04,  1.1090e-02, -1.1753e-02, -2.1442e-02,
        -8.8072e-04,  1.8084e-02,  2.4440e-02, -2.0166e-02,  2.4960e-02,
        -1.4332e-02,  1.7463e-02,  3.5371e-02, -1.6412e-03,  4.0699e-03,
        -5.4299e-03, -2.6774e-02, -1.4766e-02,  2.6495e-02, -5.9443e-03,
         3.2152e-02, -8.4140e-03,  2.3869e-02,  3.2651e-03, -1.7838e-02,
         3.0466e-02,  1.6114e-02,  3.5531e-02, -2.5119e-02, -3.3531e-02,
         3.5156e-03, -2.1330e-02, -1.6287e-02,  3.8664e-02,  1.5072e-02,
         1.5205e-02, -5.2490e-03, -1.3657e-02,  3.2461e-02,  9.7779e-03,
        -1.0479e-02,  3.5491e-02, -2.9817e-02,  1.7569e-02, -2.1892e-02,
         9.3011e-03, -1.2380e-02, -2.4407e-02,  5.3245e-03,  2.6618e-02,
        -2.7652e-02, -3.2336e-02,  3.2439e-02,  2.3970e-02,  8.0847e-04,
        -1.4244e-02,  3.3563e-02, -5.4110e-03,  1.0875e-03, -2.0365e-02,
         1.5282e-02,  1.3456e-02,  2.3643e-02,  8.4997e-03,  7.9899e-03,
        -1.9042e-02,  3.6842e-02,  4.1789e-03, -3.1461e-02, -2.7229e-03,
         2.9017e-02, -1.4850e-02,  2.5858e-02,  1.8743e-04,  5.0340e-03,
        -1.6397e-02, -8.6200e-03, -8.6820e-03,  1.9141e-02, -1.6192e-02,
        -1.5293e-02, -5.8541e-03,  3.4620e-02, -2.7678e-02,  7.7668e-03,
        -2.8925e-02, -5.7289e-04,  3.0681e-02, -1.1886e-02,  1.4936e-02,
        -9.8681e-03, -1.7950e-02,  2.3472e-02,  1.5519e-02, -1.8260e-02,
        -5.5332e-03,  5.6410e-03, -3.5072e-02,  2.6800e-02, -2.8537e-02,
         8.9606e-03,  2.7118e-02,  2.0937e-02, -6.0129e-03,  7.7895e-03,
        -8.8225e-03, -1.5721e-02,  9.2378e-03,  1.8300e-03,  3.4892e-02,
        -7.0906e-03, -2.6585e-02, -1.3207e-02,  2.1852e-02, -1.1396e-03,
         2.2231e-02,  1.1461e-02,  3.6458e-02,  1.1365e-02, -2.4926e-02,
         1.6475e-02, -6.1301e-03, -7.3833e-03, -2.6243e-03, -1.8563e-02,
         1.7886e-02,  2.4677e-02,  2.9680e-02, -1.7977e-02,  1.2171e-02,
        -1.3942e-02,  3.2828e-02,  2.7763e-02,  1.3714e-02,  2.7371e-02,
        -5.5237e-03, -4.5010e-03, -3.3919e-02, -2.6841e-02, -2.8092e-02,
         1.7900e-02,  3.9203e-02,  1.2109e-04,  3.7621e-03, -2.6376e-03,
         1.9769e-02,  1.8780e-02, -1.2961e-02,  2.4166e-02, -2.2058e-02,
         2.3264e-02, -3.9163e-03, -3.1278e-03, -9.0508e-04, -1.5476e-02,
         1.5946e-02, -1.9257e-02, -2.4646e-02, -1.1243e-02,  4.0644e-03,
        -2.7213e-02,  5.7232e-03,  2.6564e-02, -2.1564e-03, -2.6096e-02,
         3.2941e-02, -7.9659e-03, -2.2016e-02,  3.1157e-02,  3.8230e-02,
         1.5500e-02,  2.2247e-02,  4.6782e-03, -1.6889e-02,  3.3589e-02,
        -1.2139e-02, -1.1719e-03,  3.6877e-02, -3.2786e-02,  1.6166e-02,
        -1.9855e-02,  1.3389e-03, -2.0468e-02,  2.4609e-02, -2.1257e-02,
        -1.0097e-02,  2.7004e-02, -3.4863e-03,  1.2515e-02, -2.8861e-02,
         2.0220e-02, -4.2693e-03,  2.2190e-02, -2.9728e-02,  1.3930e-02,
         6.7267e-03,  3.3116e-02, -2.2850e-02,  7.5064e-03, -2.4908e-02,
         1.5899e-04, -2.6218e-02, -1.0113e-02,  1.9733e-02, -1.8014e-02,
         1.2354e-02, -3.1221e-02,  3.4287e-02,  9.6033e-03,  1.8329e-02,
         4.4191e-03, -2.9112e-02,  3.2461e-02,  1.5872e-02,  1.0540e-02,
        -8.9705e-03,  2.9957e-02,  1.7428e-02,  2.3339e-02, -1.2208e-02,
        -2.2434e-02,  1.8968e-02, -2.2728e-02,  8.6111e-03,  3.7052e-02,
        -2.3730e-02,  1.6158e-02, -2.9250e-02,  6.6249e-03, -2.6604e-02,
        -2.3038e-02, -1.5199e-02, -7.2142e-03, -1.2654e-02, -1.5478e-02,
        -2.8032e-02, -3.6941e-03, -3.0496e-02,  3.1043e-02, -3.1826e-02,
        -9.6525e-03,  1.6201e-02,  3.3494e-02, -2.6318e-02,  2.9550e-02,
         1.9616e-02,  3.9651e-03,  1.7540e-03,  1.3007e-02,  2.8937e-02,
         3.2252e-02,  1.4108e-02, -2.9118e-02,  3.2603e-02,  2.7314e-02,
        -2.2945e-02, -2.5324e-02, -2.8155e-02,  1.5060e-02, -2.7358e-03,
         3.5142e-02,  1.8386e-02,  6.2486e-03, -1.1877e-02, -2.1270e-02,
        -1.8438e-03,  1.5653e-02,  3.5531e-02,  1.7724e-02, -2.9132e-02,
         2.1872e-03,  3.7712e-02, -1.1521e-02, -6.2362e-03,  1.7450e-02,
        -1.8180e-02,  3.0179e-02,  2.6120e-02,  4.5616e-04, -3.2076e-02,
        -1.2927e-02, -1.3564e-02,  1.6372e-02, -2.5854e-02, -1.4545e-02,
        -1.5241e-02, -2.1276e-02,  1.8540e-02,  5.7628e-03,  3.2424e-02,
         2.1634e-02,  2.8642e-03, -1.3663e-02,  6.4812e-03,  1.8624e-03,
         3.1377e-02,  3.9924e-03,  2.2082e-02,  2.6054e-02,  7.9254e-03,
         1.1530e-02,  9.0827e-03,  2.1755e-02,  1.9007e-02, -2.3809e-02,
        -1.6613e-02,  1.7432e-03], device='cuda:0')

fc2.weight 	 torch.Size([512, 512])
tensor([[-0.0183,  0.0305,  0.0350,  ...,  0.0408,  0.0160,  0.0080],
        [ 0.0023, -0.0060, -0.0114,  ..., -0.0350,  0.0147,  0.0013],
        [ 0.0036, -0.0179,  0.0183,  ...,  0.0403, -0.0093,  0.0272],
        ...,
        [ 0.0222,  0.0277,  0.0453,  ..., -0.0008, -0.0315,  0.0160],
        [-0.0287, -0.0331, -0.0018,  ..., -0.0032, -0.0162,  0.0214],
        [-0.0189,  0.0232, -0.0105,  ...,  0.0036, -0.0259, -0.0065]],
       device='cuda:0')

fc2.bias 	 torch.Size([512])
tensor([-0.0352,  0.0305,  0.0160, -0.0146, -0.0037,  0.0431, -0.0218, -0.0320,
         0.0107, -0.0100, -0.0052, -0.0309,  0.0469, -0.0350,  0.0399, -0.0118,
        -0.0228,  0.0364,  0.0465,  0.0224,  0.0327,  0.0143,  0.0026,  0.0324,
         0.0122, -0.0279,  0.0004,  0.0231, -0.0294, -0.0371, -0.0114, -0.0407,
        -0.0119,  0.0043, -0.0024, -0.0418,  0.0383, -0.0137, -0.0125,  0.0126,
         0.0233, -0.0375, -0.0311, -0.0272,  0.0314,  0.0445,  0.0429, -0.0179,
         0.0447,  0.0113, -0.0078,  0.0309,  0.0378,  0.0208, -0.0221, -0.0374,
        -0.0297, -0.0278, -0.0024, -0.0204, -0.0174, -0.0347, -0.0082, -0.0148,
        -0.0325,  0.0396,  0.0438, -0.0142,  0.0005,  0.0089, -0.0009,  0.0134,
         0.0265,  0.0223,  0.0340, -0.0291,  0.0138, -0.0128,  0.0130,  0.0026,
         0.0060, -0.0410, -0.0277, -0.0228, -0.0068, -0.0065,  0.0434,  0.0207,
        -0.0102, -0.0187, -0.0361,  0.0005,  0.0078, -0.0185, -0.0063, -0.0186,
        -0.0116,  0.0265,  0.0143,  0.0195, -0.0247,  0.0310, -0.0104,  0.0389,
        -0.0120,  0.0181,  0.0342, -0.0262, -0.0429,  0.0125,  0.0310, -0.0209,
         0.0249,  0.0176, -0.0097, -0.0111, -0.0178, -0.0283,  0.0233, -0.0373,
        -0.0099, -0.0355,  0.0140,  0.0094,  0.0299, -0.0216, -0.0087,  0.0166,
        -0.0212, -0.0392,  0.0192, -0.0230, -0.0005, -0.0157, -0.0211,  0.0070,
        -0.0144, -0.0315,  0.0033, -0.0182, -0.0060, -0.0044,  0.0196,  0.0221,
        -0.0056,  0.0096,  0.0296,  0.0285, -0.0340, -0.0390, -0.0316,  0.0437,
         0.0120, -0.0135, -0.0247,  0.0427,  0.0318, -0.0103, -0.0242, -0.0012,
         0.0239,  0.0325, -0.0060,  0.0428,  0.0443, -0.0128,  0.0342,  0.0259,
         0.0142,  0.0399, -0.0357, -0.0068, -0.0112, -0.0353,  0.0103,  0.0302,
        -0.0007, -0.0222, -0.0363, -0.0229, -0.0182,  0.0352, -0.0404, -0.0216,
        -0.0013,  0.0424,  0.0017, -0.0156,  0.0372, -0.0103,  0.0008, -0.0235,
         0.0214,  0.0339,  0.0158, -0.0073,  0.0039, -0.0090,  0.0300,  0.0108,
        -0.0229,  0.0175, -0.0295,  0.0122, -0.0411, -0.0384, -0.0036,  0.0418,
         0.0359, -0.0334,  0.0111, -0.0334, -0.0206,  0.0143,  0.0486, -0.0157,
         0.0095, -0.0217,  0.0458,  0.0319, -0.0291,  0.0084,  0.0028,  0.0201,
        -0.0201, -0.0349,  0.0110,  0.0281, -0.0258,  0.0038,  0.0405,  0.0190,
         0.0377,  0.0246,  0.0188, -0.0108,  0.0203, -0.0225,  0.0081,  0.0302,
         0.0378, -0.0176, -0.0216, -0.0289,  0.0385, -0.0185, -0.0218, -0.0196,
         0.0262,  0.0372,  0.0221, -0.0307, -0.0228,  0.0463, -0.0284, -0.0259,
         0.0083, -0.0187,  0.0280, -0.0012, -0.0139, -0.0304, -0.0285, -0.0387,
         0.0433,  0.0299, -0.0140, -0.0056, -0.0125,  0.0102, -0.0219, -0.0354,
         0.0048,  0.0014, -0.0130,  0.0118, -0.0324,  0.0313,  0.0467, -0.0047,
        -0.0392,  0.0264, -0.0066, -0.0113, -0.0006, -0.0302,  0.0117,  0.0377,
         0.0482,  0.0236, -0.0064,  0.0224,  0.0350, -0.0311,  0.0282,  0.0250,
        -0.0178,  0.0220, -0.0170,  0.0028, -0.0287,  0.0225, -0.0412, -0.0364,
        -0.0377,  0.0362, -0.0249, -0.0283, -0.0265, -0.0141,  0.0111, -0.0372,
        -0.0068,  0.0263, -0.0421,  0.0270,  0.0004, -0.0269, -0.0206,  0.0239,
         0.0223,  0.0085,  0.0274, -0.0219,  0.0354, -0.0101,  0.0252, -0.0187,
         0.0271, -0.0209, -0.0087,  0.0124,  0.0262,  0.0432, -0.0341, -0.0062,
         0.0368, -0.0233,  0.0282,  0.0174,  0.0017,  0.0235,  0.0153, -0.0225,
        -0.0159,  0.0110,  0.0086,  0.0396,  0.0344,  0.0228,  0.0312,  0.0281,
         0.0023, -0.0337,  0.0410,  0.0354,  0.0137, -0.0344,  0.0345, -0.0216,
        -0.0297, -0.0043,  0.0020,  0.0112, -0.0040, -0.0151, -0.0367,  0.0251,
        -0.0257,  0.0162,  0.0178, -0.0050,  0.0224, -0.0195, -0.0390, -0.0195,
         0.0022,  0.0224, -0.0229,  0.0217,  0.0245, -0.0368,  0.0442,  0.0409,
         0.0268,  0.0120,  0.0011, -0.0122,  0.0132, -0.0068,  0.0192,  0.0399,
         0.0491, -0.0381, -0.0158,  0.0293,  0.0426, -0.0266, -0.0017, -0.0396,
         0.0139,  0.0167,  0.0144, -0.0072,  0.0211, -0.0172,  0.0304, -0.0161,
         0.0164, -0.0241, -0.0307, -0.0203, -0.0323, -0.0135, -0.0142,  0.0154,
         0.0223, -0.0031, -0.0166, -0.0217, -0.0213,  0.0176, -0.0098,  0.0161,
         0.0451,  0.0491, -0.0182,  0.0422,  0.0025,  0.0150, -0.0362,  0.0240,
         0.0102,  0.0198,  0.0008,  0.0182,  0.0122,  0.0414,  0.0388,  0.0356,
         0.0437,  0.0301, -0.0118, -0.0202,  0.0256,  0.0255,  0.0359,  0.0305,
        -0.0137,  0.0011, -0.0344,  0.0269, -0.0286,  0.0464,  0.0276, -0.0214,
        -0.0071,  0.0274,  0.0290,  0.0093, -0.0385, -0.0219, -0.0239, -0.0242,
        -0.0408,  0.0357, -0.0133, -0.0031,  0.0088,  0.0453, -0.0282, -0.0323,
         0.0160, -0.0285,  0.0007, -0.0202,  0.0017, -0.0315,  0.0415,  0.0074,
        -0.0163,  0.0450,  0.0147,  0.0004, -0.0123,  0.0409, -0.0054,  0.0159,
         0.0301,  0.0091, -0.0024, -0.0417,  0.0128,  0.0108, -0.0025, -0.0136,
        -0.0265, -0.0309,  0.0069, -0.0300, -0.0364, -0.0178,  0.0113, -0.0074,
        -0.0376,  0.0238,  0.0137, -0.0183, -0.0271,  0.0078,  0.0125,  0.0190],
       device='cuda:0')

fc3.weight 	 torch.Size([10, 512])
tensor([[-0.0136, -0.0403, -0.0655,  ..., -0.0170, -0.0222,  0.0119],
        [-0.0734, -0.0096, -0.0704,  ...,  0.0090, -0.0177,  0.0119],
        [-0.0278,  0.0297,  0.0277,  ..., -0.0081, -0.0122,  0.0395],
        ...,
        [ 0.0579, -0.0403,  0.0424,  ..., -0.0036, -0.0295,  0.0351],
        [ 0.0830, -0.0335, -0.0520,  ..., -0.0120, -0.0132, -0.0151],
        [ 0.0242,  0.0469,  0.0711,  ..., -0.0301, -0.0130,  0.0409]],
       device='cuda:0')

fc3.bias 	 torch.Size([10])
tensor([-0.0163,  0.0585, -0.0145, -0.0104,  0.0198,  0.0669, -0.0261,  0.0445,
         0.0016,  0.0013], device='cuda:0')

