Model's state_dict:
fc1.weight 	 torch.Size([512, 784])
tensor([[ 0.0183, -0.0158, -0.0070,  ...,  0.0067, -0.0042,  0.0024],
        [-0.0274, -0.0225, -0.0310,  ..., -0.0030,  0.0012, -0.0168],
        [ 0.0292, -0.0084, -0.0330,  ..., -0.0131,  0.0067, -0.0325],
        ...,
        [-0.0115, -0.0072,  0.0131,  ...,  0.0098,  0.0073, -0.0104],
        [ 0.0275, -0.0289,  0.0151,  ..., -0.0131, -0.0065,  0.0007],
        [-0.0297, -0.0342,  0.0008,  ...,  0.0253,  0.0153, -0.0211]],
       device='cuda:0')

fc1.bias 	 torch.Size([512])
tensor([-0.0124, -0.0034, -0.0348, -0.0012, -0.0193,  0.0091,  0.0288, -0.0045,
        -0.0127,  0.0050, -0.0112,  0.0067, -0.0197, -0.0180,  0.0150,  0.0105,
        -0.0072, -0.0252,  0.0282, -0.0117,  0.0190, -0.0321, -0.0184,  0.0176,
        -0.0082,  0.0127, -0.0321,  0.0265,  0.0057, -0.0087,  0.0300, -0.0163,
         0.0259, -0.0021,  0.0240, -0.0001, -0.0052, -0.0193, -0.0305,  0.0241,
        -0.0112,  0.0094,  0.0139, -0.0338, -0.0003,  0.0102, -0.0029,  0.0049,
         0.0151,  0.0346, -0.0255, -0.0120,  0.0145,  0.0008, -0.0303,  0.0214,
         0.0351, -0.0301,  0.0032, -0.0268,  0.0008, -0.0106, -0.0179, -0.0286,
         0.0327, -0.0177, -0.0193, -0.0263, -0.0140, -0.0137, -0.0191,  0.0051,
        -0.0226, -0.0275,  0.0258, -0.0127, -0.0242, -0.0071,  0.0090,  0.0127,
        -0.0024, -0.0051,  0.0047,  0.0344,  0.0069,  0.0045,  0.0131, -0.0176,
        -0.0318, -0.0097, -0.0279, -0.0298, -0.0212, -0.0182, -0.0318, -0.0067,
         0.0068,  0.0279, -0.0083,  0.0242,  0.0186, -0.0253, -0.0207, -0.0009,
         0.0093, -0.0163,  0.0170,  0.0249, -0.0018, -0.0074, -0.0289, -0.0267,
         0.0302, -0.0011, -0.0252, -0.0138,  0.0219, -0.0239,  0.0299, -0.0123,
        -0.0071,  0.0297, -0.0036,  0.0310, -0.0011, -0.0308, -0.0247,  0.0262,
         0.0101,  0.0320,  0.0344,  0.0282,  0.0251, -0.0004, -0.0203,  0.0181,
        -0.0130,  0.0309, -0.0258,  0.0037, -0.0136, -0.0243,  0.0102, -0.0176,
        -0.0271,  0.0142,  0.0319,  0.0314,  0.0143,  0.0259,  0.0288, -0.0137,
         0.0119,  0.0055,  0.0213, -0.0293,  0.0074,  0.0267, -0.0116, -0.0215,
         0.0062, -0.0134,  0.0008,  0.0248,  0.0216, -0.0135, -0.0020,  0.0225,
        -0.0041,  0.0136, -0.0049, -0.0289, -0.0049, -0.0206,  0.0038, -0.0089,
        -0.0279,  0.0186,  0.0195,  0.0336, -0.0250, -0.0262, -0.0283, -0.0315,
        -0.0304,  0.0346,  0.0248,  0.0276,  0.0339,  0.0245, -0.0074,  0.0028,
        -0.0294, -0.0009,  0.0233, -0.0245, -0.0164, -0.0244, -0.0147, -0.0255,
        -0.0156, -0.0130, -0.0115, -0.0066, -0.0229, -0.0317, -0.0006,  0.0092,
        -0.0141, -0.0228, -0.0016,  0.0185,  0.0239, -0.0210,  0.0234, -0.0138,
         0.0180,  0.0353, -0.0026,  0.0022, -0.0051, -0.0282, -0.0133,  0.0243,
        -0.0065,  0.0323, -0.0092,  0.0240,  0.0037, -0.0178,  0.0306,  0.0144,
         0.0356, -0.0273, -0.0342,  0.0038, -0.0204, -0.0164,  0.0394,  0.0148,
         0.0149, -0.0050, -0.0136,  0.0290,  0.0109, -0.0100,  0.0355, -0.0294,
         0.0157, -0.0223,  0.0086, -0.0114, -0.0247,  0.0045,  0.0259, -0.0268,
        -0.0329,  0.0315,  0.0230, -0.0011, -0.0147,  0.0327, -0.0057,  0.0004,
        -0.0203,  0.0156,  0.0124,  0.0223,  0.0083,  0.0076, -0.0184,  0.0353,
         0.0045, -0.0300, -0.0029,  0.0288, -0.0156,  0.0254, -0.0018,  0.0052,
        -0.0157, -0.0094, -0.0079,  0.0189, -0.0179, -0.0175, -0.0045,  0.0346,
        -0.0271,  0.0070, -0.0291, -0.0015,  0.0309, -0.0116,  0.0150, -0.0095,
        -0.0204,  0.0213,  0.0136, -0.0198, -0.0069,  0.0057, -0.0350,  0.0263,
        -0.0291,  0.0078,  0.0262,  0.0189, -0.0061,  0.0069, -0.0091, -0.0155,
         0.0096,  0.0020,  0.0344, -0.0077, -0.0290, -0.0136,  0.0225, -0.0022,
         0.0216,  0.0108,  0.0348,  0.0102, -0.0250,  0.0161, -0.0064, -0.0074,
        -0.0012, -0.0195,  0.0173,  0.0243,  0.0288, -0.0167,  0.0113, -0.0158,
         0.0320,  0.0281,  0.0123,  0.0268, -0.0044, -0.0049, -0.0353, -0.0271,
        -0.0286,  0.0175,  0.0389,  0.0007,  0.0021, -0.0050,  0.0191,  0.0173,
        -0.0126,  0.0246, -0.0211,  0.0236, -0.0045, -0.0030, -0.0008, -0.0159,
         0.0139, -0.0188, -0.0255, -0.0115,  0.0052, -0.0278,  0.0056,  0.0269,
        -0.0018, -0.0261,  0.0322, -0.0080, -0.0260,  0.0309,  0.0366,  0.0148,
         0.0207,  0.0050, -0.0166,  0.0330, -0.0142, -0.0017,  0.0370, -0.0348,
         0.0169, -0.0227,  0.0025, -0.0206,  0.0220, -0.0202, -0.0128,  0.0268,
        -0.0029,  0.0129, -0.0316,  0.0189, -0.0057,  0.0213, -0.0308,  0.0130,
         0.0067,  0.0334, -0.0237,  0.0065, -0.0254,  0.0006, -0.0270, -0.0106,
         0.0187, -0.0175,  0.0119, -0.0308,  0.0342,  0.0092,  0.0176,  0.0008,
        -0.0297,  0.0324,  0.0150,  0.0101, -0.0095,  0.0293,  0.0179,  0.0229,
        -0.0148, -0.0249,  0.0182, -0.0227,  0.0060,  0.0363, -0.0224,  0.0168,
        -0.0313,  0.0056, -0.0260, -0.0233, -0.0152, -0.0063, -0.0125, -0.0157,
        -0.0288, -0.0057, -0.0315,  0.0302, -0.0323, -0.0087,  0.0168,  0.0328,
        -0.0258,  0.0258,  0.0208,  0.0041, -0.0003,  0.0134,  0.0287,  0.0312,
         0.0121, -0.0291,  0.0328,  0.0257, -0.0237, -0.0250, -0.0294,  0.0138,
        -0.0032,  0.0354,  0.0198,  0.0059, -0.0120, -0.0219, -0.0017,  0.0150,
         0.0363,  0.0156, -0.0287,  0.0010,  0.0395, -0.0120, -0.0061,  0.0165,
        -0.0192,  0.0292,  0.0245, -0.0029, -0.0321, -0.0120, -0.0123,  0.0134,
        -0.0260, -0.0163, -0.0159, -0.0210,  0.0175,  0.0029,  0.0326,  0.0220,
         0.0022, -0.0158,  0.0066,  0.0016,  0.0310,  0.0041,  0.0217,  0.0253,
         0.0075,  0.0105,  0.0064,  0.0211,  0.0205, -0.0245, -0.0178,  0.0021],
       device='cuda:0')

fc2.weight 	 torch.Size([512, 512])
tensor([[-0.0186,  0.0327,  0.0374,  ...,  0.0410,  0.0185,  0.0076],
        [ 0.0026, -0.0071, -0.0130,  ..., -0.0345,  0.0135,  0.0013],
        [ 0.0035, -0.0171,  0.0168,  ...,  0.0398, -0.0109,  0.0275],
        ...,
        [ 0.0219,  0.0279,  0.0460,  ..., -0.0009, -0.0314,  0.0159],
        [-0.0288, -0.0331, -0.0018,  ..., -0.0031, -0.0161,  0.0214],
        [-0.0185,  0.0231, -0.0103,  ...,  0.0040, -0.0255, -0.0064]],
       device='cuda:0')

fc2.bias 	 torch.Size([512])
tensor([-3.1553e-02,  3.0908e-02,  1.5228e-02, -1.3956e-02,  7.1244e-04,
         4.5568e-02, -2.0069e-02, -3.2677e-02,  9.4617e-03, -7.3240e-03,
        -3.1910e-03, -2.9529e-02,  4.7890e-02, -3.6955e-02,  3.9936e-02,
        -1.0372e-02, -2.4422e-02,  3.7777e-02,  4.6259e-02,  2.2955e-02,
         3.3480e-02,  1.4164e-02,  4.5895e-03,  3.2863e-02,  1.2876e-02,
        -2.7091e-02,  4.4565e-04,  2.5189e-02, -2.5153e-02, -3.8352e-02,
        -1.0915e-02, -4.1493e-02, -1.2211e-02,  4.8450e-03, -2.4386e-03,
        -4.1876e-02,  4.1204e-02, -1.0595e-02, -1.1820e-02,  1.2603e-02,
         2.4520e-02, -3.6977e-02, -3.0375e-02, -2.6322e-02,  3.2707e-02,
         4.5850e-02,  4.3448e-02, -1.3057e-02,  4.5159e-02,  1.2468e-02,
        -5.7997e-03,  3.3939e-02,  3.9290e-02,  2.2116e-02, -1.9403e-02,
        -3.6894e-02, -3.0464e-02, -2.6792e-02, -4.1973e-03, -2.2464e-02,
        -1.7039e-02, -3.3605e-02, -7.3437e-03, -1.5083e-02, -3.1725e-02,
         4.0688e-02,  4.3465e-02, -1.5009e-02,  3.0664e-03,  7.7353e-03,
        -1.6412e-03,  1.3708e-02,  2.6727e-02,  2.3462e-02,  3.5640e-02,
        -2.9161e-02,  1.6068e-02, -1.1980e-02,  1.4229e-02,  2.2622e-03,
         8.2028e-03, -4.1314e-02, -2.6867e-02, -2.0815e-02, -4.3608e-03,
        -5.9312e-03,  4.1173e-02,  1.9044e-02, -1.0562e-02, -1.6338e-02,
        -3.6085e-02,  2.1082e-03,  8.9794e-03, -1.8881e-02, -4.0285e-03,
        -1.7018e-02, -9.1682e-03,  2.7011e-02,  1.4767e-02,  1.9812e-02,
        -2.4503e-02,  3.3114e-02, -9.9358e-03,  3.8591e-02, -9.1432e-03,
         1.7937e-02,  3.5501e-02, -2.4969e-02, -4.3327e-02,  1.1579e-02,
         3.2377e-02, -2.1413e-02,  2.4924e-02,  1.8001e-02, -8.8157e-03,
        -1.1656e-02, -1.7664e-02, -2.6123e-02,  2.4742e-02, -3.6926e-02,
        -9.9192e-03, -3.6589e-02,  1.4483e-02,  1.3683e-02,  3.0596e-02,
        -2.4391e-02, -1.1153e-02,  1.6292e-02, -2.0178e-02, -3.7296e-02,
         2.2440e-02, -2.2697e-02, -4.2043e-04, -1.6789e-02, -2.1986e-02,
         6.7533e-03, -1.3377e-02, -3.0994e-02,  2.2090e-03, -1.7993e-02,
        -5.0667e-03, -3.7461e-03,  2.3286e-02,  2.2272e-02, -4.1330e-03,
         1.0457e-02,  3.3447e-02,  2.8035e-02, -3.1551e-02, -3.9516e-02,
        -3.2559e-02,  4.3323e-02,  1.1016e-02, -1.2715e-02, -2.4740e-02,
         4.3780e-02,  3.1584e-02, -1.0748e-02, -2.3958e-02,  1.9035e-03,
         2.4217e-02,  3.3583e-02, -5.6622e-03,  4.0251e-02,  4.4050e-02,
        -1.2388e-02,  3.4975e-02,  2.9439e-02,  1.2549e-02,  3.9771e-02,
        -3.4915e-02, -4.8588e-03, -1.1163e-02, -3.6091e-02,  9.7503e-03,
         3.0572e-02,  8.8155e-05, -2.1996e-02, -3.6669e-02, -2.2737e-02,
        -2.1082e-02,  3.7417e-02, -3.9631e-02, -2.0574e-02, -5.5556e-04,
         4.1889e-02,  1.4106e-03, -1.8729e-02,  3.7456e-02, -9.7793e-03,
         4.7390e-03, -2.3801e-02,  2.0142e-02,  3.3661e-02,  1.7234e-02,
        -7.1788e-03,  3.6480e-03, -9.7251e-03,  2.9813e-02,  1.1811e-02,
        -2.2490e-02,  1.7317e-02, -2.8102e-02,  9.2465e-03, -4.0072e-02,
        -3.7412e-02, -3.8292e-03,  4.1866e-02,  3.6171e-02, -3.2919e-02,
         1.1601e-02, -3.3595e-02, -1.9603e-02,  1.5094e-02,  5.0130e-02,
        -1.3906e-02,  8.8603e-03, -2.1011e-02,  4.5029e-02,  3.3907e-02,
        -2.9117e-02,  1.0115e-02,  1.8530e-03,  1.9286e-02, -1.9327e-02,
        -3.5459e-02,  1.2339e-02,  3.0410e-02, -2.4416e-02,  5.0432e-03,
         4.0940e-02,  1.9057e-02,  4.3464e-02,  2.4948e-02,  2.0635e-02,
        -1.0633e-02,  2.2287e-02, -2.2073e-02,  8.7094e-03,  3.2601e-02,
         3.9918e-02, -1.4174e-02, -1.9246e-02, -2.7559e-02,  3.9488e-02,
        -1.7308e-02, -1.8851e-02, -1.9495e-02,  2.6676e-02,  3.6908e-02,
         2.1503e-02, -3.0637e-02, -2.2509e-02,  4.7076e-02, -2.6740e-02,
        -2.1825e-02,  8.4826e-03, -1.8376e-02,  2.8616e-02,  2.9236e-03,
        -1.4035e-02, -2.8532e-02, -2.8814e-02, -3.8198e-02,  4.1559e-02,
         2.9755e-02, -1.4535e-02, -3.3557e-03, -1.2904e-02,  1.0779e-02,
        -2.1948e-02, -3.4667e-02,  4.9780e-03,  1.4056e-03, -1.2477e-02,
         9.9314e-03, -3.0433e-02,  3.1275e-02,  4.6035e-02, -6.9169e-03,
        -3.9524e-02,  2.6743e-02, -7.2288e-03, -1.0106e-02,  1.4907e-03,
        -3.0525e-02,  1.2232e-02,  3.7441e-02,  4.6676e-02,  2.1872e-02,
        -6.9964e-03,  2.0688e-02,  3.4592e-02, -2.9546e-02,  2.7038e-02,
         2.5602e-02, -1.5212e-02,  2.3948e-02, -1.7419e-02,  5.7487e-03,
        -2.6096e-02,  2.3804e-02, -3.7581e-02, -3.5723e-02, -3.7519e-02,
         3.6266e-02, -2.5064e-02, -2.6366e-02, -2.6531e-02, -1.7065e-02,
         1.0585e-02, -3.7107e-02, -6.6353e-03,  2.6805e-02, -4.1865e-02,
         2.7330e-02,  1.7049e-03, -2.4857e-02, -2.0398e-02,  2.5675e-02,
         2.2927e-02,  7.9741e-03,  2.8880e-02, -2.1025e-02,  3.4473e-02,
        -9.3377e-03,  2.4052e-02, -1.8333e-02,  2.7420e-02, -1.9107e-02,
        -9.2985e-03,  1.0796e-02,  2.8644e-02,  4.3039e-02, -3.4490e-02,
        -6.4321e-03,  3.9795e-02, -2.1388e-02,  2.9535e-02,  1.7962e-02,
         1.0928e-03,  2.4975e-02,  1.3343e-02, -2.0891e-02, -1.3573e-02,
         1.3185e-02,  8.9015e-03,  3.9234e-02,  3.5115e-02,  2.4269e-02,
         3.2960e-02,  3.1299e-02,  3.3106e-03, -3.3151e-02,  4.0216e-02,
         3.7293e-02,  1.4383e-02, -3.5425e-02,  3.6115e-02, -2.4556e-02,
        -2.9383e-02, -3.9336e-03,  1.9363e-03,  1.1290e-02, -1.8736e-03,
        -1.6515e-02, -3.4911e-02,  2.7317e-02, -2.6602e-02,  1.5669e-02,
         1.9784e-02, -5.2600e-03,  2.1497e-02, -1.7333e-02, -4.0059e-02,
        -1.9984e-02,  5.6219e-03,  2.2466e-02, -2.3428e-02,  2.1779e-02,
         2.2521e-02, -3.7199e-02,  4.6341e-02,  4.1088e-02,  2.6497e-02,
         1.2290e-02,  8.1010e-04, -1.0790e-02,  1.6528e-02, -7.0633e-03,
         2.2476e-02,  4.1849e-02,  4.8043e-02, -3.8363e-02, -1.5650e-02,
         2.7991e-02,  4.3982e-02, -2.6936e-02, -7.7239e-04, -4.0669e-02,
         1.2879e-02,  1.6112e-02,  1.4356e-02, -7.6969e-03,  2.1474e-02,
        -1.6757e-02,  3.0618e-02, -1.6043e-02,  1.8000e-02, -2.1416e-02,
        -2.9122e-02, -1.9525e-02, -3.1566e-02, -1.0715e-02, -1.3872e-02,
         1.5554e-02,  2.2133e-02, -4.1011e-03, -1.7973e-02, -1.9827e-02,
        -1.9182e-02,  1.6375e-02, -1.1457e-02,  1.8527e-02,  4.6454e-02,
         4.6909e-02, -1.7854e-02,  4.2404e-02,  2.3336e-03,  1.6532e-02,
        -3.6137e-02,  2.3938e-02,  1.0267e-02,  1.7353e-02, -1.7773e-03,
         1.7191e-02,  1.2947e-02,  4.2180e-02,  3.9359e-02,  3.7074e-02,
         4.2221e-02,  3.1723e-02, -9.9457e-03, -2.0619e-02,  2.8067e-02,
         2.5941e-02,  3.6447e-02,  3.0457e-02, -1.3395e-02,  1.0536e-03,
        -3.3080e-02,  2.9357e-02, -2.9235e-02,  4.4855e-02,  3.0203e-02,
        -1.9488e-02, -7.5774e-03,  2.4767e-02,  3.0674e-02,  9.9577e-03,
        -3.7373e-02, -2.1950e-02, -2.0471e-02, -2.5491e-02, -4.0737e-02,
         3.5244e-02, -1.0814e-02, -4.2782e-03,  8.5530e-03,  4.6336e-02,
        -2.6453e-02, -3.2334e-02,  1.5282e-02, -2.8111e-02,  9.8448e-04,
        -1.9247e-02,  1.5370e-03, -3.1163e-02,  4.3821e-02,  9.4380e-03,
        -1.3970e-02,  4.6379e-02,  1.3981e-02, -4.4202e-04, -1.1564e-02,
         4.2327e-02, -5.0427e-03,  1.8456e-02,  3.2193e-02,  1.0113e-02,
        -1.9963e-03, -4.1358e-02,  1.1771e-02,  9.5546e-03, -2.7069e-03,
        -1.3309e-02, -2.4578e-02, -2.9278e-02,  7.3031e-03, -2.7753e-02,
        -3.6593e-02, -1.9872e-02,  1.1969e-02, -7.5033e-03, -3.4404e-02,
         2.3753e-02,  1.4629e-02, -1.6976e-02, -2.7800e-02,  7.7465e-03,
         1.2665e-02,  1.9382e-02], device='cuda:0')

fc3.weight 	 torch.Size([10, 512])
tensor([[-0.0178, -0.0433, -0.0734,  ..., -0.0170, -0.0220,  0.0111],
        [-0.0875, -0.0096, -0.0746,  ...,  0.0086, -0.0175,  0.0125],
        [-0.0288,  0.0326,  0.0320,  ..., -0.0083, -0.0127,  0.0425],
        ...,
        [ 0.0704, -0.0411,  0.0521,  ..., -0.0024, -0.0292,  0.0337],
        [ 0.0918, -0.0364, -0.0672,  ..., -0.0127, -0.0132, -0.0145],
        [ 0.0131,  0.0445,  0.0799,  ..., -0.0304, -0.0140,  0.0397]],
       device='cuda:0')

fc3.bias 	 torch.Size([10])
tensor([-0.0186,  0.0615, -0.0249, -0.0127,  0.0235,  0.0594, -0.0253,  0.0361,
         0.0241,  0.0024], device='cuda:0')

