Model's state_dict:
fc1.weight 	 torch.Size([512, 784])
tensor([[ 0.0156, -0.0156, -0.0078,  ...,  0.0078, -0.0039,  0.0020],
        [-0.0312, -0.0312, -0.0312,  ..., -0.0039,  0.0010, -0.0156],
        [ 0.0312, -0.0078, -0.0312,  ..., -0.0156,  0.0078, -0.0312],
        ...,
        [-0.0156, -0.0078,  0.0156,  ...,  0.0078,  0.0078, -0.0078],
        [ 0.0312, -0.0312,  0.0156,  ..., -0.0156, -0.0078,  0.0010],
        [-0.0312, -0.0312,  0.0005,  ...,  0.0312,  0.0156, -0.0156]],
       device='cuda:0')

fc1.bias 	 torch.Size([512])
tensor([-1.1581e-02, -3.6163e-03, -3.5019e-02, -1.0834e-03, -1.9608e-02,
         9.0790e-03,  2.8717e-02, -5.0201e-03, -1.3107e-02,  4.6387e-03,
        -1.1246e-02,  7.1716e-03, -1.9409e-02, -1.8143e-02,  1.5518e-02,
         1.0498e-02, -7.4615e-03, -2.5772e-02,  2.7481e-02, -1.1749e-02,
         1.8875e-02, -3.2959e-02, -1.9440e-02,  1.6998e-02, -9.0637e-03,
         1.1963e-02, -3.2272e-02,  2.6443e-02,  6.2103e-03, -9.2468e-03,
         2.9572e-02, -1.6876e-02,  2.6794e-02, -2.8992e-03,  2.4414e-02,
        -4.5776e-05, -5.7373e-03, -1.9379e-02, -3.0243e-02,  2.4231e-02,
        -1.1383e-02,  9.8267e-03,  1.3016e-02, -3.4790e-02,  6.1035e-05,
         1.0269e-02, -3.2043e-03,  4.2267e-03,  1.5488e-02,  3.3539e-02,
        -2.5375e-02, -1.1871e-02,  1.4328e-02, -3.2043e-04, -2.9465e-02,
         2.1439e-02,  3.4683e-02, -2.9694e-02,  1.9684e-03, -2.7374e-02,
         1.1749e-03, -1.0849e-02, -1.8478e-02, -2.8976e-02,  3.1387e-02,
        -1.7654e-02, -2.0279e-02, -2.6398e-02, -1.3733e-02, -1.3565e-02,
        -1.9150e-02,  5.1422e-03, -2.2461e-02, -2.7573e-02,  2.5955e-02,
        -1.2451e-02, -2.4261e-02, -7.7515e-03,  9.0790e-03,  1.2268e-02,
        -2.3956e-03, -5.1117e-03,  5.4474e-03,  3.4149e-02,  6.7596e-03,
         4.5776e-03,  1.2650e-02, -1.7288e-02, -3.2227e-02, -9.7351e-03,
        -2.8992e-02, -2.9556e-02, -2.1027e-02, -1.8463e-02, -3.2791e-02,
        -7.8125e-03,  6.5765e-03,  2.7618e-02, -7.9803e-03,  2.3422e-02,
         1.9272e-02, -2.6169e-02, -2.1255e-02, -1.3275e-03,  9.0332e-03,
        -1.6235e-02,  1.7059e-02,  2.5208e-02, -2.1210e-03, -7.3090e-03,
        -2.9877e-02, -2.6886e-02,  3.0594e-02, -1.0376e-03, -2.6123e-02,
        -1.4252e-02,  2.1881e-02, -2.4078e-02,  2.9633e-02, -1.2527e-02,
        -7.3242e-03,  2.8320e-02, -4.0436e-03,  3.0945e-02, -1.7090e-03,
        -3.0930e-02, -2.5116e-02,  2.5635e-02,  9.4147e-03,  3.1265e-02,
         3.3920e-02,  2.8305e-02,  2.4048e-02,  2.2888e-04, -2.0142e-02,
         1.8158e-02, -1.3046e-02,  3.0411e-02, -2.5604e-02,  3.9062e-03,
        -1.4221e-02, -2.4948e-02,  1.0315e-02, -1.7639e-02, -2.7878e-02,
         1.2833e-02,  3.1586e-02,  3.0960e-02,  1.3931e-02,  2.5635e-02,
         2.8320e-02, -1.4862e-02,  1.1841e-02,  5.0964e-03,  2.1042e-02,
        -2.9617e-02,  6.2561e-03,  2.6703e-02, -1.1734e-02, -2.1591e-02,
         6.0425e-03, -1.3260e-02,  8.5449e-04,  2.5162e-02,  2.1332e-02,
        -1.3290e-02, -1.4038e-03,  2.1561e-02, -4.3182e-03,  1.2558e-02,
        -4.9438e-03, -2.8534e-02, -4.3640e-03, -2.0874e-02,  3.8147e-03,
        -8.8043e-03, -2.8198e-02,  1.8448e-02,  1.8906e-02,  3.3371e-02,
        -2.5650e-02, -2.7023e-02, -2.8412e-02, -3.1570e-02, -3.0060e-02,
         3.4058e-02,  2.4826e-02,  2.7679e-02,  3.4470e-02,  2.4139e-02,
        -7.1564e-03,  1.9989e-03, -3.0334e-02, -1.4954e-03,  2.3178e-02,
        -2.4384e-02, -1.6907e-02, -2.5742e-02, -1.5381e-02, -2.4887e-02,
        -1.4832e-02, -1.2756e-02, -1.1719e-02, -6.6528e-03, -2.3209e-02,
        -3.1586e-02, -8.3923e-04,  8.4991e-03, -1.4694e-02, -2.3102e-02,
        -1.8158e-03,  1.9073e-02,  2.3163e-02, -2.0813e-02,  2.2736e-02,
        -1.3977e-02,  1.7700e-02,  3.5278e-02, -2.8381e-03,  1.2512e-03,
        -4.6997e-03, -2.7542e-02, -1.3184e-02,  2.3453e-02, -6.8970e-03,
         3.2318e-02, -9.0027e-03,  2.4139e-02,  3.5248e-03, -1.9531e-02,
         3.0991e-02,  1.3519e-02,  3.5950e-02, -2.7863e-02, -3.4485e-02,
         4.1809e-03, -2.0264e-02, -1.5701e-02,  3.9368e-02,  1.4847e-02,
         1.4267e-02, -4.8523e-03, -1.3626e-02,  2.8275e-02,  1.1353e-02,
        -9.5825e-03,  3.5065e-02, -2.8534e-02,  1.6434e-02, -2.1622e-02,
         8.6212e-03, -1.1093e-02, -2.4963e-02,  4.3488e-03,  2.5055e-02,
        -2.6367e-02, -3.3081e-02,  3.2059e-02,  2.1927e-02, -1.7853e-03,
        -1.4740e-02,  3.1967e-02, -5.6152e-03, -1.8311e-04, -2.0355e-02,
         1.5503e-02,  1.2543e-02,  2.2369e-02,  8.1177e-03,  8.4991e-03,
        -1.8250e-02,  3.4317e-02,  4.2114e-03, -2.9800e-02, -2.9297e-03,
         2.8381e-02, -1.5854e-02,  2.5925e-02, -2.3804e-03,  5.4779e-03,
        -1.5915e-02, -9.4757e-03, -7.9193e-03,  1.8921e-02, -1.8707e-02,
        -1.8295e-02, -4.5624e-03,  3.4943e-02, -2.6840e-02,  7.1106e-03,
        -2.9404e-02, -2.4261e-03,  3.1113e-02, -1.2039e-02,  1.4526e-02,
        -9.2316e-03, -2.0935e-02,  2.0462e-02,  1.2955e-02, -2.0538e-02,
        -7.3090e-03,  5.6000e-03, -3.5233e-02,  2.5955e-02, -2.9541e-02,
         7.6599e-03,  2.5864e-02,  1.8021e-02, -5.8136e-03,  6.6528e-03,
        -8.9874e-03, -1.5198e-02,  9.9487e-03,  2.0142e-03,  3.4897e-02,
        -7.9041e-03, -2.8931e-02, -1.3229e-02,  2.2720e-02, -1.6937e-03,
         2.2049e-02,  1.0864e-02,  3.4103e-02,  9.9335e-03, -2.5070e-02,
         1.5717e-02, -5.8136e-03, -7.9041e-03, -5.4932e-04, -2.0508e-02,
         1.6785e-02,  2.3941e-02,  2.7969e-02, -1.7258e-02,  1.0620e-02,
        -1.6769e-02,  3.2318e-02,  2.8625e-02,  1.2466e-02,  2.6596e-02,
        -4.3182e-03, -4.8523e-03, -3.6453e-02, -2.7878e-02, -2.9221e-02,
         1.7380e-02,  3.8696e-02, -3.3569e-04,  1.4191e-03, -6.2103e-03,
         1.8143e-02,  1.6846e-02, -1.2970e-02,  2.5284e-02, -2.0950e-02,
         2.3804e-02, -4.7150e-03, -2.8992e-03, -1.4038e-03, -1.5457e-02,
         1.2497e-02, -1.9135e-02, -2.6474e-02, -1.1810e-02,  5.6000e-03,
        -2.8122e-02,  5.9967e-03,  2.6154e-02, -1.7548e-03, -2.5970e-02,
         3.2288e-02, -7.7362e-03, -2.7603e-02,  3.0731e-02,  3.5843e-02,
         1.4053e-02,  2.0187e-02,  4.8676e-03, -1.6418e-02,  3.2837e-02,
        -1.4435e-02, -1.7700e-03,  3.6469e-02, -3.5843e-02,  1.6876e-02,
        -2.3132e-02,  2.9144e-03, -2.0889e-02,  2.1027e-02, -2.0447e-02,
        -1.3962e-02,  2.6810e-02, -3.5400e-03,  1.3306e-02, -3.2013e-02,
         1.8646e-02, -5.5237e-03,  2.1271e-02, -3.0884e-02,  1.3062e-02,
         6.4392e-03,  3.3401e-02, -2.3727e-02,  6.1951e-03, -2.4826e-02,
         7.7820e-04, -2.7679e-02, -1.1017e-02,  1.8234e-02, -1.6953e-02,
         1.2100e-02, -3.0487e-02,  3.4821e-02,  8.4839e-03,  1.7120e-02,
         1.5259e-05, -2.9724e-02,  3.1219e-02,  1.4313e-02,  1.0406e-02,
        -9.6588e-03,  2.9099e-02,  1.8143e-02,  2.2507e-02, -1.5717e-02,
        -2.6291e-02,  1.7715e-02, -2.3117e-02,  5.6305e-03,  3.6835e-02,
        -2.2491e-02,  1.6525e-02, -3.1693e-02,  5.5389e-03, -2.4399e-02,
        -2.3636e-02, -1.5884e-02, -6.1035e-03, -1.2878e-02, -1.5625e-02,
        -2.8885e-02, -5.6000e-03, -3.1693e-02,  3.0273e-02, -3.2074e-02,
        -8.6517e-03,  1.6541e-02,  3.2532e-02, -2.5711e-02,  2.5299e-02,
         2.1439e-02,  4.4861e-03, -1.6785e-03,  1.3245e-02,  2.8763e-02,
         3.0762e-02,  1.1429e-02, -2.9190e-02,  3.3020e-02,  2.5620e-02,
        -2.4078e-02, -2.4841e-02, -2.9602e-02,  1.3779e-02, -4.1809e-03,
         3.5446e-02,  2.0538e-02,  5.7373e-03, -1.2054e-02, -2.2003e-02,
        -2.7313e-03,  1.4755e-02,  3.6362e-02,  1.4847e-02, -2.8549e-02,
         5.7983e-04,  3.9734e-02, -1.2451e-02, -6.7902e-03,  1.5839e-02,
        -1.8631e-02,  2.8946e-02,  2.2873e-02, -4.0283e-03, -3.2501e-02,
        -1.1398e-02, -1.2451e-02,  1.2070e-02, -2.5955e-02, -1.7532e-02,
        -1.5869e-02, -2.0935e-02,  1.7166e-02,  2.0599e-03,  3.2944e-02,
         2.2644e-02,  1.6327e-03, -1.6083e-02,  7.1716e-03,  1.1597e-03,
         3.0640e-02,  4.1504e-03,  2.2308e-02,  2.5177e-02,  7.4463e-03,
         1.0178e-02,  6.1951e-03,  2.1164e-02,  2.1027e-02, -2.4170e-02,
        -1.8021e-02,  2.3499e-03], device='cuda:0')

fc2.weight 	 torch.Size([512, 512])
tensor([[-0.0156,  0.0312,  0.0312,  ...,  0.0312,  0.0156,  0.0078],
        [ 0.0039, -0.0078, -0.0156,  ..., -0.0312,  0.0156,  0.0010],
        [ 0.0039, -0.0156,  0.0156,  ...,  0.0312, -0.0156,  0.0312],
        ...,
        [ 0.0156,  0.0312,  0.0625,  ..., -0.0010, -0.0312,  0.0156],
        [-0.0312, -0.0312, -0.0020,  ..., -0.0039, -0.0156,  0.0156],
        [-0.0156,  0.0312, -0.0078,  ...,  0.0039, -0.0312, -0.0078]],
       device='cuda:0')

fc2.bias 	 torch.Size([512])
tensor([-0.0309,  0.0313,  0.0154, -0.0132,  0.0017,  0.0469, -0.0194, -0.0323,
         0.0081, -0.0059, -0.0022, -0.0292,  0.0479, -0.0376,  0.0400, -0.0101,
        -0.0254,  0.0372,  0.0449,  0.0231,  0.0330,  0.0141,  0.0052,  0.0329,
         0.0131, -0.0276,  0.0005,  0.0258, -0.0230, -0.0388, -0.0106, -0.0424,
        -0.0119,  0.0052, -0.0031, -0.0420,  0.0431, -0.0092, -0.0118,  0.0126,
         0.0249, -0.0374, -0.0306, -0.0265,  0.0333,  0.0470,  0.0440, -0.0116,
         0.0451,  0.0126, -0.0043,  0.0343,  0.0403,  0.0233, -0.0191, -0.0368,
        -0.0316, -0.0261, -0.0069, -0.0232, -0.0168, -0.0332, -0.0068, -0.0140,
        -0.0314,  0.0409,  0.0437, -0.0149,  0.0046,  0.0070, -0.0032,  0.0135,
         0.0268,  0.0240,  0.0357, -0.0292,  0.0166, -0.0116,  0.0144,  0.0019,
         0.0075, -0.0420, -0.0262, -0.0209, -0.0039, -0.0053,  0.0404,  0.0185,
        -0.0107, -0.0152, -0.0371,  0.0027,  0.0093, -0.0195, -0.0030, -0.0165,
        -0.0078,  0.0279,  0.0148,  0.0199, -0.0246,  0.0337, -0.0086,  0.0386,
        -0.0076,  0.0178,  0.0362, -0.0246, -0.0433,  0.0119,  0.0329, -0.0213,
         0.0250,  0.0182, -0.0076, -0.0117, -0.0176, -0.0254,  0.0255, -0.0370,
        -0.0101, -0.0369,  0.0144,  0.0134,  0.0305, -0.0243, -0.0120,  0.0173,
        -0.0192, -0.0365,  0.0229, -0.0224,  0.0003, -0.0163, -0.0217,  0.0078,
        -0.0132, -0.0299,  0.0017, -0.0178, -0.0051, -0.0038,  0.0245,  0.0222,
        -0.0038,  0.0113,  0.0347,  0.0277, -0.0311, -0.0399, -0.0335,  0.0435,
         0.0108, -0.0123, -0.0249,  0.0441,  0.0297, -0.0106, -0.0238,  0.0031,
         0.0247,  0.0344, -0.0046,  0.0398,  0.0434, -0.0123,  0.0354,  0.0309,
         0.0112,  0.0397, -0.0354, -0.0041, -0.0106, -0.0363,  0.0101,  0.0314,
        -0.0004, -0.0222, -0.0359, -0.0240, -0.0220,  0.0387, -0.0396, -0.0200,
         0.0006,  0.0411,  0.0020, -0.0197,  0.0379, -0.0096,  0.0069, -0.0239,
         0.0191,  0.0337,  0.0180, -0.0073,  0.0038, -0.0099,  0.0294,  0.0119,
        -0.0227,  0.0174, -0.0284,  0.0086, -0.0387, -0.0369, -0.0038,  0.0430,
         0.0354, -0.0323,  0.0119, -0.0342, -0.0200,  0.0153,  0.0505, -0.0132,
         0.0085, -0.0208,  0.0452,  0.0341, -0.0290,  0.0104,  0.0021,  0.0182,
        -0.0190, -0.0347,  0.0126,  0.0299, -0.0231,  0.0046,  0.0411,  0.0183,
         0.0451,  0.0253,  0.0212, -0.0105,  0.0225, -0.0219,  0.0098,  0.0337,
         0.0401, -0.0127, -0.0185, -0.0275,  0.0397, -0.0155, -0.0175, -0.0187,
         0.0271,  0.0368,  0.0214, -0.0306, -0.0224,  0.0470, -0.0260, -0.0219,
         0.0085, -0.0181,  0.0287,  0.0043, -0.0139, -0.0278, -0.0287, -0.0385,
         0.0404,  0.0292, -0.0148, -0.0021, -0.0128,  0.0110, -0.0219, -0.0345,
         0.0048,  0.0018, -0.0130,  0.0093, -0.0289,  0.0319,  0.0461, -0.0077,
        -0.0395,  0.0265, -0.0078, -0.0092,  0.0025, -0.0309,  0.0118,  0.0386,
         0.0470,  0.0213, -0.0079,  0.0215,  0.0343, -0.0292,  0.0262,  0.0259,
        -0.0156,  0.0242, -0.0176,  0.0067, -0.0245,  0.0236, -0.0368, -0.0355,
        -0.0374,  0.0362, -0.0254, -0.0253, -0.0269, -0.0179,  0.0108, -0.0353,
        -0.0065,  0.0266, -0.0419,  0.0275,  0.0020, -0.0240, -0.0203,  0.0258,
         0.0241,  0.0076,  0.0297, -0.0205,  0.0333, -0.0094,  0.0241, -0.0183,
         0.0274, -0.0187, -0.0086,  0.0098,  0.0291,  0.0429, -0.0346, -0.0067,
         0.0407, -0.0201,  0.0301,  0.0185,  0.0009,  0.0251,  0.0128, -0.0203,
        -0.0126,  0.0142,  0.0087,  0.0394,  0.0354,  0.0251,  0.0333,  0.0328,
         0.0046, -0.0329,  0.0405,  0.0375,  0.0148, -0.0354,  0.0369, -0.0251,
        -0.0292, -0.0038,  0.0019,  0.0116, -0.0013, -0.0182, -0.0335,  0.0285,
        -0.0277,  0.0154,  0.0208, -0.0053,  0.0211, -0.0168, -0.0410, -0.0213,
         0.0067,  0.0226, -0.0230,  0.0213,  0.0228, -0.0381,  0.0467,  0.0412,
         0.0264,  0.0136,  0.0008, -0.0103,  0.0184, -0.0072,  0.0241,  0.0427,
         0.0473, -0.0384, -0.0155,  0.0282,  0.0451, -0.0278, -0.0008, -0.0409,
         0.0131,  0.0165,  0.0142, -0.0078,  0.0204, -0.0165,  0.0305, -0.0161,
         0.0179, -0.0201, -0.0289, -0.0191, -0.0303, -0.0099, -0.0139,  0.0153,
         0.0219, -0.0041, -0.0184, -0.0199, -0.0188,  0.0153, -0.0117,  0.0188,
         0.0476,  0.0457, -0.0176,  0.0424,  0.0013,  0.0168, -0.0362,  0.0240,
         0.0102,  0.0162, -0.0026,  0.0165,  0.0128,  0.0424,  0.0392,  0.0368,
         0.0416,  0.0326, -0.0091, -0.0218,  0.0288,  0.0262,  0.0368,  0.0305,
        -0.0134,  0.0008, -0.0327,  0.0306, -0.0297,  0.0449,  0.0314, -0.0183,
        -0.0072,  0.0242,  0.0308,  0.0102, -0.0370, -0.0222, -0.0176, -0.0263,
        -0.0415,  0.0351, -0.0105, -0.0043,  0.0081,  0.0459, -0.0257, -0.0327,
         0.0150, -0.0282,  0.0011, -0.0189,  0.0009, -0.0312,  0.0444,  0.0110,
        -0.0128,  0.0471,  0.0135, -0.0008, -0.0115,  0.0430, -0.0050,  0.0201,
         0.0326,  0.0109, -0.0012, -0.0413,  0.0104,  0.0095, -0.0027, -0.0126,
        -0.0233, -0.0287,  0.0076, -0.0275, -0.0371, -0.0207,  0.0119, -0.0078,
        -0.0332,  0.0236,  0.0153, -0.0166, -0.0281,  0.0076,  0.0127,  0.0195],
       device='cuda:0')

fc3.weight 	 torch.Size([10, 512])
tensor([[-0.0156, -0.0625, -0.0625,  ..., -0.0156, -0.0156,  0.0078],
        [-0.1250, -0.0078, -0.0625,  ...,  0.0078, -0.0156,  0.0156],
        [-0.0312,  0.0312,  0.0312,  ..., -0.0078, -0.0156,  0.0312],
        ...,
        [ 0.0625, -0.0312,  0.0625,  ..., -0.0020, -0.0312,  0.0312],
        [ 0.1250, -0.0312, -0.0625,  ..., -0.0156, -0.0156, -0.0156],
        [ 0.0078,  0.0625,  0.0625,  ..., -0.0312, -0.0156,  0.0312]],
       device='cuda:0')

fc3.bias 	 torch.Size([10])
tensor([-0.0181,  0.0627, -0.0291, -0.0157,  0.0260,  0.0568, -0.0262,  0.0325,
         0.0325,  0.0038], device='cuda:0')

