Model's state_dict:
fc1.weight 	 torch.Size([512, 784])
tensor([[ 0.0182, -0.0159, -0.0071,  ...,  0.0066, -0.0042,  0.0023],
        [-0.0274, -0.0224, -0.0309,  ..., -0.0029,  0.0013, -0.0167],
        [ 0.0291, -0.0086, -0.0331,  ..., -0.0132,  0.0065, -0.0326],
        ...,
        [-0.0116, -0.0073,  0.0130,  ...,  0.0097,  0.0072, -0.0105],
        [ 0.0276, -0.0287,  0.0152,  ..., -0.0129, -0.0064,  0.0008],
        [-0.0298, -0.0343,  0.0007,  ...,  0.0252,  0.0152, -0.0212]],
       device='cuda:0')

fc1.bias 	 torch.Size([512])
tensor([-1.2208e-02, -3.6045e-03, -3.4525e-02, -1.0109e-03, -1.9387e-02,
         8.8207e-03,  2.9015e-02, -4.3932e-03, -1.2724e-02,  4.9179e-03,
        -1.1011e-02,  6.9756e-03, -1.9411e-02, -1.8307e-02,  1.5466e-02,
         1.0490e-02, -7.3324e-03, -2.5745e-02,  2.7605e-02, -1.1414e-02,
         1.9503e-02, -3.2624e-02, -1.9389e-02,  1.7185e-02, -8.7554e-03,
         1.2231e-02, -3.2352e-02,  2.6505e-02,  5.9074e-03, -8.7114e-03,
         2.9940e-02, -1.6235e-02,  2.6170e-02, -2.6605e-03,  2.3671e-02,
        -2.2342e-04, -5.1480e-03, -1.9823e-02, -3.0170e-02,  2.4197e-02,
        -1.1258e-02,  9.6208e-03,  1.3790e-02, -3.4292e-02, -2.9542e-04,
         1.0356e-02, -3.0799e-03,  4.4879e-03,  1.5403e-02,  3.3746e-02,
        -2.5662e-02, -1.1882e-02,  1.4010e-02,  5.6278e-04, -2.9636e-02,
         2.1519e-02,  3.4948e-02, -2.9743e-02,  2.5765e-03, -2.7646e-02,
         1.0889e-03, -1.0841e-02, -1.8038e-02, -2.8584e-02,  3.1683e-02,
        -1.7584e-02, -1.9552e-02, -2.5891e-02, -1.3987e-02, -1.3244e-02,
        -1.9354e-02,  5.0419e-03, -2.2495e-02, -2.7351e-02,  2.5772e-02,
        -1.2834e-02, -2.4090e-02, -7.6377e-03,  8.9907e-03,  1.2622e-02,
        -2.1950e-03, -5.0280e-03,  5.0628e-03,  3.4676e-02,  6.9577e-03,
         4.8546e-03,  1.2535e-02, -1.7299e-02, -3.1761e-02, -9.3839e-03,
        -2.8633e-02, -2.9688e-02, -2.1092e-02, -1.8319e-02, -3.2440e-02,
        -7.2052e-03,  6.7552e-03,  2.7899e-02, -7.9462e-03,  2.3607e-02,
         1.8825e-02, -2.5837e-02, -2.1470e-02, -1.1136e-03,  9.0650e-03,
        -1.6270e-02,  1.7000e-02,  2.4910e-02, -1.8461e-03, -7.3544e-03,
        -2.9211e-02, -2.6825e-02,  3.0547e-02, -1.2803e-03, -2.5759e-02,
        -1.3714e-02,  2.1952e-02, -2.3913e-02,  2.9924e-02, -1.2191e-02,
        -7.1836e-03,  2.9118e-02, -3.6275e-03,  3.0975e-02, -1.7506e-03,
        -3.0717e-02, -2.4842e-02,  2.5853e-02,  9.5897e-03,  3.1714e-02,
         3.4145e-02,  2.8293e-02,  2.4369e-02, -2.4926e-04, -2.0279e-02,
         1.8298e-02, -1.2780e-02,  3.0762e-02, -2.5596e-02,  4.4496e-03,
        -1.3769e-02, -2.4538e-02,  1.0444e-02, -1.7653e-02, -2.7581e-02,
         1.3199e-02,  3.1931e-02,  3.1138e-02,  1.4211e-02,  2.5949e-02,
         2.8355e-02, -1.4069e-02,  1.1716e-02,  5.2636e-03,  2.1239e-02,
        -2.9626e-02,  7.0847e-03,  2.6576e-02, -1.1690e-02, -2.1468e-02,
         6.3888e-03, -1.3393e-02,  5.7038e-04,  2.4908e-02,  2.1337e-02,
        -1.3613e-02, -1.8650e-03,  2.2359e-02, -4.2599e-03,  1.2741e-02,
        -5.2457e-03, -2.8815e-02, -4.5776e-03, -2.0885e-02,  3.5138e-03,
        -8.8678e-03, -2.8333e-02,  1.9052e-02,  1.9358e-02,  3.3388e-02,
        -2.5319e-02, -2.6824e-02, -2.8827e-02, -3.1462e-02, -3.0077e-02,
         3.3845e-02,  2.4866e-02,  2.7678e-02,  3.4215e-02,  2.4206e-02,
        -7.0970e-03,  2.3333e-03, -2.9798e-02, -1.1861e-03,  2.3554e-02,
        -2.4931e-02, -1.7080e-02, -2.4870e-02, -1.4864e-02, -2.5101e-02,
        -1.5483e-02, -1.3258e-02, -1.1683e-02, -6.6634e-03, -2.3219e-02,
        -3.1563e-02, -4.9312e-04,  8.5632e-03, -1.3967e-02, -2.2602e-02,
        -1.7440e-03,  1.8897e-02,  2.3554e-02, -2.0937e-02,  2.2469e-02,
        -1.3821e-02,  1.7469e-02,  3.5232e-02, -2.9443e-03,  1.2779e-03,
        -4.8195e-03, -2.7796e-02, -1.3239e-02,  2.3433e-02, -7.0968e-03,
         3.2345e-02, -9.0006e-03,  2.4087e-02,  3.6612e-03, -1.8752e-02,
         3.0824e-02,  1.4146e-02,  3.5768e-02, -2.7399e-02, -3.4538e-02,
         3.9815e-03, -2.0103e-02, -1.5654e-02,  3.9797e-02,  1.5092e-02,
         1.4682e-02, -5.1149e-03, -1.3223e-02,  2.9110e-02,  1.1059e-02,
        -9.8795e-03,  3.5384e-02, -2.8939e-02,  1.5983e-02, -2.1843e-02,
         8.6252e-03, -1.1228e-02, -2.4789e-02,  4.5568e-03,  2.5342e-02,
        -2.6884e-02, -3.3419e-02,  3.1526e-02,  2.2495e-02, -1.0822e-03,
        -1.4506e-02,  3.2374e-02, -5.6982e-03, -1.0666e-04, -2.0368e-02,
         1.5270e-02,  1.2336e-02,  2.2353e-02,  8.6733e-03,  7.5448e-03,
        -1.8170e-02,  3.4522e-02,  4.5498e-03, -2.9844e-02, -2.6944e-03,
         2.8497e-02, -1.5824e-02,  2.5618e-02, -2.1465e-03,  5.0630e-03,
        -1.5796e-02, -9.5175e-03, -8.0521e-03,  1.8639e-02, -1.8229e-02,
        -1.7994e-02, -4.2940e-03,  3.4554e-02, -2.7429e-02,  6.9191e-03,
        -2.9130e-02, -1.8590e-03,  3.0547e-02, -1.1721e-02,  1.4893e-02,
        -9.3558e-03, -2.0427e-02,  2.0604e-02,  1.3356e-02, -2.0084e-02,
        -6.7455e-03,  6.2743e-03, -3.5106e-02,  2.5889e-02, -2.9577e-02,
         7.4330e-03,  2.5737e-02,  1.8495e-02, -5.9856e-03,  6.7910e-03,
        -9.3071e-03, -1.5405e-02,  9.5152e-03,  2.0297e-03,  3.4772e-02,
        -7.7718e-03, -2.8873e-02, -1.3712e-02,  2.3330e-02, -1.9850e-03,
         2.2009e-02,  1.0525e-02,  3.4707e-02,  9.8297e-03, -2.4990e-02,
         1.5932e-02, -5.8510e-03, -8.0703e-03, -6.1483e-04, -1.9916e-02,
         1.7386e-02,  2.4089e-02,  2.8206e-02, -1.6749e-02,  1.1139e-02,
        -1.6294e-02,  3.2159e-02,  2.8301e-02,  1.2268e-02,  2.6755e-02,
        -4.3526e-03, -5.0440e-03, -3.6238e-02, -2.7174e-02, -2.8838e-02,
         1.7677e-02,  3.8859e-02,  5.8361e-05,  1.7829e-03, -5.5126e-03,
         1.8261e-02,  1.7658e-02, -1.2946e-02,  2.5038e-02, -2.1138e-02,
         2.3659e-02, -4.4962e-03, -3.1012e-03, -1.2363e-03, -1.5239e-02,
         1.3254e-02, -1.9165e-02, -2.5941e-02, -1.1859e-02,  5.3641e-03,
        -2.7572e-02,  5.8759e-03,  2.6319e-02, -1.7176e-03, -2.6012e-02,
         3.2129e-02, -7.3988e-03, -2.6799e-02,  3.0758e-02,  3.6499e-02,
         1.4587e-02,  2.0966e-02,  5.0090e-03, -1.6266e-02,  3.3081e-02,
        -1.3864e-02, -1.5313e-03,  3.6588e-02, -3.5052e-02,  1.6955e-02,
        -2.3242e-02,  2.9211e-03, -2.0951e-02,  2.1307e-02, -2.0195e-02,
        -1.3562e-02,  2.6583e-02, -3.0914e-03,  1.3049e-02, -3.1604e-02,
         1.8640e-02, -5.6701e-03,  2.1243e-02, -3.0952e-02,  1.3151e-02,
         6.2457e-03,  3.3757e-02, -2.3885e-02,  6.0198e-03, -2.5122e-02,
         7.3384e-04, -2.7434e-02, -1.0996e-02,  1.8420e-02, -1.7234e-02,
         1.1829e-02, -3.0495e-02,  3.4585e-02,  8.9542e-03,  1.7451e-02,
         1.9532e-04, -2.9410e-02,  3.1981e-02,  1.4614e-02,  1.0071e-02,
        -9.5743e-03,  2.9399e-02,  1.8381e-02,  2.2795e-02, -1.5014e-02,
        -2.5511e-02,  1.7846e-02, -2.2963e-02,  5.8994e-03,  3.6331e-02,
        -2.2794e-02,  1.6693e-02, -3.1666e-02,  5.8109e-03, -2.5388e-02,
        -2.3427e-02, -1.5318e-02, -6.2842e-03, -1.2706e-02, -1.5253e-02,
        -2.8553e-02, -5.5869e-03, -3.1606e-02,  3.0719e-02, -3.2042e-02,
        -8.4563e-03,  1.6737e-02,  3.2622e-02, -2.5684e-02,  2.6099e-02,
         2.1087e-02,  4.2909e-03, -1.2235e-03,  1.3322e-02,  2.8783e-02,
         3.0767e-02,  1.2124e-02, -2.9276e-02,  3.2758e-02,  2.5687e-02,
        -2.3797e-02, -2.5105e-02, -2.9673e-02,  1.3914e-02, -3.8884e-03,
         3.5643e-02,  1.9885e-02,  6.0756e-03, -1.2146e-02, -2.2003e-02,
        -1.8356e-03,  1.4787e-02,  3.6401e-02,  1.5163e-02, -2.8592e-02,
         8.6154e-04,  3.9650e-02, -1.2460e-02, -6.3779e-03,  1.6021e-02,
        -1.9051e-02,  2.9064e-02,  2.3282e-02, -3.1218e-03, -3.2050e-02,
        -1.2200e-02, -1.2354e-02,  1.2540e-02, -2.5836e-02, -1.6971e-02,
        -1.5618e-02, -2.1139e-02,  1.7423e-02,  2.1774e-03,  3.3101e-02,
         2.2363e-02,  1.8472e-03, -1.5751e-02,  6.7933e-03,  1.1586e-03,
         3.1222e-02,  4.2639e-03,  2.1892e-02,  2.5027e-02,  7.4742e-03,
         1.0382e-02,  6.4995e-03,  2.1068e-02,  2.0830e-02, -2.4279e-02,
        -1.8066e-02,  2.3227e-03], device='cuda:0')

fc2.weight 	 torch.Size([512, 512])
tensor([[-0.0189,  0.0326,  0.0377,  ...,  0.0410,  0.0188,  0.0074],
        [ 0.0028, -0.0072, -0.0133,  ..., -0.0345,  0.0136,  0.0013],
        [ 0.0035, -0.0168,  0.0166,  ...,  0.0400, -0.0110,  0.0275],
        ...,
        [ 0.0219,  0.0280,  0.0460,  ..., -0.0010, -0.0314,  0.0159],
        [-0.0288, -0.0330, -0.0018,  ..., -0.0031, -0.0161,  0.0214],
        [-0.0185,  0.0229, -0.0103,  ...,  0.0040, -0.0255, -0.0063]],
       device='cuda:0')

fc2.bias 	 torch.Size([512])
tensor([-0.0314,  0.0311,  0.0153, -0.0134,  0.0012,  0.0461, -0.0195, -0.0325,
         0.0088, -0.0065, -0.0030, -0.0293,  0.0479, -0.0373,  0.0399, -0.0101,
        -0.0246,  0.0376,  0.0455,  0.0230,  0.0333,  0.0142,  0.0052,  0.0333,
         0.0129, -0.0276,  0.0009,  0.0255, -0.0236, -0.0385, -0.0107, -0.0419,
        -0.0120,  0.0051, -0.0028, -0.0419,  0.0422, -0.0097, -0.0115,  0.0125,
         0.0246, -0.0379, -0.0305, -0.0267,  0.0331,  0.0467,  0.0439, -0.0124,
         0.0446,  0.0123, -0.0051,  0.0342,  0.0397,  0.0224, -0.0194, -0.0369,
        -0.0311, -0.0267, -0.0055, -0.0225, -0.0168, -0.0335, -0.0072, -0.0146,
        -0.0315,  0.0407,  0.0439, -0.0153,  0.0041,  0.0075, -0.0017,  0.0136,
         0.0262,  0.0241,  0.0356, -0.0291,  0.0165, -0.0119,  0.0145,  0.0022,
         0.0083, -0.0413, -0.0265, -0.0209, -0.0040, -0.0055,  0.0400,  0.0190,
        -0.0106, -0.0157, -0.0367,  0.0024,  0.0092, -0.0193, -0.0036, -0.0169,
        -0.0085,  0.0275,  0.0143,  0.0198, -0.0244,  0.0332, -0.0095,  0.0389,
        -0.0085,  0.0177,  0.0354, -0.0246, -0.0434,  0.0114,  0.0326, -0.0213,
         0.0250,  0.0180, -0.0082, -0.0116, -0.0175, -0.0258,  0.0257, -0.0368,
        -0.0100, -0.0369,  0.0142,  0.0137,  0.0308, -0.0246, -0.0117,  0.0169,
        -0.0195, -0.0369,  0.0227, -0.0222,  0.0002, -0.0161, -0.0217,  0.0071,
        -0.0128, -0.0305,  0.0016, -0.0179, -0.0048, -0.0036,  0.0235,  0.0223,
        -0.0039,  0.0109,  0.0339,  0.0277, -0.0310, -0.0398, -0.0333,  0.0435,
         0.0110, -0.0125, -0.0244,  0.0439,  0.0306, -0.0106, -0.0239,  0.0022,
         0.0245,  0.0341, -0.0049,  0.0400,  0.0439, -0.0124,  0.0353,  0.0299,
         0.0117,  0.0398, -0.0349, -0.0050, -0.0108, -0.0361,  0.0100,  0.0311,
        -0.0004, -0.0219, -0.0365, -0.0237, -0.0216,  0.0379, -0.0393, -0.0203,
        -0.0002,  0.0415,  0.0016, -0.0192,  0.0377, -0.0093,  0.0055, -0.0235,
         0.0196,  0.0339,  0.0176, -0.0075,  0.0039, -0.0099,  0.0297,  0.0116,
        -0.0225,  0.0175, -0.0284,  0.0091, -0.0393, -0.0370, -0.0037,  0.0422,
         0.0358, -0.0328,  0.0116, -0.0339, -0.0199,  0.0156,  0.0504, -0.0135,
         0.0088, -0.0204,  0.0449,  0.0344, -0.0290,  0.0103,  0.0019,  0.0186,
        -0.0191, -0.0348,  0.0125,  0.0299, -0.0239,  0.0051,  0.0411,  0.0186,
         0.0447,  0.0250,  0.0207, -0.0105,  0.0226, -0.0221,  0.0096,  0.0324,
         0.0401, -0.0140, -0.0193, -0.0274,  0.0395, -0.0165, -0.0173, -0.0192,
         0.0269,  0.0366,  0.0214, -0.0306, -0.0223,  0.0470, -0.0265, -0.0221,
         0.0084, -0.0183,  0.0285,  0.0033, -0.0140, -0.0280, -0.0289, -0.0384,
         0.0407,  0.0292, -0.0148, -0.0029, -0.0127,  0.0109, -0.0219, -0.0347,
         0.0048,  0.0017, -0.0128,  0.0101, -0.0298,  0.0315,  0.0459, -0.0076,
        -0.0393,  0.0266, -0.0076, -0.0096,  0.0020, -0.0306,  0.0120,  0.0383,
         0.0470,  0.0216, -0.0074,  0.0213,  0.0346, -0.0294,  0.0261,  0.0257,
        -0.0154,  0.0243, -0.0174,  0.0063, -0.0250,  0.0235, -0.0375, -0.0355,
        -0.0375,  0.0360, -0.0253, -0.0259, -0.0265, -0.0169,  0.0108, -0.0360,
        -0.0063,  0.0264, -0.0419,  0.0275,  0.0018, -0.0245, -0.0203,  0.0258,
         0.0237,  0.0080,  0.0298, -0.0205,  0.0339, -0.0094,  0.0238, -0.0183,
         0.0274, -0.0195, -0.0088,  0.0106,  0.0288,  0.0431, -0.0345, -0.0066,
         0.0403, -0.0203,  0.0298,  0.0184,  0.0014,  0.0253,  0.0131, -0.0206,
        -0.0129,  0.0136,  0.0089,  0.0394,  0.0356,  0.0250,  0.0332,  0.0319,
         0.0037, -0.0332,  0.0406,  0.0373,  0.0146, -0.0353,  0.0365, -0.0248,
        -0.0288, -0.0038,  0.0020,  0.0112, -0.0015, -0.0173, -0.0337,  0.0280,
        -0.0273,  0.0155,  0.0199, -0.0053,  0.0212, -0.0171, -0.0406, -0.0208,
         0.0062,  0.0226, -0.0229,  0.0216,  0.0225, -0.0377,  0.0463,  0.0412,
         0.0264,  0.0129,  0.0008, -0.0105,  0.0178, -0.0072,  0.0237,  0.0423,
         0.0476, -0.0385, -0.0156,  0.0276,  0.0445, -0.0275, -0.0008, -0.0407,
         0.0132,  0.0161,  0.0140, -0.0078,  0.0210, -0.0167,  0.0307, -0.0161,
         0.0185, -0.0204, -0.0291, -0.0191, -0.0310, -0.0105, -0.0137,  0.0154,
         0.0219, -0.0038, -0.0183, -0.0199, -0.0189,  0.0160, -0.0117,  0.0189,
         0.0469,  0.0463, -0.0176,  0.0423,  0.0023,  0.0168, -0.0362,  0.0242,
         0.0102,  0.0168, -0.0020,  0.0170,  0.0130,  0.0423,  0.0396,  0.0373,
         0.0418,  0.0326, -0.0098, -0.0211,  0.0286,  0.0261,  0.0368,  0.0305,
        -0.0132,  0.0011, -0.0331,  0.0299, -0.0290,  0.0448,  0.0306, -0.0193,
        -0.0075,  0.0250,  0.0309,  0.0101, -0.0372, -0.0220, -0.0193, -0.0262,
        -0.0414,  0.0353, -0.0112, -0.0041,  0.0085,  0.0463, -0.0257, -0.0323,
         0.0154, -0.0282,  0.0010, -0.0189,  0.0012, -0.0313,  0.0441,  0.0104,
        -0.0135,  0.0471,  0.0137, -0.0006, -0.0115,  0.0426, -0.0051,  0.0196,
         0.0324,  0.0102, -0.0017, -0.0414,  0.0108,  0.0098, -0.0026, -0.0126,
        -0.0237, -0.0287,  0.0074, -0.0275, -0.0369, -0.0201,  0.0122, -0.0078,
        -0.0336,  0.0237,  0.0149, -0.0164, -0.0280,  0.0076,  0.0127,  0.0193],
       device='cuda:0')

fc3.weight 	 torch.Size([10, 512])
tensor([[-0.0192, -0.0432, -0.0752,  ..., -0.0169, -0.0219,  0.0108],
        [-0.0896, -0.0095, -0.0755,  ...,  0.0086, -0.0175,  0.0134],
        [-0.0288,  0.0340,  0.0317,  ..., -0.0088, -0.0128,  0.0425],
        ...,
        [ 0.0707, -0.0410,  0.0536,  ..., -0.0018, -0.0292,  0.0334],
        [ 0.0926, -0.0390, -0.0702,  ..., -0.0126, -0.0133, -0.0146],
        [ 0.0138,  0.0441,  0.0830,  ..., -0.0302, -0.0139,  0.0395]],
       device='cuda:0')

fc3.bias 	 torch.Size([10])
tensor([-0.0187,  0.0615, -0.0273, -0.0137,  0.0255,  0.0588, -0.0256,  0.0338,
         0.0275,  0.0036], device='cuda:0')

